48 73 457
buy -0.0035486342385411263 -0.004288459196686745 -0.004309611860662699 0.004933979827910662 -0.007181263063102961 -0.006590796634554863 0.001532718539237976 0.004671432543545961 -0.005373579915612936 7.774531259201467E-4 0.007519758306443691 0.004056910984218121 0.003046387806534767 0.004354433156549931 -0.005529157351702452 -0.002467661863192916 -0.006627787370234728 -0.003850701730698347 -0.0017219881992787123 -0.004568298812955618 0.0019911115523427725 0.005912568885833025 -0.003546056104823947 -1.9161199816153385E-5 0.003716625738888979 0.0018159975297749043 0.0022344430908560753 -0.007647487800568342 -0.003218862460926175 -0.002408824395388365 -0.004546245560050011 0.005747491959482431 -0.0018155024154111743 -6.372946663759649E-4 0.0017644456820562482 0.00219227303750813 -0.001640047412365675 2.021889085881412E-4 -0.005047991406172514 0.00602363096550107 -0.0017068792367354035 -0.008044288493692875 -0.002192476764321327 0.005382241681218147 0.006091604940593243 -0.0060698408633470535 0.004379084333777428 -0.002181492978706956 0.003594169393181801 -0.00351129611954093 -0.0020370585843920708 0.006631592754274607 -0.003723256289958954 0.0011495399521663785 -1.3855121505912393E-4 -0.0022674810606986284 0.004039567895233631 -0.0052192979492247105 2.556709514465183E-4 0.004963753744959831 -0.0065798070281744 -0.0018488308414816856 -0.0029705497436225414 -0.006477304268628359 9.379227412864566E-4 -0.0010963974054902792 0.00611602608114481 -5.658731097355485E-4 -0.0033431819174438715 -0.0041277757845819 0.004958665929734707 -6.041871965862811E-4 -9.02307074284181E-5
tell -0.002364071784541011 -0.005846714600920677 -0.006801369599997997 -3.556039300747216E-4 -0.001351859187707305 -9.626767132431269E-4 0.001488648122176528 -0.0036340467631816864 0.005027505569159985 -0.0028392444364726543 0.004362305160611868 0.0069361464120447636 8.932222262956202E-4 -0.0022119164932519197 -0.006550448015332222 0.005611573811620474 0.004238076042383909 0.003427263116464019 0.002889779396355152 0.0035300967283546925 0.0015635342570021749 0.0024559972807765007 0.003921387251466513 -0.0012872217921540141 -0.005337454378604889 0.0027072455268353224 0.0027098534628748894 0.0014127731556072831 -0.006937479600310326 6.772818742319942E-4 5.199390579946339E-5 -0.005802467465400696 -0.005624101962894201 0.0060697197914123535 0.0067151691764593124 -0.003558472963050008 0.00362172513268888 -4.260484129190445E-4 -0.006503267679363489 -0.0066064391285181046 -7.117666536942124E-4 0.0011518457904458046 4.250026249792427E-4 0.006215776316821575 0.0025312744546681643 0.007006525993347168 -0.002916832221671939 0.004849188029766083 -0.003613066393882036 0.002299325307831168 -0.0024531360249966383 0.004139574244618416 0.002862958237528801 0.005711595062166452 -7.070741412462667E-5 0.00200139288790524 0.0024280573707073927 -0.0013596448116004467 -0.005045800469815731 -8.131577633321285E-4 0.005552347283810377 -4.871783312410116E-4 0.004809332545846701 -0.0061485376209020615 0.005040449555963278 0.004458707757294178 -0.0035799199249595404 -0.0027240533381700516 0.0025044349022209644 9.119751630350947E-4 0.002673741662874818 -0.004341570660471916 -0.006496842484921217
available -0.003012236440554261 2.4123619368765503E-4 -0.0057322243228554726 0.002627694746479392 0.0045891813933849335 -0.003803570754826069 -0.004777081310749054 0.0015449798665940762 0.0029422275256365538 -0.002845410956069827 0.004604320973157883 -0.003236139426007867 0.0025684810243546963 -0.002055457793176174 0.002654244424775243 0.0014085196889936924 -0.005767420865595341 3.29638016410172E-4 -1.1054992501158267E-4 0.0012511451495811343 0.003063969546929002 -0.0031949093099683523 -0.002558787353336811 0.006089756730943918 -0.006522030103951693 0.00517513882368803 0.007045188453048468 0.005936178378760815 4.560954694170505E-4 0.004610260017216206 -0.0015684748068451881 -0.001010242267511785 -0.004920740146189928 0.003148539923131466 3.4013870754279196E-4 0.0017641567392274737 1.5047260967548937E-4 0.005589643027633429 0.002360626822337508 -1.4469299640040845E-4 -0.003845532424747944 0.006525890901684761 0.004011763725429773 0.005034732632339001 -0.0029216522816568613 0.0030365190468728542 0.0018326605204492807 0.004809654783457518 -0.004359997808933258 -0.004266372881829739 -0.0075693135149776936 -0.0022534795571118593 -0.004466351121664047 0.003579953219741583 -0.0010797291761264205 0.001250744448043406 0.0025809824001044035 0.0024991307873278856 0.0013013735879212618 -0.004055264871567488 0.006443851627409458 -0.006277033127844334 -0.006931462325155735 0.004410217981785536 -0.0020139741245657206 -0.006045709829777479 -0.001293993671424687 -0.0034247080329805613 -0.006645844783633947 6.708612199872732E-4 -0.004233435727655888 0.004018459469079971 0.0019165821140632033
marki 0.005540014710277319 -0.002259159693494439 0.006506174802780151 -0.0037818721029907465 -0.0049590859562158585 -0.004460387397557497 -0.005695030093193054 0.0031745058950036764 -0.0015328081790357828 0.005326523445546627 -0.005866992752999067 -0.005409282632172108 -0.0015959107549861073 1.5932741007418372E-5 -0.001560741919092834 -0.0053850989788770676 -0.0025368996430188417 0.0044166636653244495 -9.263757383450866E-4 -0.004575488157570362 -1.9145719124935567E-4 -0.0012085175840184093 0.0065927361138165 -0.006105778273195028 8.220672607421875E-4 -1.0433982970425859E-4 -0.0012643993832170963 0.005171589553356171 0.003146081930026412 0.0019490189151838422 -0.003515559947118163 -7.408199016936123E-4 0.0027622529305517673 4.2005834984593093E-4 -0.0032415695022791624 -0.0063230968080461025 6.382279680110514E-4 -0.004680196288973093 -3.7182774394750595E-4 -9.402974974364042E-4 -0.001232622074894607 0.002211376093327999 -3.47217383023235E-6 0.0048781041987240314 0.0013764133909717202 -0.005060745403170586 -0.006173300556838512 0.004740642849355936 -0.0010759353172034025 0.004861199762672186 0.00475679524242878 0.0023916573263704777 -0.005516600329428911 -0.006939580664038658 0.004039492923766375 0.002948096487671137 5.608153878711164E-4 0.0060461885295808315 0.0058232457377016544 6.622506771236658E-5 0.0036163509357720613 -0.0023405570536851883 -0.00360905472189188 0.0064241900108754635 -0.0020140409469604492 0.0056533245369791985 0.0035706597846001387 -0.0038391335401684046 -0.006881157401949167 0.0014463478000834584 9.010033099912107E-4 0.0022464231587946415 -0.002323729684576392
rehabilitation 0.0010217521339654922 -9.812710341066122E-4 0.006412943825125694 0.0059211403131484985 -0.0035241839941591024 -2.099282864946872E-4 0.0016764863394200802 -0.009674099273979664 -0.003945700358599424 0.004756830167025328 0.0057802386581897736 -0.005992763675749302 -0.011063231155276299 -0.004191011190414429 0.007333296351134777 0.004595835227519274 -0.010017050430178642 0.0037460264284163713 0.0022985211107879877 0.0010804402409121394 7.439710316248238E-5 0.005052183289080858 -5.591747467406094E-4 -0.004533178638666868 0.002501196227967739 0.0024024497251957655 0.006161462515592575 -0.004036501049995422 -0.005572741385549307 0.008211720734834671 -8.286582306027412E-5 0.003249257802963257 0.010140885598957539 0.003340903902426362 0.008036507293581963 -4.473066655918956E-4 0.002464826451614499 7.213116623461246E-4 0.003892968874424696 0.004506467841565609 0.004159215837717056 -0.0014863689430058002 0.007572036236524582 -0.0075674657709896564 0.0030857918318361044 0.004409146029502153 3.7014350527897477E-4 5.239119054749608E-4 0.006361612118780613 -5.639450391754508E-4 -0.0016715677920728922 0.006332940421998501 -0.0016968600684776902 -0.002031094627454877 0.0073559340089559555 -7.877093157730997E-4 0.005074412561953068 -0.007551998365670443 -0.008453955873847008 0.005978996399790049 -0.005319884512573481 -0.0012876249384135008 0.0015792637132108212 2.418721851427108E-5 0.008281048387289047 -0.004009112250059843 0.004825089126825333 -0.0030360445380210876 -8.090256014838815E-4 0.0045720250345766544 -0.009240537881851196 0.00281805288977921 0.002571717370301485
solution 0.016085002571344376 0.0012425646418705583 0.0014660838060081005 0.0057046073488891125 0.015322287566959858 -0.0012458143755793571 0.01072708796709776 0.012186571024358273 -0.003034848952665925 -0.0025270709302276373 -0.005085571203380823 -0.002804322401061654 0.01903722807765007 -0.01684829406440258 -0.004074841737747192 -0.010952375829219818 0.015374686568975449 0.0027074820827692747 0.004910594783723354 0.004567995201796293 -2.0347537065390497E-4 0.005463355220854282 -0.018287597224116325 -5.134570528753102E-4 -0.007879366166889668 -0.0043489690870046616 -0.013065382838249207 0.018445683643221855 0.004066163673996925 0.003638502676039934 -0.0055808210745453835 -0.0019216032233089209 -0.0051441737450659275 0.006480536889284849 -0.005436370614916086 4.6429052599705756E-4 -0.009116843342781067 0.008356300182640553 -0.001128881354816258 -0.005449308082461357 -0.00346920033916831 0.002945544896647334 -0.00626361183822155 0.001912432024255395 0.00291217933408916 -0.0014081004774197936 0.002170002553611994 0.0023680790327489376 -0.0013993345201015472 0.012940523214638233 0.008753262460231781 -0.015935102477669716 -0.004444644320756197 0.0200858935713768 -0.020793482661247253 -9.711455786600709E-4 -0.009997458197176456 -0.00309311063028872 0.005589955486357212 0.00400322861969471 0.0047436668537557125 -0.008035175502300262 0.011087566614151001 -0.0047866967506706715 7.55151326302439E-4 0.006929159630089998 -0.013636291027069092 -4.4857041211798787E-4 0.005185255780816078 -0.006707982625812292 0.01627599447965622 -0.005744582042098045 -0.005329103674739599
handyman -0.004705771338194609 0.007164518814533949 0.004165018908679485 -0.0036110607907176018 -0.004554801620543003 0.0020503741689026356 -0.004909870680421591 -0.006396744400262833 0.0021407869644463062 -0.005722564645111561 0.0023701454047113657 0.005047784186899662 -6.278475630097091E-4 3.4809979842975736E-4 -0.005375286098569632 -0.002838564570993185 0.001101060537621379 -0.005854140967130661 -1.861850469140336E-4 -7.546127308160067E-4 0.002415115712210536 -0.006624302826821804 0.004459653981029987 -0.00341444811783731 0.001372176455333829 0.004493586253374815 0.005984416697174311 0.004762431140989065 0.006606034468859434 0.006778039503842592 2.843830734491348E-4 -0.005845973268151283 0.0035887733101844788 -0.006557028740644455 0.005108058452606201 2.1015695529058576E-4 3.3201120095327497E-4 0.0013680061092600226 -0.0059491172432899475 0.0068428171798586845 -6.304430426098406E-4 -0.003924727905541658 -0.0013973399763926864 -0.0023034662008285522 0.0058448826894164085 0.005683402065187693 -0.005189861636608839 0.001363782910630107 3.579742042347789E-4 0.0027839960530400276 4.562449175864458E-4 -9.664413519203663E-4 0.006191663444042206 2.1081521117594093E-4 0.004071371164172888 0.006980308331549168 7.093218737281859E-4 0.0028648320585489273 0.00450837891548872 -0.003182732267305255 -0.0017655499977990985 0.0027167208027094603 9.916730923578143E-4 -0.006344966124743223 -0.0014416896738111973 -0.005348685197532177 0.0033162010367959738 0.003464099718257785 -0.001578094670549035 -0.005073408596217632 0.0037601834628731012 -0.006766019854694605 7.095987093634903E-4
visual -0.005490527953952551 0.0050893547013401985 -0.0013664544094353914 -0.0052758739329874516 -0.0035708360373973846 -0.003982863388955593 0.005488249007612467 0.0032320665195584297 -9.882735321298242E-4 0.0056199426762759686 0.004095140378922224 0.0016459079924970865 0.006339630112051964 0.0029528532177209854 -0.003265541512519121 3.316063084639609E-4 -0.0050092716701328754 -2.286289782205131E-5 2.2583587269764394E-4 -0.006669769063591957 -8.958167163655162E-4 -0.006025656126439571 0.00592637388035655 0.004330203868448734 0.0018398567335680127 -0.005969885736703873 -0.004066291265189648 -0.0012927696807309985 -0.0067692226730287075 7.104271790012717E-4 -0.0066676754504442215 0.002596470760181546 -0.001505862339399755 2.2988076671026647E-4 -0.0037106622476130724 0.0034407887142151594 0.0010959425708279014 0.0034558731131255627 0.002532779239118099 0.0047359042800962925 -0.0017266490031033754 -1.967003190657124E-4 -0.0031371929217129946 0.004978022538125515 -0.004013923928141594 -5.241174949333072E-4 -0.0032520785462111235 7.594694034196436E-4 -0.0017255112761631608 0.0014741657068952918 0.002916050609201193 -0.001221484737470746 -6.65302446577698E-4 0.004654512275010347 -9.33626142796129E-6 0.0015188530087471008 -3.970674006268382E-4 -8.176075061783195E-4 0.002129626926034689 1.0360682790633291E-4 -2.5154187460429966E-4 2.036202495219186E-4 0.0010701987193897367 0.006239116191864014 0.005320658907294273 7.865497609600425E-4 -0.0036818827502429485 0.003412773599848151 0.005376908928155899 -0.00632790382951498 0.0025657322257757187 0.005259352270513773 6.789914914406836E-4
exo 8.976827375590801E-4 0.007080968003720045 -0.0024437529500573874 0.004586841445416212 -0.0019474664004519582 0.004998126532882452 -0.0028172594029456377 0.0057975780218839645 -0.006329027004539967 -0.0011156904511153698 0.0014945053262636065 -5.613547400571406E-4 0.004457819275557995 0.002573913661763072 -0.004726181738078594 0.0025686477310955524 -0.0070108347572386265 0.004242425784468651 0.006338689010590315 6.080509047023952E-4 0.004455714952200651 -0.005027713254094124 -0.004426872357726097 -0.004279776941984892 9.34444076847285E-4 0.001726251794025302 0.006514336913824081 0.004864237271249294 -0.003704556031152606 -0.0035997412633150816 0.005390067584812641 0.004343609791249037 2.8767134062945843E-4 0.003994365222752094 -0.005969779100269079 0.006831726524978876 -0.002025440102443099 -0.005143831949681044 0.0013230695622041821 0.006531823426485062 0.004110093228518963 -0.00353947002440691 0.0060886298306286335 -0.005040754098445177 -0.0037269764579832554 -0.003466188907623291 0.005825167056173086 0.004486874211579561 -3.787522728089243E-4 -0.005369566380977631 0.0047624059952795506 9.341449913335964E-5 0.0013225115835666656 -0.005828866735100746 0.0020778446923941374 0.0027933488599956036 -0.005398808978497982 0.004862902220338583 0.004756451118737459 0.0018339203670620918 -0.0045411959290504456 -0.001333849853836 -0.006912202574312687 0.003909802529960871 0.0020865092519670725 -0.005395994056016207 -0.002042371081188321 -0.004159052390605211 -8.923802524805069E-4 0.0038595511578023434 -1.2566450459416956E-4 0.0014149969210848212 0.004849272780120373
info -1.697783445706591E-4 0.006070559844374657 -0.00466338312253356 -0.0063319760374724865 -0.007023048121482134 0.0029406724497675896 0.0033163209445774555 0.0016269204206764698 0.0015471959486603737 -0.0015654268208891153 -0.005880333948880434 0.00717780040577054 -0.0050831809639930725 0.00603406922891736 2.7827639132738113E-4 0.0074579897336661816 -0.005870086140930653 -4.475313180591911E-4 -7.129699952201918E-5 -0.006197164300829172 0.0045990305952727795 -8.279676694655791E-5 1.335465640295297E-4 -0.002830814803019166 -0.00408427556976676 6.298084044829011E-4 -0.005938672460615635 -0.006709900684654713 0.004454700741916895 -0.0019419225864112377 -0.0039994847029447556 -4.2475914233364165E-4 -9.97234950773418E-4 0.003569553140550852 -0.0021148761734366417 0.0054075755178928375 0.007176140323281288 0.006869383156299591 -0.0027277565095573664 0.004550748039036989 2.385307161603123E-4 0.001530134817585349 -0.0023988066241145134 0.0018600475741550326 -0.0010872290004044771 0.007019777782261372 0.006490068975836039 -0.004447899293154478 -0.003761920379474759 -0.001652606064453721 -0.005409300792962313 0.004415902309119701 -0.006383704021573067 -0.00146548543125391 -9.338508971268311E-5 0.0037948652170598507 0.005830098874866962 0.005856167990714312 -0.004154857248067856 -0.0024416428059339523 -0.006579251494258642 9.316385257989168E-4 -0.0059523750096559525 0.0025806862395256758 -0.0039789085276424885 -0.006651599425822496 0.0026937706861644983 0.0043960437178611755 0.002047301037237048 0.005304633639752865 -0.007853621616959572 0.00725959287956357 -0.003489874070510268
ii 3.0792655888944864E-4 0.003652604529634118 -0.001172255608253181 0.005022769793868065 8.53729376103729E-4 -0.004197938833385706 -0.0027002093847841024 -0.004387927241623402 0.0033376312348991632 0.00111437460873276 -0.005229233298450708 0.004312507342547178 -0.003990739583969116 0.0043034241534769535 -4.672934301197529E-4 0.0035965763963758945 -2.3264159972313792E-4 -0.004879170097410679 -0.005883012432605028 -0.0038827541284263134 -0.001194854499772191 0.004719880875200033 -0.0034212640020996332 -0.0038613909855484962 0.0010582406539469957 0.006839344743639231 -1.804090425139293E-5 -0.0010668522445484996 -0.0018271231092512608 8.648229413665831E-4 -0.006085297558456659 6.578969769179821E-4 -0.0053892116993665695 0.004764925222843885 -0.005442666821181774 0.003644000506028533 0.001971948193386197 -0.004027325659990311 -0.005804619286209345 0.0020743797067552805 -0.0015630439156666398 0.003065596567466855 -9.149613324552774E-4 -0.005733454134315252 0.005465762224048376 -4.246434837114066E-4 0.005997230764478445 6.560595356859267E-4 8.012525358935818E-5 0.0014257727889344096 0.0018625928787514567 -0.0016827628714963794 0.001353240804746747 -0.007010697852820158 0.0031637013889849186 0.006489753257483244 0.005617830902338028 -0.0034903385676443577 8.306578965857625E-4 -0.001490838243626058 -0.003040031995624304 0.004752626176923513 0.005290104541927576 0.00215415982529521 0.0010582945542410016 0.002618500730022788 0.004395124036818743 -0.004726346116513014 8.727830136194825E-4 0.0019242382841184735 0.004213414620608091 8.264489588327706E-4 -0.005289045162498951
markii 0.0051141115836799145 -0.005085551179945469 -0.001934522413648665 7.199184619821608E-4 6.089811795391142E-4 -0.002920508151873946 -0.006508425809442997 6.04754954110831E-4 -0.006540995556861162 -0.004740644712001085 0.005641730967909098 -0.003569914260879159 -0.002388586523011327 -0.006374378222972155 -5.571498768404126E-4 -0.00305329286493361 0.00281223701313138 0.003976103849709034 -3.5872793523594737E-4 0.0024141003377735615 0.0026732180267572403 0.006290496326982975 -0.004709750879555941 -0.006517943926155567 -0.002012951299548149 0.0066611976362764835 0.004700994119048119 -0.004673604853451252 0.0034698473755270243 0.004860664717853069 -0.0016629287274554372 -1.822081503632944E-5 0.0033588705118745565 -3.7313095526769757E-4 0.0011449657613411546 -0.0036296097096055746 -5.270243855193257E-4 -0.003011910477653146 -0.0022760035935789347 -9.411728824488819E-4 -0.003070118837058544 0.005706185009330511 0.005787158850580454 -0.002340866019949317 0.004604670684784651 -0.00237073702737689 -0.003896736539900303 -0.006465318147093058 0.002318229526281357 -8.147621410898864E-4 0.0028265998698771 0.0033397700171917677 0.0035383435897529125 9.126641671173275E-4 0.0026547336019575596 -2.3736085859127343E-4 -0.004344583489000797 -0.006463323254138231 6.472322857007384E-4 -0.001075536129064858 -0.004065469838678837 -5.230017704889178E-4 -0.0046013714745640755 -0.006727911066263914 0.002330726943910122 0.0036449828185141087 -0.0014067678712308407 0.003503244835883379 0.0052958037704229355 0.0016513874288648367 -0.001124218455515802 -0.0053831711411476135 -0.0064844414591789246
give -3.329571336507797E-5 0.0068032098934054375 -4.602066474035382E-4 -5.273009301163256E-4 -0.003006502753123641 0.006721094716340303 -0.00662982976064086 -0.0034179044887423515 0.0037443831097334623 -0.005210095550864935 0.006389623042196035 5.880629760213196E-4 -0.005760902538895607 0.005446580704301596 -0.006138423923403025 -0.0017412485321983695 0.004197065718472004 -0.004839296918362379 0.0017625575419515371 -0.006600790191441774 -0.00688660703599453 0.0011432092869654298 -0.0024827548768371344 0.0041402229107916355 0.002989823231473565 -0.001858940115198493 0.0026050680316984653 -0.002557772910222411 0.004543094430118799 0.001111817779019475 -0.003127469914034009 0.006709987297654152 -0.002907558111473918 9.55021008849144E-4 -0.005623213015496731 -0.005085952579975128 -0.006065791007131338 0.003239678917452693 -0.0039297351613640785 0.001229665707796812 0.002371089765802026 -0.004796384368091822 -0.0034423531033098698 -0.006046577822417021 0.00695849908515811 0.0037562400102615356 7.485798560082912E-4 -0.006393427960574627 0.005812399554997683 0.003982140216976404 -0.005886651575565338 0.007575372699648142 -2.494390937499702E-4 4.576906212605536E-4 0.0035970830358564854 -0.005273160990327597 -0.003826261730864644 -0.005766823422163725 0.0030196853913366795 -0.0023486947175115347 -0.007428513839840889 0.0019954764284193516 7.54241889808327E-4 -0.003286221530288458 -0.001383116701617837 0.0010268299374729395 0.004309000913053751 2.729013212956488E-4 0.0022157488856464624 0.0022909855470061302 -0.006814556196331978 -0.001864693476818502 -2.7349963784217834E-4
need 0.004995935596525669 0.0022097884211689234 -0.0037685397546738386 -0.005633547902107239 -0.005444652400910854 -0.003375230124220252 -0.0017005674308165908 -5.826024571433663E-4 0.005241859704256058 -0.0017536558443680406 -6.724582053720951E-4 -0.0018062741728499532 -0.006110706832259893 0.0016582366079092026 -0.0024063827004283667 -8.289427496492863E-4 -0.0022560327779501677 0.005381867289543152 0.0063936421647667885 -0.005744580179452896 -0.0034228761214762926 0.006190698128193617 -0.0018704980611801147 -0.006145610474050045 -1.664968440309167E-4 -0.002019410952925682 0.0038959714584052563 -0.0018440684070810676 0.0026854611933231354 -0.006371762603521347 -0.005389752332121134 0.0031337400432676077 -0.006514999084174633 -0.00246733077801764 0.0026086242869496346 -0.0064238025806844234 -0.004673633724451065 0.0035020981449633837 -0.004728154744952917 -0.0060926442965865135 -0.004907677415758371 -0.004855575505644083 -0.005565854255110025 -9.500352316536009E-4 0.004775221459567547 0.00495639443397522 0.00417657196521759 0.006713047157973051 0.005453154444694519 -0.001018604263663292 -1.3076222967356443E-4 0.004638531245291233 0.005621625110507011 -0.0012642096262425184 6.233692402020097E-4 0.003406339092180133 0.0048605711199343204 0.005901304539293051 -0.0025838317815214396 -0.004669309593737125 -0.00635794922709465 -8.856331696733832E-4 -0.0019720164127647877 0.005549527704715729 -0.006391179282218218 0.004312833305448294 -0.0018840305274352431 3.83946840884164E-4 0.002674275077879429 0.005275285802781582 0.004774503875523806 -0.005239979829639196 -3.609445411711931E-4
like -0.0051407404243946075 0.005827191285789013 -0.0028852862305939198 -0.002765708602964878 -0.007393524516373873 -0.006849221419543028 -0.002648461377248168 0.0010291783837601542 3.177816397510469E-4 0.0025828746147453785 0.007265529129654169 -0.001752148033119738 -0.004474154207855463 0.009194660931825638 0.0037935995496809483 0.005031852517277002 -0.003790247719734907 0.005222238600254059 -0.003430501790717244 -0.0011292076669633389 -0.0018102257745340466 0.007211720105260611 0.001101612113416195 4.2239035246893764E-4 -0.0015151306288316846 -2.2532751609105617E-4 -0.0013083855155855417 -0.004573094192892313 -0.006583457347005606 -0.005579057149589062 -0.0013858728343620896 -0.002340983832255006 0.003309600055217743 -0.0032740472815930843 -0.00238697393797338 0.0015823963331058621 -0.005612249486148357 -0.0026383763179183006 0.003955560270696878 0.0028109720442444086 0.003484981134533882 0.0021197297610342503 0.008836690336465836 0.004455780144780874 0.002854754915460944 0.002461012452840805 0.0025415297131985426 -0.008449540473520756 0.006166997831314802 0.005038885865360498 -0.0030600375030189753 0.010692735202610493 -6.754159112460911E-4 -0.006401457358151674 -3.07602109387517E-4 -0.0018883154261857271 0.0069323633797466755 -8.637526771053672E-4 -0.010130002163350582 -0.0036102323792874813 0.0019278251565992832 0.0026266223285347223 -0.009142476134002209 0.004793231375515461 0.009476713836193085 -0.007355439011007547 0.005741786677390337 0.006287351716309786 -0.009027775377035141 0.004908261355012655 7.585353450849652E-4 0.0015619054902344942 0.004260501358658075
work -0.003545735962688923 -0.0030363232363015413 -0.0030444797594100237 -0.00123948126565665 0.0010532630840316415 -0.00524044269695878 -0.001291309716179967 4.992215690435842E-5 0.0016134713077917695 -8.149122004397213E-4 -0.0020292906556278467 -0.002902259584516287 -0.004093272611498833 0.006060397252440453 -0.0039291600696742535 -0.004588912706822157 -0.002621105406433344 0.0014065488940104842 -1.0601095709716901E-5 -8.254749118350446E-4 6.519500748254359E-4 -0.004668654408305883 0.005229872185736895 0.0011688316008076072 4.98758745379746E-4 0.003356018103659153 0.004460309166461229 -0.00306900218129158 0.006094226147979498 0.0029847531113773584 -0.005920167546719313 7.795270066708326E-4 -0.006146344821900129 0.0011609287466853857 0.005943742115050554 -0.004466006997972727 -5.094885709695518E-4 0.0035958909429609776 -8.556783432140946E-4 -0.0033006160520017147 -0.005832202732563019 0.0021315396297723055 -0.0040736631490290165 0.0036587545182555914 -2.807536511681974E-4 -0.0026248134672641754 9.337244555354118E-4 -6.488334620371461E-4 0.0016898612957447767 0.005285455845296383 0.004464979283511639 0.0012377966195344925 0.0057744174264371395 -0.003681525820866227 0.006476431153714657 -0.0038928918074816465 -0.0032560890540480614 -0.0063108112663030624 0.0028990102000534534 -0.004348777234554291 -0.006798725109547377 7.89653800893575E-4 0.0017098620301112533 -3.2537104561924934E-4 -0.001238096272572875 -0.00482324231415987 -7.443377398885787E-4 -0.001749830786138773 0.0020275742281228304 0.005389427300542593 -0.0062567200511693954 0.005781644023954868 -0.0019951513968408108
nothing 2.841297464328818E-5 -0.004277896601706743 -0.004732401575893164 -0.0059370193630456924 -0.004731221590191126 -0.0034210511948913336 -0.006402279250323772 0.001666971598751843 -0.00197583413682878 -0.004545557778328657 0.0059609911404550076 3.5951388417743146E-4 0.0036635752767324448 0.004736434202641249 0.0014848120044916868 -0.002447978826239705 -0.0029974018689244986 -7.290831999853253E-4 -0.002756253583356738 -0.002380365738645196 -0.002626195317134261 -0.005951720755547285 -0.0065174107439816 0.0014190403744578362 0.0022941019851714373 -0.005633323919028044 -0.0013575844932347536 -0.005319884512573481 0.004004096146672964 -0.006327182985842228 4.026693641208112E-4 0.002346905181184411 -0.0035919633228331804 0.0011942394776269794 -0.006135853473097086 -0.0025045103393495083 0.00668001314625144 -0.0027569797821342945 1.2267037527635694E-4 -0.004049520008265972 0.0022873696871101856 -0.0022865564096719027 -0.006014992482960224 -0.004624274093657732 0.003965231589972973 0.005342097021639347 -0.004166354890912771 0.003004771890118718 0.00426949467509985 -0.004621410276740789 -0.00459624920040369 -0.005226445384323597 0.0015590948751196265 0.006713625509291887 0.004063538275659084 -0.002616285579279065 -0.0028415038250386715 -0.004854671191424131 -0.00491427443921566 0.002604006789624691 -0.005291865207254887 0.0022450045216828585 -0.002948217326775193 -0.002381538273766637 -6.922143074916676E-5 -0.0011528055183589458 -0.0021818845998495817 0.005036116112023592 1.2124772911192849E-4 -3.061619645450264E-4 0.006009167991578579 0.003671899437904358 0.006080863997340202
paralysis 0.002986703533679247 0.0016732440562918782 -2.032022166531533E-6 -0.0036254837177693844 1.279226562473923E-4 0.0014142103027552366 0.0053275758400559425 -0.006490344647318125 -0.003404684131965041 0.006337370723485947 0.004945232532918453 0.007094256579875946 -0.005516683217138052 -0.0021874173544347286 -0.005771023686975241 -0.001317309681326151 0.0016279085539281368 0.002132427878677845 -0.0022088803816586733 9.018882992677391E-4 3.5964694689027965E-4 0.006103166379034519 0.0037784543819725513 -0.005869843531399965 2.7171967667527497E-4 -0.007159429136663675 -0.005056777969002724 8.541274582967162E-4 -0.004466481041163206 0.0050409468822181225 0.0015478177228942513 0.006217672489583492 -0.006441539619117975 -0.00346814445219934 0.005621917545795441 -0.00644462276250124 4.49799612397328E-4 -6.198060000315309E-4 0.0024138411972671747 0.006495391484349966 -0.002186346799135208 -0.0013758557615801692 -0.0037401386070996523 0.005944665987044573 0.0030888179317116737 0.001689963974058628 -0.0026603054720908403 0.004215245600789785 0.00352685758844018 0.006436875090003014 -0.006064151879400015 0.002391399350017309 -0.0013071720022708178 -0.0047140042297542095 -0.006338141858577728 -0.004169014748185873 0.004334914032369852 -0.004733853507786989 -3.765638102777302E-4 -0.0012089695082977414 -0.0013083769008517265 -0.0033547086641192436 -0.002975475275889039 -5.097463144920766E-4 0.0021819109097123146 -0.005077096167951822 0.003991635981947184 0.005383007228374481 0.0034320796839892864 -0.004124615807086229 0.0018383755814284086 6.963441410334781E-5 -0.0061884596943855286
list 0.0046724965795874596 -0.0028289214242249727 -0.0014165635220706463 -0.004567337688058615 6.445646868087351E-4 0.006475153844803572 -0.001304664765484631 -0.003062148578464985 0.005842277314513922 0.004673811607062817 0.002275650855153799 -0.0038037511985749006 -0.002879863604903221 0.007059898227453232 -0.0031155250035226345 0.0013725729659199715 -0.004397911485284567 9.842057479545474E-4 0.00437289709225297 0.005608088802546263 -0.005836153868585825 2.1743575052823871E-4 -7.788543007336557E-4 -0.0018620751798152924 -0.008180299773812294 -0.00144295918289572 -0.006442604586482048 -0.0014081139815971255 -0.002648967085406184 0.004280023742467165 0.003139267675578594 0.004662250634282827 -0.003991413861513138 -0.006278663408011198 -4.151827670284547E-5 -0.006211332976818085 0.001691810553893447 -9.373644134029746E-4 -0.00738809909671545 -0.005248251836746931 -0.004029132425785065 -0.0013181783724576235 7.242648280225694E-4 -0.004466387443244457 0.006335110869258642 0.00621316721662879 0.005841536913067102 0.00793501641601324 -0.001489983405917883 -0.006278969347476959 -0.0017873625038191676 -0.0035110958851873875 -0.004885509144514799 5.447152070701122E-4 -0.004884622525423765 0.004317117389291525 0.004893134348094463 -0.00520132202655077 -0.002242882503196597 -0.005112132988870144 -0.002249212935566902 0.0032998325768858194 -0.0037386477924883366 -0.00610312120988965 0.003170175012201071 -0.002324106637388468 0.001107613556087017 -0.0050664786249399185 -0.0026480499655008316 0.0023878251668065786 -0.004575207829475403 -0.004430787637829781 0.0014582094736397266
catalogue 0.007417387794703245 -0.003894563065841794 0.003847406478598714 -6.947111687622964E-4 0.002091878792271018 -0.004159456584602594 0.00782257691025734 0.0034454050473868847 -0.0011061837431043386 -0.005765348207205534 -0.0043080891482532024 0.00647483766078949 0.003027477767318487 -0.004216549918055534 0.00587091688066721 0.004354853183031082 -0.004700889345258474 0.007264200132340193 -0.0043548401445150375 0.0017149713821709156 -0.0025744924787431955 -0.00662137009203434 0.0049820998683571815 -0.004384663887321949 -0.0045770579017698765 -0.0034452222753316164 -0.0069953035563230515 0.00684727355837822 0.004700500518083572 -9.634256130084395E-4 9.96766029857099E-4 0.001136783161200583 -0.005415060557425022 -5.460853935801424E-5 -0.005491386633366346 -0.004611415788531303 0.00439944164827466 -3.9804226253181696E-4 -0.004948154091835022 0.0011509752366691828 -0.003282463178038597 -6.286674179136753E-4 1.9051579874940217E-4 -3.324264253024012E-4 -0.005062920972704887 0.0028467453084886074 -0.0015239862259477377 0.0031812223605811596 -0.007804457563906908 0.0018828652100637555 0.0021126335486769676 0.0037165123503655195 -0.0013125635450705886 0.006186380051076412 -0.007145372219383717 0.003430271754041314 0.0010271745268255472 0.002304835245013237 0.007309593725949526 -0.0019915890879929066 -8.308306569233537E-4 0.0041230847127735615 4.270568897482008E-4 0.008289441466331482 0.003345600562170148 0.0072279153391718864 -0.0012774254428222775 6.038554129190743E-4 0.0015530557138845325 0.0033650430850684643 5.347815458662808E-4 -0.002122493227943778 -0.004377169534564018
prosthesis 0.007570942398160696 0.00604578573256731 -0.00750513281673193 -1.3782433234155178E-4 -0.0028093766886740923 -4.7839272883720696E-4 0.0027459892444312572 0.004892129451036453 0.004648545756936073 0.002677258802577853 -0.006455237045884132 -0.0050750430673360825 0.002180109964683652 -0.006182909943163395 -0.004987777676433325 -0.003088147845119238 0.0034887692891061306 -0.001205121399834752 -0.004431912675499916 -0.006524840835481882 0.006655530538409948 -4.779318405780941E-4 -0.006771039683371782 -0.002762450836598873 -0.00784668792039156 -0.007321582175791264 0.002651376649737358 0.0014463614206761122 8.390637813135982E-4 -0.005443680100142956 -0.002409225096926093 0.005823265761137009 -9.78314783424139E-4 -0.004764884244650602 -0.0062967282719910145 0.001793236704543233 -0.005506252869963646 -4.8231345135718584E-4 0.002403880003839731 -2.952319337055087E-4 -0.004414995666593313 0.0037707241717725992 -0.00736607750877738 0.0026515068020671606 -0.004123513121157885 0.004890215117484331 -0.0022772643715143204 0.0040142047218978405 -1.446217647753656E-4 0.0030850546900182962 -0.005103200674057007 -0.006460463162511587 0.0023241655435413122 0.007860603742301464 0.0022280593402683735 -0.0013604960404336452 -0.006214757915586233 -0.006236637942492962 -0.001325493911281228 -0.005834545474499464 6.885369075462222E-4 -0.005278977565467358 4.284562892280519E-4 6.015816470608115E-4 -0.0049319020472466946 -0.0035401196219027042 -0.004314799327403307 0.0024187120143324137 -0.005671483464539051 0.0037666386924684048 0.005613755900412798 -0.0038378355093300343 -0.0024630059488117695
demonstration 3.932920517399907E-4 3.8313400000333786E-4 0.003939212299883366 -0.006209096871316433 9.588966495357454E-4 0.005163747817277908 0.0017260847380384803 -0.006727696396410465 0.003361681941896677 4.411204135976732E-4 -0.0012993518030270934 -8.943685097619891E-4 0.0018409835174679756 -0.0036151744425296783 -0.002113300608471036 6.305004935711622E-4 0.005639602895826101 3.404133167350665E-5 6.966196233406663E-4 -0.004805735778063536 -0.003016244387254119 0.0021107078064233065 0.004181046970188618 -0.004858590662479401 0.0016656762454658747 0.001480473205447197 -0.0044231051579117775 -0.004179669078439474 -0.0032756172586232424 -0.005742295179516077 -0.004869211930781603 0.003818367375060916 -0.0024824871215969324 -0.006718158256262541 0.0014012245228514075 -0.0023149847984313965 -0.004103987477719784 -0.005245090927928686 -0.005464522168040276 0.003973368089646101 0.0047696479596197605 -0.006291428580880165 -7.155121420510113E-5 -0.0021686183754354715 0.006373686715960503 -0.0019771633669734 -0.0018054649699479342 -2.57976382272318E-4 -0.0018204450607299805 0.004054367542266846 0.0037932696286588907 0.005638709757477045 -0.002503936178982258 6.493327091448009E-4 -0.0061575197614729404 0.005050911568105221 0.004998477175831795 0.004003860522061586 -0.0033534776885062456 8.691317052580416E-4 0.004154189024120569 -0.002604131354019046 -0.0011480647372081876 -0.006549075245857239 -0.0037159775383770466 0.006140450946986675 -0.004137301817536354 0.005012981127947569 0.0026927876751869917 -0.00180797278881073 -0.001218275399878621 0.004870917182415724 -0.0034844945184886456
detail 8.029101300053298E-4 0.003770355833694339 -0.0014804239617660642 -0.002494519343599677 -0.0011114112567156553 0.0013220099499449134 0.0035625824239104986 -0.006597030442208052 0.004187368787825108 0.0028002497274428606 0.004336838144809008 -0.006657097954303026 -0.0023807003162801266 0.0036148284561932087 -0.0056818751618266106 0.002410539658740163 0.004709398839622736 0.0037508022505789995 -0.0061387610621750355 -0.0032726956997066736 -9.85608552582562E-4 3.002457960974425E-4 -1.1727712262654677E-4 -0.0018524416955187917 -6.990719120949507E-4 0.003888019360601902 -1.798815792426467E-4 -0.004800335504114628 0.001831979607231915 0.0026611341163516045 0.005558372475206852 6.142869824543595E-4 -0.005327340681105852 0.0015376261435449123 0.006078063510358334 -0.0027312731835991144 0.006988510023802519 0.005814468488097191 0.006054844241589308 0.0011199511354789138 0.003553503192961216 0.004930577240884304 -0.005543236155062914 0.00137202104087919 -0.005324473604559898 0.003777304431423545 7.109574507921934E-4 0.005608018487691879 -0.003389625111594796 -7.992729661054909E-4 -0.00199169316329062 0.002535393461585045 2.695554867386818E-4 -0.005956886801868677 -0.0036706319078803062 -0.0048453714698553085 0.004061512649059296 0.0011318540200591087 -3.290441236458719E-4 -0.0030472546350210905 0.005541737657040358 0.0010475046001374722 -0.006227819714695215 -0.005927758757025003 0.0023382308427244425 0.002643353072926402 -8.385166875086725E-4 0.005305078811943531 -0.006552959326654673 -7.514652679674327E-5 -0.003385066520422697 0.005144594237208366 0.003079943126067519
amputation 0.008311837911605835 -0.003532164730131626 -0.006458420772105455 0.009096723049879074 0.004173636436462402 0.005923914723098278 0.007408770266920328 0.0012016635155305266 -0.003521673148497939 -0.0012982783373445272 -0.002348633948713541 0.0034978757612407207 0.0010103217791765928 0.0018382115522399545 -0.004448793828487396 0.003198188031092286 -4.0550134144723415E-4 -0.003229762427508831 0.0014298964524641633 0.0021407720632851124 -0.002458031754940748 1.6875572327990085E-4 -0.0018652003491297364 -0.00503042945638299 6.103476625867188E-4 6.473162211477757E-4 0.002995902206748724 -0.002441039774566889 -0.0071916282176971436 5.167634226381779E-4 0.004731789696961641 4.8347373376600444E-4 0.0018424862064421177 -0.0025990954600274563 -0.001066297059878707 -0.007191052660346031 8.476710645481944E-4 0.0014989790506660938 0.001582638593390584 0.004273566883057356 0.0013036552118137479 -0.003969620913267136 -0.004668614361435175 0.004801497794687748 0.006299366243183613 -0.001005341880954802 -0.004241884686052799 0.002068293048068881 -0.0041325706988573074 -0.0051496331579983234 0.0050070686265826225 -0.002180247101932764 -8.517709793522954E-4 0.0016295072855427861 0.0029872434679418802 0.0035545972641557455 -0.0037242870312184095 -0.006250346545130014 -0.0010353776160627604 -0.001519462326541543 0.0075868526473641396 -0.0073923817835748196 0.001922121737152338 -0.0052924067713320255 -0.007105372846126556 6.846414180472493E-4 -0.0010746982879936695 -0.007866962812840939 -0.002646431792527437 -0.0059562865644693375 0.001842252560891211 0.006369706708937883 -0.007147214375436306
cut -0.003116503357887268 0.0012453403323888779 0.0020703410264104605 -8.814717293716967E-4 0.004394747782498598 -0.005007612518966198 0.0037224057596176863 0.0035354860592633486 -0.0024472535587847233 -0.0013583218678832054 -0.0027748753782361746 0.0022796904668211937 0.00309241795912385 0.002960748504847288 -0.004394528456032276 0.005431367550045252 -0.0032215346582233906 4.144730919506401E-4 0.006540172267705202 0.00606573186814785 -9.894375689327717E-4 0.0040772538632154465 4.3967258534394205E-4 -0.0034499785397201777 -0.0056305937469005585 -0.0010197211522608995 -0.004648024216294289 -0.001645874697715044 -0.00439591845497489 0.0015321688260883093 -0.0012761882971972227 0.0030476481188088655 -0.006842146161943674 -0.004649495240300894 0.0020433871541172266 -0.0011488889576867223 -0.0029520366806536913 0.0047177886590361595 -0.0019320925930514932 0.004877773579210043 0.0016920875059440732 -0.0021249863784760237 -0.0021120517048984766 0.006389932241290808 0.002839029300957918 -9.433157974854112E-4 -0.0017191856168210506 1.469010385335423E-5 0.004654235672205687 -7.438352913595736E-4 0.0012599665205925703 0.006688512861728668 -0.004183450248092413 0.004567122086882591 -0.004676958546042442 -0.00676406966522336 -0.0042027877643704414 0.003597929608076811 -0.001728374045342207 -0.006751046981662512 -0.0015610218979418278 -0.004034253302961588 0.005146272014826536 -0.005874243099242449 -8.938873070292175E-4 0.0036053427029401064 -0.0039447275921702385 7.696679676882923E-4 0.00421126838773489 -0.005279249045997858 -0.0038306249771267176 -0.00670633977279067 0.0017609135247766972
show -0.002084776060655713 0.004560545552521944 0.008087029680609703 0.0033449498005211353 -0.012372384779155254 9.667607955634594E-4 -0.007364927791059017 -0.007284062448889017 0.009197011590003967 1.6828074876684695E-5 0.004870246164500713 0.0038514232728630304 -0.012829888612031937 0.007800671737641096 -0.004245463293045759 0.005226133391261101 -0.009337151423096657 -0.006059302948415279 -0.003209090093150735 -0.0041051036678254604 0.004621071740984917 -0.0029751525726169348 0.00797046534717083 -0.009010497480630875 0.006707525812089443 0.0070272027514874935 0.009737461805343628 -0.00527045177295804 0.00572251807898283 -0.0041329157538712025 -4.341043531894684E-4 -0.0048823971301317215 0.012752038426697254 3.81192599888891E-4 0.012201652862131596 -0.004185062367469072 0.003380734007805586 -0.002567630261182785 -0.0015757631044834852 -9.377666283398867E-4 -7.141700480133295E-4 -0.002110721543431282 0.006662052124738693 -0.009169425815343857 0.001682271366007626 0.007748310919851065 -0.0049200174398720264 -0.008421948179602623 0.0033046030439436436 -0.006928703747689724 -0.010262045077979565 0.003528355620801449 -0.002619494218379259 -0.006395647302269936 0.009963776916265488 0.0029008877463638783 0.0021609135437756777 0.006497942376881838 -0.006383661180734634 0.006990624126046896 -0.0013523806119337678 0.0068257697857916355 -0.005110354162752628 -0.009399750269949436 0.00806344673037529 -0.007639478892087936 0.002323989989235997 0.007047419901937246 -0.013675503432750702 0.009955917485058308 -9.755879873409867E-4 0.0017548096366226673 0.0033268495462834835
video -0.0024830929469317198 0.005960202310234308 3.838817647192627E-4 -4.349448863649741E-5 -0.006883886177092791 -9.80899902060628E-4 0.0034696743823587894 -0.0026038417126983404 -3.522233455441892E-4 0.0012715617194771767 5.676824948750436E-4 -9.79732139967382E-4 0.005066036246716976 0.0027389535680413246 -0.0027723570819944143 5.364800454117358E-4 -0.0019518331391736865 -0.003212209790945053 -0.006666815374046564 0.004139024764299393 0.005013168323785067 -0.004768542945384979 -0.005502595100551844 0.001811405410990119 0.0012981867184862494 -0.005385326687246561 0.0034170036669820547 0.0020954301580786705 -0.004427616484463215 0.0029355669394135475 -0.003083690768107772 5.02029259223491E-4 0.0037064524367451668 0.006440049037337303 0.004154960624873638 -0.0054185097105801105 -0.001072843442671001 -0.004169049207121134 -0.006194713059812784 -0.003962456714361906 0.0035573055502027273 0.003389698453247547 0.0015594086144119501 -0.0063141705468297005 0.0051313224248588085 0.0024670313578099012 0.002605007030069828 0.0016708956100046635 -0.005323613528162241 -5.314056179486215E-4 -0.001353700878098607 0.005571046378463507 0.005610899534076452 2.2725533926859498E-4 -0.0010144152911379933 -0.005887387320399284 0.0037577783223241568 -0.0036647964734584093 -0.0052774157375097275 -0.0037817542906850576 0.005551742389798164 -0.006412314251065254 0.0033330991864204407 0.005071903113275766 -0.0052000912837684155 -0.004482366610318422 -0.0010457719909027219 0.0040594423189759254 -0.004309764597564936 -0.005311929155141115 -0.001342995441518724 0.0041449060663580894 -0.00427632313221693
demo 0.006086014676839113 0.002349230693653226 -0.006043702829629183 0.004546650685369968 -0.0017141513526439667 -0.001168255228549242 -2.4727830896154046E-4 0.0011922697303816676 -0.0038209063932299614 -8.136879769153893E-4 0.001731876633130014 -0.005270089488476515 -0.00352193764410913 -0.0052810595370829105 -0.005991523154079914 -0.0013108827406540513 -0.0017798938788473606 0.003038128139451146 0.00333342794328928 -2.0641807350330055E-4 -0.003926812671124935 0.0045019215904176235 0.006562975700944662 -0.006098468322306871 -0.006353504490107298 -0.0023636179976165295 -0.0023063167463988066 -2.294532023370266E-4 -0.0029537249356508255 -8.382404339499772E-4 4.6624871174572036E-5 0.005030532833188772 -0.0035103841219097376 -0.0049554090946912766 0.004414860624819994 -0.003075990593060851 -0.0023139002732932568 8.63211986143142E-4 0.0013972765300422907 -0.004283823538571596 0.006375778932124376 -0.003335685236379504 6.756526418030262E-4 -0.002664388157427311 -0.0023887131828814745 -6.613284931518137E-4 -0.004570086486637592 -0.00524365296587348 -0.005632705986499786 -1.6117446648422629E-4 0.006468494422733784 3.082053081016056E-5 -0.006051491480320692 -0.0013896541204303503 0.001849347143433988 -0.004129222594201565 -0.006348179653286934 0.00416530529037118 -0.006132079288363457 -0.006633946672081947 -0.0036738875787705183 -0.005497160833328962 0.004858104046434164 -0.005708830896764994 -0.0016300361603498459 -0.005939771421253681 0.0018688859418034554 7.135113701224327E-4 -0.002581290202215314 -0.004020619671791792 0.005182079505175352 0.0026317730080336332 -9.001537691801786E-4
can -0.0033618502784520388 7.05884478520602E-4 -0.003153923200443387 -0.005737534258514643 0.001766941393725574 -0.0011591025395318866 9.291411843150854E-4 -0.004639926366508007 0.002051212592050433 0.005894860718399286 0.0011257044970989227 -9.843502193689346E-4 0.003497109981253743 0.005505894310772419 8.650047238916159E-4 8.213731343857944E-4 -0.003250940702855587 -9.351431508548558E-4 -0.0026364640798419714 0.0013336145784705877 0.0012810052139684558 0.0049432627856731415 0.0011837700149044394 -0.004403035156428814 0.004535231739282608 0.004651808645576239 0.0046028816141188145 -0.006365855690091848 2.486051816958934E-4 0.0042935386300086975 0.006534216925501823 -0.006052419543266296 0.0031749187037348747 0.005495643708854914 -0.0030729391146451235 -0.006447983905673027 1.3975363981444389E-4 -0.006867760792374611 -0.001159912790171802 5.794802927994169E-5 0.001180789084173739 -0.003997309599071741 0.003646303666755557 -0.004488468170166016 -0.006198118906468153 0.006020767148584127 0.0027131473179906607 0.003554924624040723 -0.002155849477276206 -6.033951649442315E-4 0.005076868459582329 -0.0027623178903013468 0.004505580291152 -0.004691015928983688 0.006600966211408377 -0.002844650996848941 -0.0035427426919341087 9.818838443607092E-4 0.003444632515311241 0.006768395192921162 0.004068018868565559 -4.7902303049340844E-4 -0.0033685402013361454 0.0038423468358814716 -0.006115419324487448 -0.0010029948316514492 5.994823732180521E-5 0.0016403920017182827 1.4023594849277288E-4 5.715255392715335E-4 0.0010158345103263855 -0.0024726425763219595 0.0023745072539895773
see 0.003685464384034276 -0.003775782184675336 2.918301906902343E-4 1.025153324007988E-4 5.717076128348708E-4 -0.003423609770834446 8.013379556359723E-5 -0.004107429645955563 0.005176573526114225 -0.0059938919730484486 -0.001605154830031097 0.005147276911884546 0.003973477985709906 0.005273596383631229 6.896782433614135E-4 0.0015987646766006947 0.0033715732861310244 4.719638673122972E-4 0.004824568517506123 -0.0016190476017072797 0.0025381699670106173 -0.006155096925795078 -0.00642794044688344 -0.0043045757338404655 -0.004003177862614393 2.284817019244656E-4 -0.0014352715807035565 8.014445775188506E-4 -0.0061430661007761955 -0.005683753173798323 -0.005925737787038088 -0.0023248957004398108 -0.006608992349356413 -0.0023693288676440716 0.0016844948986545205 -0.006819493602961302 3.910748637281358E-5 -0.0013795618433505297 0.0019219553796574473 9.828327456489205E-4 -0.005532342940568924 -0.00497792474925518 -0.003616282483562827 0.006713304203003645 0.0030902428552508354 -2.138745185220614E-4 0.0012539009330794215 0.005532830487936735 -0.002794634783640504 0.005389464553445578 0.006820186506956816 -0.006509467028081417 0.0038849429693073034 0.0018394773360341787 0.0024777096696197987 -0.005013652611523867 -6.078114965930581E-4 0.0022540842182934284 -0.005231420509517193 -0.003077181987464428 -0.004792847670614719 -0.005150787532329559 0.0021469146013259888 0.0011316296877339482 -0.0030148152727633715 -0.004802510607987642 0.004483244381844997 3.2681742595741525E-5 -0.0036390016321092844 0.005994758568704128 -0.0050759511068463326 -0.002319939201697707 -0.003967932425439358
get -0.002116413554176688 0.002059084130451083 0.002441320102661848 2.3617259284947067E-4 -0.003682647133246064 -4.5901082921773195E-4 -7.389250677078962E-4 -0.0071191624738276005 -5.752391880378127E-4 0.0015479364665225148 -0.0020301085896790028 3.8558803498744965E-4 -0.007227678783237934 -0.003238747827708721 0.0055202916264534 0.0015113134868443012 -0.0032931584864854813 -4.537661443464458E-4 0.006532905623316765 9.98780713416636E-4 -0.002142907353118062 0.004130624700337648 0.005342151038348675 0.0031119082123041153 0.007560650818049908 -0.00445198081433773 -0.001361250295303762 3.6776569322682917E-4 0.002894151955842972 -8.196432609111071E-4 -0.0035164111759513617 0.006753772962838411 0.00456042168661952 -0.0049096629954874516 0.003203560598194599 0.006600489374250174 -0.0035647128242999315 -0.005750659387558699 -6.974741700105369E-4 0.007166323252022266 -0.0031203480903059244 -9.58171091042459E-4 0.007204793859273195 5.024359779781662E-6 -0.002275253878906369 -0.003035023109987378 0.0018303289543837309 -0.005407178774476051 -0.004320012871176004 -0.0055265226401388645 0.0035208486951887608 0.001599732437171042 0.005334086250513792 -0.0076717715710401535 0.005693385843187571 -0.005709377583116293 7.952912710607052E-5 -2.8116290923208E-4 0.004134192597121 -0.002377041382715106 0.004116354044526815 -0.002244363771751523 0.002526227617636323 -7.239183760248125E-4 -0.006106241140514612 0.005788202863186598 0.0034377104602754116 0.00214350875467062 0.005749586503952742 0.004591543693095446 -0.006777099333703518 -0.0061144460923969746 0.0043587577529251575
muscle 0.004942809231579304 -0.004221986513584852 -0.002634568139910698 -0.002790101571008563 3.6009371979162097E-4 0.0043385825119912624 0.005848180502653122 0.005886734463274479 -0.0034917218144983053 -0.0018628244288265705 -0.0015802058624103665 0.005454378202557564 -0.001215698546729982 -0.007633876521140337 -0.0010688836919143796 -9.95551934465766E-4 -0.003645930904895067 -0.006739331874996424 0.0018457273254171014 -0.0021100349258631468 -0.0016082768561318517 -0.006686075124889612 0.001311904052272439 -2.1366114378906786E-4 -0.006389143411070108 -0.005706885829567909 -0.001094184466637671 -0.004454683978110552 -0.004986145533621311 -0.0045735640451312065 -0.006513755768537521 0.0032331000547856092 -0.006658591330051422 -0.0037654575426131487 -0.0027135154232382774 0.003940373659133911 -0.006964158266782761 0.005391544662415981 1.2703528045676649E-4 0.0017452206229791045 0.001884038676507771 0.006826609373092651 -0.00555465929210186 -0.0019408775260671973 0.004349148366600275 -0.006255425978451967 -0.002175143687054515 6.474974798038602E-4 -0.004595682490617037 0.007367024198174477 0.006891107186675072 -0.0064327470026910305 0.0017493360210210085 4.013340512756258E-4 3.026609483640641E-4 -0.004039226099848747 -0.004396967589855194 -0.0011589736677706242 0.006819405592978001 0.0017985391896218061 0.0074694217182695866 7.892206194810569E-4 -0.005444411654025316 0.0049477084539830685 -0.005969339516013861 4.94071573484689E-4 -0.003061034018173814 4.316189151722938E-4 0.0010437561431899667 0.004672922659665346 -0.0016292025102302432 -0.003955727443099022 -0.006090264767408371
working -0.0018242489313706756 -0.002198415109887719 4.3717410881072283E-4 0.003364915493875742 0.0013869779650121927 -5.43956586625427E-4 -0.006244287826120853 -0.0034773165825754404 0.006157472264021635 0.005562630482017994 0.004532134626060724 6.49022840661928E-5 -0.0018626443343237042 0.0037666296120733023 0.003547636792063713 0.002709119813516736 -0.00664503825828433 -6.617485196329653E-4 -3.9643049240112305E-4 0.006668482441455126 0.00545553769916296 -0.004695052281022072 0.0030302628874778748 -0.005444259382784367 0.0043355063535273075 -0.0044594318605959415 0.006255599204450846 -0.003164609195664525 -0.004300624132156372 -0.0035407659597694874 0.0012692365562543273 0.00635966332629323 0.006505228579044342 -0.006101300939917564 0.005722787696868181 -0.0035293390974402428 0.0012171802809461951 0.004748761188238859 -0.0029232429806143045 -0.006696921773254871 3.660698130261153E-4 -4.152341280132532E-4 -0.0026650000363588333 -0.004304324276745319 0.001952128834091127 0.0022268202155828476 0.00404216255992651 0.004121831152588129 0.0034040380269289017 0.002710802247747779 -0.005530770402401686 0.001730496296659112 0.003261068370193243 -0.00337076629512012 0.005746313836425543 0.0067904237657785416 -7.234573713503778E-4 0.003964412957429886 -0.004720591474324465 -0.004084526561200619 -8.603783207945526E-4 0.00258543249219656 0.005405673291534185 0.001300722942687571 0.0038480174262076616 6.892059464007616E-4 -0.0038385691586881876 -0.00658605108037591 -6.003083544783294E-4 -0.0011761925416067243 0.003023009980097413 -0.00412788288667798 0.005533247254788876
exoskeleton -0.0046816300600767136 -0.0053961072117090225 -8.476953371427953E-4 0.002062629209831357 0.004612794145941734 -9.415328386239707E-4 0.002282532164826989 -0.0014434007462114096 1.4618968998547643E-4 -0.0029985711444169283 -0.0018043594900518656 0.0037668144796043634 0.0016195887001231313 3.748262533918023E-4 0.004119871649891138 0.0030044419690966606 -6.821919814683497E-4 -0.00518186017870903 -8.23363836389035E-4 -0.0040575857274234295 0.004700848832726479 6.885530892759562E-4 0.0034624056424945593 0.006012869533151388 0.0020698020234704018 -0.005578158423304558 3.276561983511783E-5 -0.0038378252647817135 -0.006237447261810303 -0.0024602729827165604 0.005238882265985012 0.0018699464853852987 -0.0066975755617022514 0.003934191539883614 -0.004498220980167389 -3.912982065230608E-4 0.005485879722982645 0.0031153301242738962 -0.0012455974938347936 0.004857284482568502 -0.0012820620322600007 -0.0053475177846848965 0.004561589099466801 -6.574371363967657E-4 0.003821948543190956 0.007180831860750914 0.0030234355945140123 0.0035301728639751673 0.0029236094560474157 0.002548157935962081 -0.005103038623929024 0.005867382977157831 0.001543864025734365 0.004545426927506924 -0.004537474829703569 0.0020204822067171335 5.696754087693989E-4 0.005635617300868034 0.002085689455270767 0.0039445264264941216 0.006933743599802256 1.9165786216035485E-4 0.0028006923384964466 -0.004090785048902035 -0.0011123374570161104 0.0012858281843364239 -0.003739070612937212 0.005386271048337221 0.0017977285897359252 -0.004806058946996927 -0.005649912636727095 -0.005166179966181517 0.0012587419478222728
company 0.0045381831005215645 0.0017940358957275748 9.327434236183763E-4 -0.002454679924994707 -0.005170956254005432 0.00618467153981328 -0.007430637255311012 0.001522358856163919 0.0034489601384848356 -0.0019369201036170125 -0.005267721135169268 -6.590723642148077E-4 0.0029856651090085506 -0.0015428982442244887 0.00477738818153739 0.007165876682847738 -0.0018824345897883177 -0.0019072121940553188 -0.005069035105407238 0.005948152858763933 0.004818032495677471 -4.125310806557536E-4 -0.0031495760194957256 0.004180781543254852 0.0045427787117660046 -0.0047152996994555 0.0033895005472004414 -0.006710800342261791 -0.0034626866690814495 0.0013351887464523315 0.0037183824460953474 -1.365477655781433E-4 -0.003752503776922822 0.005372774321585894 0.0044049411080777645 -0.005101664457470179 0.0063753025606274605 -0.004846019204705954 0.004868133459240198 0.005453808233141899 -0.0015921563608571887 -0.005644505377858877 0.007364050950855017 0.0014176530530676246 -0.0014271549880504608 0.005528106354176998 -0.00491188932210207 0.002297961385920644 0.00642284145578742 0.003359331749379635 -0.0070846243761479855 0.0029444252140820026 -0.005675045773386955 -0.0051924316212534904 -0.0031126481480896473 -0.003262988291680813 -0.004305774345993996 -0.006811806466430426 0.0022337771952152252 0.0021221565548330545 0.004320734646171331 -0.0050899372436106205 0.00588156608864665 -0.0015027534682303667 -0.004370199982076883 -6.64191204123199E-4 -3.295796050224453E-4 0.004723763559013605 2.727384853642434E-4 0.001994259189814329 -0.0029614579398185015 -0.00669953553006053 -0.0046349638141691685
amputee 0.010957657359540462 0.0012058778665959835 -0.005774716846644878 0.009442455135285854 0.006495586596429348 0.0010271501960232854 0.0036421711556613445 -0.0011597347911447287 0.004896857310086489 -0.005610339343547821 0.00412993086501956 0.0033418629318475723 -0.0030268309637904167 0.005400246009230614 0.0051311952993273735 -0.0028903295751661062 0.007004509214311838 -0.006623042747378349 0.004635498393326998 -0.003404582617804408 -8.628105279058218E-4 0.006291152909398079 0.0016870449762791395 -0.001868529594503343 -0.005781232845038176 2.202752511948347E-4 0.0013785752234980464 0.005700751673430204 -0.00582855474203825 0.0036962234880775213 -0.005360923707485199 -0.002045657252892852 0.0015106898499652743 -2.6150792837142944E-4 0.0013485304079949856 0.004277732688933611 -0.002058351179584861 0.006638677790760994 -0.0068244109861552715 0.001509364927187562 0.0029556145891547203 -0.0058812047354876995 -0.008017024956643581 0.002556521212682128 0.00548700662329793 2.0787965331692249E-4 -3.342831041663885E-4 -0.0038724481128156185 -0.0014119487022981048 0.003770550014451146 -0.005402284674346447 2.2629799786955118E-5 -0.004427289590239525 0.005028604529798031 -0.005645330063998699 0.005268971435725689 -4.3653708416968584E-4 -0.004870352800935507 0.0035429077688604593 0.0024579663295298815 0.003476751036942005 -0.007142187096178532 0.003447603667154908 -0.005356858018785715 -7.911468856036663E-6 -0.006155835464596748 0.005598729010671377 -3.774301731027663E-4 0.003494099946692586 -0.0017868138384073973 0.008361244574189186 0.007293677423149347 -0.004063907545059919
hand -0.07118227332830429 0.0389593169093132 0.04290354251861572 -0.03928772360086441 -0.05517207086086273 -0.004247324075549841 -0.042007509618997574 -0.06170329451560974 0.015951162204146385 -0.011616138741374016 0.061109770089387894 -0.042392440140247345 -0.06629788875579834 0.052515774965286255 0.01432875357568264 0.02667873539030552 -0.05219383165240288 -0.0034500823821872473 4.0810462087392807E-4 0.022355563938617706 -0.02618253603577614 5.774954915978014E-4 0.05720368027687073 -0.036563385277986526 0.07054124772548676 0.019394485279917717 0.027315974235534668 -0.055802516639232635 0.02160082384943962 0.013090998865664005 0.05146174877882004 0.007932083681225777 0.07647612690925598 -0.005566797219216824 0.06746293604373932 0.017460724338889122 0.008407313376665115 -0.04270126298069954 0.022045733407139778 0.045165687799453735 -0.012664508074522018 -0.06146940588951111 0.05745105445384979 -0.02666289545595646 0.027679339051246643 8.11769423307851E-5 -0.05127115547657013 -0.0661807507276535 0.05080553516745567 -0.021963100880384445 -0.024531744420528412 0.07385219633579254 0.010602761059999466 -0.08155427128076553 0.07041715085506439 0.0018774642376229167 0.05825113132596016 0.007233613636344671 -0.06152697652578354 0.031196678057312965 -0.053063709288835526 0.043220050632953644 -0.04253138229250908 -0.020284559577703476 0.04768858104944229 -0.027896607294678688 0.03264004737138748 0.03817267343401909 -0.06752700358629227 0.06485497206449509 -0.07666582614183426 -0.02052338421344757 0.01886224001646042
product 0.014480272307991982 9.108003578148782E-4 6.056270794942975E-4 0.012004248797893524 0.01781492680311203 -5.393007886596024E-4 0.005044358782470226 0.01176710519939661 -0.010531272739171982 0.00914838258177042 -0.003981816116720438 -0.0042864056304097176 0.019871147349476814 -0.012248589657247066 0.007022256031632423 -0.004086781293153763 0.0035343365743756294 -0.0060832384042441845 0.008731196634471416 0.008905278518795967 -2.2788009664509445E-4 9.149273973889649E-4 -0.017624465748667717 -0.0031832025852054358 -2.2000943135935813E-4 -0.004092198330909014 -0.008820615708827972 0.014577321708202362 0.005495385266840458 9.421164868399501E-4 -0.002646692330017686 0.006327515002340078 0.0025547142140567303 0.0063116224482655525 -0.010208824649453163 0.0077194212935864925 -0.012823649682104588 -0.004718592390418053 -0.0025811991654336452 0.0022585829719901085 0.004695151932537556 0.001463191001676023 -0.011478709056973457 -5.059429095126688E-4 0.00524097541347146 -0.001090483507141471 -0.0016436929581686854 -0.0019627902656793594 -0.01005292497575283 0.013386429287493229 0.012476162053644657 -0.005773650482296944 -0.00857535656541586 0.019786158576607704 -0.015814371407032013 -0.008893498219549656 -0.0029354116413742304 -0.003023946424946189 0.008111466653645039 0.007057054899632931 -0.0022631818428635597 -0.0013099166098982096 0.005091413389891386 -0.006452895235270262 0.003955280873924494 0.007584850769490004 -0.0016634208150207996 -0.00941357109695673 0.007804445456713438 -0.00428130105137825 0.011437918990850449 -0.008980208076536655 -0.008214554749429226
prosthetic 0.007321491371840239 0.004173144698143005 -0.0024461487773805857 4.4397584861144423E-4 -0.0064521487802267075 -0.0025292751379311085 0.0063875047490000725 -0.005882733501493931 -0.005215791519731283 0.005042320117354393 -2.769730635918677E-4 -0.004352938383817673 0.0011477262014523149 -0.005148089025169611 0.002764616860076785 0.005820984486490488 -0.0011070132022723556 -4.510739017860033E-6 -0.006700044497847557 -0.007203349377959967 -0.003226360073313117 0.0033025017473846674 -0.0045380499213933945 -0.001410369062796235 -0.0025657229125499725 -0.0062972200103104115 0.001061961054801941 -0.0019264793954789639 -0.004447563551366329 0.004349167924374342 0.0019103746162727475 -5.175818805582821E-4 -0.0010501847136765718 0.005071538034826517 0.0016984298126772046 -0.005803450010716915 0.0040114144794642925 0.0041055879555642605 -0.007276949472725391 -0.0031520386692136526 -0.006340214516967535 -0.007257206365466118 -0.0026727113872766495 -0.005406658630818129 -4.5811530435457826E-4 0.0028299582190811634 0.002263431204482913 0.0011465675197541714 -0.005501453299075365 0.0018248860724270344 0.0022564884275197983 -0.002734106034040451 0.0024029817432165146 -0.005886512342840433 -0.0017836762126535177 0.007158850785344839 -8.942942949943244E-4 0.0023914440535008907 -0.0038734436966478825 8.111548377200961E-4 0.0010786610655486584 1.761490129865706E-4 -0.005164600443094969 -0.008322417736053467 -0.0012061272282153368 0.0037760348059237003 0.0046334415674209595 -0.002696259180083871 -0.001226037391461432 -0.0067163798958063126 0.005057450383901596 0.0021777383517473936 -0.0012232449371367693
sell 0.008215480484068394 -0.0040403567254543304 0.0035265376791357994 0.0031123131047934294 0.0035588699392974377 0.004595708567649126 -0.0034999430645257235 0.005848796106874943 -0.0041956244967877865 -0.0041337949223816395 -0.005994556471705437 0.005513784941285849 0.002102586440742016 -0.004857184831053019 0.005630302708595991 -0.004723498597741127 -0.0024855153169482946 0.0012773259077221155 -0.006164552643895149 -0.003718920750543475 0.007192748133093119 -6.964654894545674E-4 0.001960823079571128 0.006942851468920708 0.004137666430324316 0.0010039980988949537 -0.006262298207730055 2.8045358703820966E-5 0.0033496622927486897 9.12435061763972E-4 -0.0017148579936474562 -7.924300734885037E-5 -0.0069907959550619125 -0.005536252167075872 -0.005894338246434927 -0.006669773254543543 0.00466570071876049 0.0023685104679316282 0.004322549793869257 -0.008168868720531464 0.004667051136493683 0.0041451784782111645 -0.008472741581499577 0.006247148849070072 -5.887175793759525E-4 -0.003688483266159892 0.004435539245605469 0.0029629599303007126 -0.006719408556818962 0.0034829196520149708 0.0036951808724552393 0.0010780817829072475 -0.005303452257066965 0.004603302106261253 -0.009261144325137138 0.004842639435082674 -0.004472876898944378 -0.005371877457946539 0.0012098343577235937 0.0033756308257579803 0.007209019735455513 -0.0026179898995906115 0.007201822008937597 0.004597382619976997 -0.0014910917961969972 0.005689749028533697 -0.0017620536964386702 -0.006911691278219223 0.001872016116976738 -0.003206204390153289 -0.002963794395327568 -0.001112173544242978 -0.005725319031625986
purchase -0.00251847505569458 -5.330708809196949E-4 0.0035473706666380167 -0.006844667252153158 -0.004808172583580017 -0.00708741182461381 -0.0032107976730912924 -0.008044332265853882 0.001466845627874136 0.0018894727109000087 -0.0028436516877263784 -0.008247463032603264 -0.005033569876104593 0.004661915358155966 -7.263408624567091E-4 -0.0014813985908403993 0.0025985450483858585 -0.007022092118859291 0.004319318570196629 -0.0017830929718911648 -0.007358590606600046 -0.0027838677633553743 0.003001803532242775 2.461311232764274E-4 0.006329542491585016 0.0022178066428750753 0.006221511866897345 0.003190640825778246 -0.003906763158738613 0.0036958230193704367 -0.0032939626835286617 -0.0053038024343550205 -0.0017908000154420733 5.300064221955836E-4 4.318854189477861E-4 0.00395085709169507 0.003084709635004401 -0.00479865213856101 -0.005924261640757322 0.004809368401765823 0.0010516711045056581 -2.3668823996558785E-4 8.84848996065557E-4 0.0027497883420437574 -0.002955303993076086 0.003807493718340993 0.0036257030442357063 -0.005525922402739525 0.0051610441878438 -0.004541694186627865 -0.006096438504755497 -0.003648144658654928 9.572754061082378E-5 -0.0032819670159369707 -0.003097911598160863 -0.001193783595226705 0.0067094978876411915 -0.005916147027164698 -0.0028568077832460403 0.0011719338363036513 5.704821669496596E-4 0.004121709614992142 0.002629352267831564 -0.0022900302428752184 -0.003527255728840828 -0.0028367016930133104 -0.002600760431960225 0.0026887913700193167 7.075955509208143E-4 -1.248852931894362E-4 0.003912791144102812 -0.003857564879581332 -0.005683552008122206
menu 0.005609435029327869 -0.0034984652884304523 -0.002285569906234741 0.0016128681600093842 0.00311355316080153 0.0012369513278827071 0.003967008087784052 -3.805965534411371E-4 0.001649027457460761 -0.0023292002733796835 -0.002128282794728875 0.0036275219172239304 0.002138595562428236 -0.003531214315444231 0.0029163092840462923 0.0037051972467452288 0.004905570764094591 0.003396793967112899 0.004051814321428537 -0.00391544820740819 -0.0041176192462444305 -0.004635610152035952 6.371126510202885E-4 0.005415606312453747 2.500259433872998E-4 -0.001535501447506249 -0.003209857502952218 5.687426892109215E-4 0.003575942013412714 0.0045915208756923676 -0.002732801716774702 0.0027121277526021004 -0.004798274487257004 0.0051835631020367146 0.0042807552963495255 -0.002449324121698737 -7.474243175238371E-4 -1.5874503878876567E-4 -0.0029193744994699955 -0.004573495127260685 -7.112007588148117E-4 0.0017279187450185418 -0.005501014646142721 -0.002474471926689148 0.0032492619939148426 -8.277795132016763E-5 8.981485152617097E-4 0.0011051148176193237 -0.0031377258710563183 -0.0013506729155778885 -0.006554106716066599 0.00420333631336689 0.003310335334390402 0.0025465216021984816 -0.006423269398510456 -0.004749016836285591 -0.003202138701453805 -0.002971701556816697 0.007424802985042334 0.0035620625130832195 -0.005060916300863028 -0.007096616085618734 -0.0019672729540616274 -0.003975477535277605 0.0025418903678655624 0.0035814023576676846 -0.0041695875115692616 -0.0023567662574350834 -0.003839413169771433 0.002128837164491415 -0.004754695575684309 0.0012869517086073756 -4.227687168167904E-5
people 0.005587785504758358 -0.004766101483255625 0.0020006480626761913 -0.0013743077870458364 -0.0035518109798431396 5.285739316605031E-4 0.005957556422799826 -0.001404356211423874 0.0013742055743932724 0.0013822275213897228 -0.006685345433652401 0.0012369228061288595 -0.004818675573915243 -0.006481662392616272 0.005898366216570139 0.0039361827075481415 -0.0021955971606075764 -0.0031691081821918488 0.001987325493246317 -0.0029518133960664272 0.006774423643946648 -0.00451618479564786 -0.005017862189561129 -0.0018154274439439178 -0.003716555656865239 -0.0057529970072209835 0.004289119970053434 -0.005461827386170626 0.0017757931491360068 0.006500051822513342 0.0037410713266581297 0.0040211547166109085 -0.0033632637932896614 -0.00121821160428226 8.377256453968585E-4 0.001890811137855053 0.0024283500388264656 -0.0038851271383464336 0.0056375847198069096 0.0019395292038097978 1.8054507381748408E-4 0.004731231369078159 0.004668079782277346 0.0032821709755808115 -0.0055725425481796265 -0.005641416646540165 0.005184920970350504 -0.0019132379675284028 -0.0027832440100610256 9.627861436456442E-4 -9.225152316503227E-4 -0.0025053583085536957 0.001955124083906412 -4.79971116874367E-4 0.0035741848405450583 -0.002196710789576173 0.006276414263993502 -0.0028994830790907145 0.0020659291185438633 0.0010078548220917583 0.005790851544588804 -0.0041764602065086365 0.0032304113265126944 0.004212826490402222 0.0022700706031173468 0.00514675909653306 0.006702864076942205 -2.567914198152721E-4 -0.00289732264354825 0.0028004059568047523 0.006768553983420134 0.004590654280036688 0.004169140476733446
bye -0.005220193415880203 -0.0036608020309358835 -0.0022741961292922497 0.002312916563823819 4.6272066538222134E-4 -0.0016646761214360595 -0.004713486414402723 0.0016819507582113147 -5.605106707662344E-4 0.00260098185390234 -0.0018304125405848026 -0.005940224509686232 8.141504367813468E-4 1.7353688599541783E-4 -0.005972146522253752 0.005699263885617256 -0.006406444124877453 -0.00414735171943903 -8.314247825182974E-4 0.006332064978778362 -0.006290529854595661 -0.003833369817584753 -0.0031823867466300726 -0.0025411469396203756 -0.002941075712442398 0.006509833037853241 5.064247525297105E-4 -0.0034318557009100914 -0.005272644571959972 0.003109608544036746 -0.003513122210279107 0.003865318838506937 0.0017789994599297643 -0.005011136177927256 -0.0013629108434543014 0.004693797789514065 -0.0029667015187442303 4.482595977606252E-5 -0.0032219768036156893 5.305825616233051E-4 -0.006164375226944685 -0.005118485074490309 -2.272386191179976E-4 0.004928935784846544 -0.0062041073106229305 0.0010877088643610477 4.6680643572472036E-4 8.665461791679263E-4 -0.002764626406133175 -0.005630150903016329 0.0013518978375941515 0.0019157095812261105 -0.0062111057341098785 0.0018291563028469682 -0.004205874167382717 -0.003880753880366683 0.00575269665569067 -0.002373575698584318 -0.001267852378077805 0.0045512644574046135 6.449957436416298E-5 -0.0013555814512073994 0.001935330918058753 -0.00592073192819953 0.006400129292160273 0.003263338701799512 0.001750835799612105 -0.0010918027255684137 0.005238518118858337 -0.005260821897536516 -0.0023187545593827963 -0.0013116275658831 -0.001048331381753087
removed 7.409198442474008E-4 -0.005197263788431883 -0.0016623392002657056 -0.004494486842304468 -0.004003227688372135 0.0023047449067234993 0.0031688145827502012 0.0025997143238782883 0.001977588515728712 -0.005142803303897381 -0.0011832653544843197 0.004775102715939283 -0.002297606784850359 -0.0032155895605683327 -0.002889076014980674 -0.004292508587241173 -0.00403636135160923 0.003078511916100979 -0.002996730152517557 -0.005050316918641329 -0.0034089011605829 0.0018453245284035802 -0.0026063432451337576 -0.002610407769680023 0.004943798761814833 4.960609367117286E-4 -4.1053700260818005E-4 0.0058205826207995415 0.003073585918173194 0.0019350489601492882 -7.850402034819126E-4 0.00581362284719944 0.005837180186063051 -0.0049921502359211445 0.005207296926528215 0.00324713671579957 0.002913762116804719 -0.0052428897470235825 -0.006677556782960892 -2.463739365339279E-4 0.003014981048181653 0.006735717412084341 -5.374435568228364E-4 0.004813870880752802 -0.0017613706877455115 -0.0036015184596180916 2.698774915188551E-4 -0.0051869903691112995 0.0031953633297234774 -0.0038490132428705692 0.0028510408010333776 0.004483592230826616 -0.006041582208126783 -0.005674436222761869 -0.004638346843421459 0.003950911108404398 0.004914110992103815 -0.004930452443659306 3.356137895025313E-4 0.0011320868507027626 0.001853817026130855 -0.0013168103760108352 -0.005707936827093363 0.006470046937465668 0.005473379511386156 -0.0023442977108061314 0.0035923307295888662 -0.0014473791234195232 -0.006444855593144894 -0.002657308243215084 0.0028047331143170595 -0.0038153761997818947 0.001981999957934022
thank 0.005663157906383276 -0.003396420506760478 -0.0018894626991823316 4.349449009168893E-4 0.00544662494212389 -0.0015347963199019432 -0.005662989802658558 0.0052846139296889305 -0.003022744320333004 0.0053825597278773785 -0.005889079999178648 0.005603958386927843 -0.005185471381992102 0.003407158190384507 -0.0011263795895501971 0.005937362555414438 0.002454168861731887 0.005205881781876087 -0.0066888220608234406 -9.97104070847854E-5 0.006528773345053196 -0.005396148655563593 -7.85159703809768E-4 -0.0030114862602204084 0.005933407228440046 0.005231635179370642 -0.0026907071005553007 8.480973192490637E-4 -0.003653003601357341 -0.005451129749417305 0.003641160437837243 0.002195741981267929 -0.002311210846528411 0.0026145700830966234 0.0012921143788844347 0.0016175720375031233 -0.006687314715236425 -3.237058699596673E-4 -0.00283632124774158 -0.0035275595728307962 -0.002897938946262002 0.004585577175021172 -0.001144806039519608 0.005575661081820726 0.0020906892605125904 0.004252179060131311 0.0031418425496667624 0.0051008774898946285 -9.174890001304448E-4 0.0025839495938271284 7.156117353588343E-4 0.003966319374740124 0.0012352344347164035 0.00397851224988699 0.0066939108073711395 8.428202709183097E-4 -0.003080999478697777 -0.006572023034095764 0.0027711945585906506 0.005142115522176027 -0.006589019671082497 4.113136965315789E-4 0.00468798354268074 -0.0015113402623683214 -0.005120823625475168 0.001462880871258676 -0.0020602503791451454 -0.00609087897464633 -0.006616709288209677 0.003822479397058487 -0.004156289156526327 -0.0062714796513319016 -5.555152893066406E-4
information -0.004787358455359936 -0.0011633523972705007 0.004590668715536594 -0.0019287503091618419 -0.005313991103321314 0.002985510742291808 -0.002353730844333768 6.956765719223768E-5 -0.005901098717004061 0.006108549889177084 -0.005905815865844488 0.005848483182489872 -0.006802776362746954 0.0022433758713304996 0.002101871417835355 6.879119318909943E-4 -0.003038769355043769 0.004774503875523806 -0.006155039183795452 -0.0038748537190258503 -0.005488593131303787 6.173544097691774E-4 -0.0030152362305670977 -7.109636208042502E-4 0.003770523937419057 -0.002668161643669009 -0.004799982532858849 0.005974170286208391 -0.004162258002907038 -2.667381486389786E-4 -0.0028404765762388706 0.006451108492910862 -0.0013575291959568858 -0.0018780964892357588 6.056932616047561E-4 -0.004658486228436232 -0.001352952909655869 0.007256500888615847 -8.495626389048994E-4 0.0025272781495004892 -0.0010536200134083629 -0.0014945734292268753 -0.006824426352977753 0.004430980887264013 -0.0038857986219227314 -0.004114634823054075 -0.0039366465061903 -0.004552445374429226 0.005072589032351971 -0.005315596237778664 -0.004864368587732315 3.298338851891458E-4 -0.004005013033747673 -0.004615261685103178 0.0033540709409862757 0.003366953693330288 0.004712338093668222 -0.0010203151032328606 -2.6462043751962483E-4 -0.004734110087156296 0.005001407116651535 -0.006949753034859896 -0.004970444831997156 0.004797461908310652 -0.00437586847692728 0.002197238150984049 0.002633059397339821 0.006145060062408447 0.007141755428165197 -0.005216149613261223 -0.003708727890625596 -8.926249574869871E-4 0.003649183316156268
mark -0.0027070846408605576 0.0022471589036285877 -0.0022913971915841103 -0.003016600152477622 -0.0069419932551681995 -6.088648806326091E-4 -0.00613429257646203 -0.0034627614077180624 5.794475437141955E-4 -0.006408684886991978 0.004011240787804127 -0.00699450820684433 0.00117399578448385 -6.272795144468546E-4 -5.07719290908426E-4 -0.0010903575457632542 -0.0015891807852312922 -0.002010064199566841 -4.0403613820672035E-4 -0.00633526174351573 7.430421537719667E-4 9.988639503717422E-4 -0.0050711543299257755 -0.007907872088253498 -0.0029494331683963537 -0.00465242238715291 -0.0019676564261317253 -2.011705655604601E-4 -0.0011663439217954874 -0.003505954286083579 0.005231089890003204 0.004377852659672499 0.006227076519280672 3.696138155646622E-4 5.7407050917390734E-5 0.001633930834941566 -0.004252166487276554 -0.0013557435013353825 -0.0016506846295669675 0.0036287191323935986 -0.0047715879045426846 -0.005701345857232809 0.0021946807391941547 0.0012211567955091596 -0.001112692290917039 -0.0033393946941941977 -0.004887334071099758 -0.00646416749805212 -0.0022975453175604343 -0.0035665209870785475 -0.006423850543797016 0.008923457935452461 0.0040358491241931915 -0.0013664811849594116 0.0056120408698916435 -0.005054545123130083 0.00718333013355732 9.493312099948525E-4 -0.007753652520477772 0.00606762059032917 -0.007425751071423292 -0.003778166603296995 -0.0014406060799956322 -0.007338301744312048 8.046792354434729E-4 -0.007566018495708704 0.0014649630757048726 7.620040560141206E-5 -0.002762837568297982 0.0028763834852725267 -0.007633694913238287 -9.400887065567076E-4 -0.0030937676783651114
