48 73 457
buy -0.0031086462549865246 -0.004772232845425606 -0.0049715847708284855 0.005069733131676912 -0.0067886896431446075 -0.006716354750096798 0.001838165451772511 0.005449822172522545 -0.005355934612452984 7.609041058458388E-4 0.006739468779414892 0.004662716295570135 0.003809903748333454 0.0039429995231330395 -0.005879903212189674 -0.0028219118248671293 -0.006074480712413788 -0.0036703303921967745 -0.0019219915848225355 -0.00501730153337121 0.002476898254826665 0.005810385569930077 -0.003956189379096031 4.599805106408894E-4 0.0028523181099444628 0.0018745007691904902 0.0021039305720478296 -0.007155992090702057 -0.0033984503243118525 -0.002679887693375349 -0.005177482031285763 0.005371959414333105 -0.002803213195875287 -7.010893314145505E-4 9.041287121362984E-4 0.0019170728046447039 -0.001578319352120161 6.514073465950787E-4 -0.005322215612977743 0.005382032133638859 -0.0016211778856813908 -0.007122882176190615 -0.0027238584589213133 0.0059233158826828 0.005423181690275669 -0.0060188984498381615 0.005171886645257473 -0.0012514970730990171 0.0029882665257900953 -0.00352936377748847 -0.0018841264536604285 0.005807403940707445 -0.003698925254866481 0.0019624943379312754 -6.812838255427778E-4 -0.0021971457172185183 0.0034272302873432636 -0.005147142801433802 9.871766669675708E-4 0.004430073779076338 -0.005845638457685709 -0.0023552211932837963 -0.0026244642212986946 -0.005881297402083874 1.5095282287802547E-4 -8.734999573789537E-4 0.005673620849847794 -8.64625268150121E-4 -0.0026561187114566565 -0.00480677280575037 0.005779034923762083 -3.268986183684319E-4 -1.5968720254022628E-4
tell -0.0021339510567486286 -0.005718559958040714 -0.006724596954882145 -1.735285040922463E-4 -0.001039949944242835 -0.0010843967320397496 0.0016268969047814608 -0.003355871420353651 0.004982193000614643 -0.002756670117378235 0.004252226557582617 0.006850906647741795 0.001373060280457139 -0.0024564422201365232 -0.0066134510561823845 0.00540507584810257 0.004495583940297365 0.003423162968829274 0.0030097325798124075 0.0036569167859852314 0.0016719168052077293 0.0025442882906645536 0.003503987565636635 -0.0014111560303717852 -0.005351854022592306 0.0026806602254509926 0.0025037704035639763 0.001835851464420557 -0.006685186177492142 5.665367934852839E-4 -4.083199019078165E-5 -0.005853440146893263 -0.005503511987626553 0.006299723871052265 0.006481050979346037 -0.003402844537049532 0.003361542010679841 -4.983192775398493E-4 -0.006490203086286783 -0.0066529931500554085 -6.557959131896496E-4 0.0012557985028252006 3.0725522083230317E-4 0.00620137108489871 0.002479019109159708 0.007081759162247181 -0.002898610895499587 0.004790043458342552 -0.00368041405454278 0.0025988540146499872 -0.002263095695525408 0.00390659412369132 0.0027505969628691673 0.006246978882700205 -4.361351311672479E-4 0.0018037554109469056 0.00223972974345088 -0.0013237170642241836 -0.004942541942000389 -6.476804264821112E-4 0.005480227060616016 -5.040764808654785E-4 0.005079344846308231 -0.006220532581210136 0.005173026118427515 0.004557817708700895 -0.0038387146778404713 -0.0027388366870582104 0.0026023779064416885 8.691197726875544E-4 0.003097366541624069 -0.004476480185985565 -0.00661691278219223
available -0.0036255335435271263 7.906658574938774E-4 -0.0051897624507546425 0.0024012168869376183 0.004553903825581074 -0.003921183757483959 -0.0051377397030591965 0.0012241963995620608 0.0030710920691490173 -0.0029277512803673744 0.005041808355599642 -0.003771616844460368 0.0025599582586437464 -0.0019226043950766325 0.0026212665252387524 0.0012508668005466461 -0.005667331162840128 3.80488287191838E-4 7.077903137542307E-5 0.0016344008035957813 0.002896995982155204 -0.003106293035671115 -0.002512889914214611 0.0058559756726026535 -0.005837034899741411 0.005508095026016235 0.007077647838741541 0.006064816378057003 0.0011082625715062022 0.004782217089086771 -0.00119803159032017 -0.0011592888040468097 -0.004058089107275009 0.003342429641634226 8.116030367091298E-4 0.0021088949870318174 -4.4342828914523125E-5 0.005286070983856916 0.0026180355343967676 3.124980867141858E-5 -0.00395208690315485 0.006142033264040947 0.00438796216621995 0.004774122498929501 -0.0027154560666531324 0.003095724154263735 0.0013991384766995907 0.004206613637506962 -0.003885357640683651 -0.0042024836875498295 -0.007528211455792189 -0.001998122315853834 -0.004370119422674179 0.003441450884565711 -7.628269959241152E-4 0.0012050071964040399 0.0028779334388673306 0.002704774495214224 8.415716583840549E-4 -0.003742089495062828 0.00591330835595727 -0.0059130205772817135 -0.006934645120054483 0.0041239699348807335 -0.0014894959749653935 -0.00609085476025939 -0.0013711934443563223 -0.0030822623521089554 -0.0070592062547802925 0.0010460863122716546 -0.0045271678827703 0.0036498480476439 0.002155218506231904
marki 0.005686380434781313 -0.0023741244804114103 0.006393301300704479 -0.0036984544713050127 -0.0047994800843298435 -0.004443448036909103 -0.0055972859263420105 0.003354561747983098 -0.001534060575067997 0.005319370422512293 -0.00605101278051734 -0.0052606090903282166 -0.0014221342280507088 -1.391945843352005E-4 -0.001638684538193047 -0.005502141546458006 -0.002347875153645873 0.0044655040837824345 -9.624128579162061E-4 -0.004652309697121382 -9.472615784034133E-5 -0.0012339419918134809 0.006491603329777718 -0.005948405247181654 6.118696182966232E-4 -9.905960178002715E-5 -0.0013204566203057766 0.005318802781403065 0.0031305314041674137 0.0019253873033449054 -0.0036788119468837976 -8.238994632847607E-4 0.002526075579226017 3.8593588396906853E-4 -0.0034071269910782576 -0.006404854357242584 6.4465356990695E-4 -0.004515951965004206 -4.04070015065372E-4 -0.001133755431510508 -0.0012073315447196364 0.0024361014366149902 -1.6231604968197644E-4 0.004964257590472698 0.0012651740107685328 -0.005070211365818977 -0.006013477221131325 0.004980806261301041 -0.0012036701664328575 0.004899267107248306 0.0048340982757508755 0.0021356907673180103 -0.0055078607983887196 -0.006713977549225092 0.0038849737029522657 0.002989275613799691 3.61056299880147E-4 0.006047708913683891 0.006018812768161297 -7.955628825584427E-5 0.0038034298922866583 -0.002466748235747218 -0.003472432028502226 0.006543313153088093 -0.002189768711104989 0.005753491073846817 0.003451724536716938 -0.0039271097630262375 -0.0066883983090519905 0.0012500404845923185 0.0011025025742128491 0.002319855149835348 -0.002322043990716338
rehabilitation 7.49848666600883E-4 -0.0012049806537106633 0.005269971676170826 0.005803999491035938 -0.0038889425341039896 -7.400625618174672E-4 0.0019519664347171783 -0.009332154877483845 -0.003944209311157465 0.005036170594394207 0.005098761059343815 -0.005595844704657793 -0.010492634028196335 -0.004412482026964426 0.006725168786942959 0.004327721893787384 -0.00975840911269188 0.004207714926451445 0.001671352656558156 5.894711284781806E-5 0.001076609711162746 0.005551463458687067 -9.961865143850446E-4 -0.004195608198642731 0.0017372515285387635 0.0030013914220035076 0.006927611771970987 -0.004223147872835398 -0.0061700670048594475 0.008058595471084118 -6.108660600148141E-4 0.0023545436561107635 0.009696460328996181 0.0033727383706718683 0.007226740475744009 -8.455688948743045E-4 0.002833946840837598 0.0010535168694332242 0.003751813666895032 0.004035670310258865 0.004322873428463936 -5.132204969413579E-4 0.0076013593934476376 -0.0069285789504647255 0.001938829431310296 0.004902255721390247 0.0016216144431382418 0.0018231173744425178 0.006047488655894995 -0.0010092773009091616 -0.0014856287743896246 0.005690746009349823 -0.0011849305592477322 -0.0017813328886404634 0.007978664711117744 -5.225283093750477E-4 0.004605364520102739 -0.007545019034296274 -0.00836025271564722 0.005363007076084614 -0.004511733073741198 -0.0020274147391319275 0.001736762118525803 9.883191669359803E-4 0.007118053734302521 -0.004294195212423801 0.004671342205256224 -0.0032913621980696917 -1.919535716297105E-4 0.003699306398630142 -0.008550222963094711 0.003391201375052333 0.0028959184419363737
solution 0.022352073341608047 -8.18478933069855E-4 0.0036302923690527678 0.009433803148567677 0.020169368013739586 9.493500692769885E-4 0.013914967887103558 0.013843324035406113 -0.004395668860524893 -0.0016574256587773561 -0.006565898656845093 -0.0018151028780266643 0.020106464624404907 -0.019630884751677513 -0.0021600378677248955 -0.010833235457539558 0.0149142537266016 0.0022401264868676662 0.006559868808835745 0.006958710495382547 -0.002004219451919198 0.004237994085997343 -0.02036244422197342 -0.001151084783487022 -0.009175647981464863 -0.0073547521606087685 -0.017422815784811974 0.022180236876010895 0.0044645266607403755 0.004890464711934328 -0.0061325933784246445 0.0012065452756360173 -0.007437154650688171 0.007141930982470512 -0.006581720430403948 -0.0010836475994437933 -0.010023948736488819 0.00946721713989973 -0.0021037310361862183 -0.00662909634411335 -0.0029461816884577274 0.0030903248116374016 -0.00947548821568489 -5.007971776649356E-5 0.005457953549921513 -0.0015397127717733383 0.0011897599324584007 0.0028711094055324793 -0.003842480480670929 0.015455088578164577 0.010488361120223999 -0.018013179302215576 -0.007601079531013966 0.02468421310186386 -0.0269493255764246 -0.0012526820646598935 -0.011770080775022507 -0.0046891625970602036 0.00790712982416153 0.0056166755966842175 0.004915955942124128 -0.008181451819837093 0.013152647763490677 -0.006632061675190926 0.0029423977248370647 0.009528943337500095 -0.015131077729165554 -0.0032352872658520937 0.006291785277426243 -0.007158020511269569 0.01752932369709015 -0.006445788312703371 -0.00792750995606184
handyman -0.0057955277152359486 0.007594085764139891 0.0037338174879550934 -0.0043632518500089645 -0.0054022264666855335 0.0017619463615119457 -0.005314680282026529 -0.006699892692267895 0.002340455539524555 -0.005878304596990347 0.0024547786451876163 0.004936437588185072 -0.0010704833548516035 7.997777429409325E-4 -0.0056321327574551105 -0.0027747475542128086 0.0013908304972574115 -0.005749980919063091 -5.231850082054734E-4 -0.0012598768807947636 0.002650041365996003 -0.006474117748439312 0.0048729171976447105 -0.003131803823634982 0.00155745935626328 0.004797123372554779 0.00668355543166399 0.003987498115748167 0.006488697603344917 0.006493572611361742 2.947784960269928E-4 -0.006281079258769751 0.0038026708643883467 -0.006726817227900028 0.005274727940559387 6.141653866507113E-4 4.8204418271780014E-4 0.0013515406753867865 -0.0055441176518797874 0.007146045565605164 -7.073903689160943E-4 -0.003852370660752058 -0.001029797364026308 -0.001853371155448258 0.005382331553846598 0.005560274701565504 -0.00513704027980566 0.0011771556455641985 9.005616884678602E-4 0.0024743129033595324 8.138682460412383E-5 -6.724232225678861E-4 0.006839048117399216 -6.690333830192685E-4 0.0051940069533884525 0.00697078974917531 9.104394121095538E-4 0.0030701663345098495 0.00412781210616231 -0.0037425286136567593 -0.001776787918061018 0.002654597396031022 6.872457452118397E-4 -0.005833280738443136 -0.002005156362429261 -0.005734012462198734 0.0035700455773621798 0.00409200694411993 -0.0015808225143700838 -0.0050027985125780106 0.003476414131000638 -0.0064574298448860645 0.0011017038486897945
visual -0.005537953693419695 0.005105273332446814 -0.0013604415580630302 -0.005299566779285669 -0.003609636565670371 -0.003991639241576195 0.005460985004901886 0.0032055233605206013 -9.785171132534742E-4 0.005611369386315346 0.004119744524359703 0.0016339983558282256 0.006308187264949083 0.0029830976855009794 -0.0032686167396605015 3.4140070783905685E-4 -0.005025061778724194 -2.4316022972925566E-5 2.1790308528579772E-4 -0.006675574462860823 -8.978242985904217E-4 -0.006027121562510729 0.0059594325721263885 0.00432522501796484 0.0018666012911126018 -0.005954595282673836 -0.004039033781737089 -0.0013280372368171811 -0.006764950230717659 7.048018160276115E-4 -0.006651737727224827 0.0025896611623466015 -0.0014799974160268903 2.218443842139095E-4 -0.0036884015426039696 0.0034503419883549213 0.001103438320569694 0.0034376811236143112 0.0025438426528126 0.004753623623400927 -0.0017286366783082485 -2.133687085006386E-4 -0.0031085540540516376 0.004975463263690472 -0.004016743041574955 -5.275459261611104E-4 -0.003264520550146699 7.367267971858382E-4 -0.0017031836323440075 0.0014565694145858288 0.0029009978752583265 -0.0011874596821144223 -6.469722138717771E-4 0.0046087754890322685 3.850744178635068E-5 0.0015171041013672948 -3.74768947949633E-4 -8.073031203821301E-4 0.002106196479871869 1.0393639968242496E-4 -2.694701252039522E-4 2.2195818019099534E-4 0.0010501100914552808 0.006242032628506422 0.005326822400093079 7.703583687543869E-4 -0.003662919392809272 0.0034336887765675783 0.0053541273809969425 -0.006306730210781097 0.0025370472576469183 0.005259998142719269 6.954795680940151E-4
exo 0.001081458991393447 0.006880440283566713 -0.0026928612496703863 0.004634881857782602 -0.0017308436799794436 0.004922754131257534 -0.002697704127058387 0.006174807902425528 -0.0063281976617872715 -0.0011341562494635582 0.0011392165906727314 -3.2756361179053783E-4 0.004844093229621649 0.002357588382437825 -0.00490489462390542 0.002354392549023032 -0.006718671415001154 0.00430688913911581 0.006274254526942968 4.480037896428257E-4 0.004655891563743353 -0.0051015629433095455 -0.004620505031198263 -0.004081800114363432 5.893462221138179E-4 0.0017456120112910867 0.006440064404159784 0.005135791376233101 -0.003717467887327075 -0.0037395369727164507 0.005110254976898432 0.004180704243481159 -1.283285819226876E-4 0.0039636013098061085 -0.006370616145431995 0.00673784501850605 -0.002059810794889927 -0.004976966418325901 0.0012344378046691418 0.0062648821622133255 0.004135039635002613 -0.0031135170720517635 0.005848967470228672 -0.004793645814061165 -0.004025295842438936 -0.003486939240247011 0.006121614016592503 0.004869222175329924 -6.374332588165998E-4 -0.00534502137452364 0.004865375813096762 -3.045609628316015E-4 0.0013487174874171615 -0.005435192957520485 0.0018308873986825347 0.002771201776340604 -0.005697389133274555 0.004916492849588394 0.005119174253195524 0.001605019555427134 -0.00422503100708127 -0.0015452979132533073 -0.00673440657556057 0.004179322626441717 0.0017295361030846834 -0.005268100183457136 -0.002284115180373192 -0.004267268348485231 -5.980103160254657E-4 0.003569789230823517 2.652968396432698E-4 0.001497568329796195 0.004806884564459324
info -1.1459078450570814E-5 0.005951889790594578 -0.00440192548558116 -0.006344508845359087 -0.0066183083690702915 0.0027692632284015417 0.003582843579351902 0.002046887995675206 0.0012455545365810394 -0.0014512821799144149 -0.006113299634307623 0.006948619615286589 -0.004536597989499569 0.0055814823135733604 5.414537736214697E-4 0.007255471311509609 -0.005678294226527214 -1.0022878996096551E-4 2.6908721338259056E-5 -0.006008527707308531 0.004395201802253723 3.4150572901126E-5 -3.5636554821394384E-4 -0.002671880414709449 -0.004114610143005848 4.7796289436519146E-4 -0.006434194277971983 -0.006266206037253141 0.004586168564856052 -0.002057813573628664 -0.004126587882637978 -4.4106520363129675E-4 -9.798440150916576E-4 0.003980420529842377 -0.0024803068954497576 0.005547791253775358 0.006912084296345711 0.006931236479431391 -0.002618283499032259 0.004287677351385355 3.1697796657681465E-4 0.0016989256255328655 -0.0022756727412343025 0.0016548397252336144 -0.0013322716113179922 0.006829830352216959 0.006674220785498619 -0.004546537064015865 -0.0037338300608098507 -0.0013297806726768613 -0.0049433037638664246 0.0041368440724909306 -0.006506441626697779 -0.0010982988169416785 -5.441082175821066E-4 0.0035674141254276037 0.005646745208650827 0.0059648011811077595 -0.004081406630575657 -0.002194185508415103 -0.006621309090405703 9.97471623122692E-4 -0.005734806880354881 0.002980467863380909 -0.003832853864878416 -0.0062768300995230675 0.002301920438185334 0.004356373567134142 0.0023594493977725506 0.005296989344060421 -0.007690677884966135 0.007154335733503103 -0.0034341963473707438
ii 2.333890151930973E-4 0.0036809176672250032 -0.0012157643213868141 0.004999544005841017 7.766368216834962E-4 -0.004255830775946379 -0.0027382527478039265 -0.0044234939850866795 0.003343117656186223 0.0011315967421978712 -0.00518959853798151 0.004266552161425352 -0.003999112639576197 0.004351740702986717 -4.97141620144248E-4 0.0035912729799747467 -2.4764335830695927E-4 -0.004884036257863045 -0.005910799838602543 -0.00393431494012475 -0.0011672363616526127 0.004770002793520689 -0.0034087272360920906 -0.003879052819684148 0.0010946179972961545 0.006895342841744423 7.211839692899957E-5 -0.0011383489472791553 -0.0018491627415642142 8.5622095502913E-4 -0.00607020128518343 6.134493160061538E-4 -0.005325716454535723 0.004763447213917971 -0.0054322341457009315 0.0036485884338617325 0.00197567674331367 -0.004072931595146656 -0.005801336374133825 0.002096020383760333 -0.0015634269220754504 0.0030464688315987587 -8.638859144411981E-4 -0.005713219754397869 0.005433885380625725 -4.1853252332657576E-4 0.006024952046573162 6.431369693018496E-4 1.0692667274270207E-4 0.0013781972229480743 0.0018538269214332104 -0.0016446344088762999 0.0014000441879034042 -0.007083170581609011 0.00326774874702096 0.006482507102191448 0.005642550066113472 -0.003488634480163455 7.815830176696181E-4 -0.0014793949667364359 -0.0030443058349192142 0.004747174680233002 0.005250377114862204 0.0021538424771279097 0.0010330041404813528 0.002576653379946947 0.004433105234056711 -0.004713296890258789 8.313760627061129E-4 0.0019234592327848077 0.004215804859995842 8.427081047557294E-4 -0.005254511255770922
markii 0.005385147407650948 -0.005257414188235998 -0.00211363029666245 8.602440357208252E-4 8.535113884136081E-4 -0.0028958905022591352 -0.00633411668241024 8.85317160282284E-4 -0.006584441289305687 -0.004722998943179846 0.005352048669010401 -0.003356361063197255 -0.0020924536511301994 -0.00659828819334507 -6.689259316772223E-4 -0.0032013750169426203 0.0030809605959802866 0.003999972250312567 -3.7431204691529274E-4 0.0023036685306578875 0.002787402831017971 0.0062475926242768764 -0.004911647643893957 -0.006325280759483576 -0.002311926567927003 0.006624801084399223 0.004594639874994755 -0.004424854181706905 0.0034300237894058228 0.004810347221791744 -0.0018959571607410908 -1.0039769404102117E-4 0.003017022740095854 -3.7970789708197117E-4 8.756699971854687E-4 -0.0037181347142904997 -5.369612481445074E-4 -0.00280503137037158 -0.0023755773436278105 -0.0011700093746185303 -0.0030328051652759314 0.005987069103866816 0.005522561259567738 -0.0022119577042758465 0.004465438891202211 -0.002387585584074259 -0.003677911823615432 -0.0061531211249530315 0.002092704176902771 -7.511223084293306E-4 0.002953191287815571 0.002980818971991539 0.0035227173939347267 0.0012510245433077216 0.0023826926480978727 -2.0539177057798952E-4 -0.004615349229425192 -0.006456729490309954 9.507847134955227E-4 -0.0012543164193630219 -0.003816456301137805 -6.992565467953682E-4 -0.004413457587361336 -0.006615214981138706 0.002073404612019658 0.00380123732611537 -0.0015664540696889162 0.0033491940703243017 0.005593341309577227 0.001349303056485951 -7.919279159978032E-4 -0.005292401183396578 -0.00653796223923564
give 3.8847996620461345E-5 0.00678078131750226 -8.004943374544382E-4 -4.3867097701877356E-4 -0.0029386430978775024 0.006559354718774557 -0.00657128868624568 -0.003137086983770132 0.0037239142693579197 -0.0051345741376280785 0.006139642093330622 7.613240741193295E-4 -0.005383759271353483 0.0052649653516709805 -0.006288388278335333 -0.0019069096306338906 0.004565278068184853 -0.004894912708550692 0.0016873081913217902 -0.006840995512902737 -0.006567515432834625 0.0012215467868372798 -0.002708282321691513 0.00430160341784358 0.0027015225496143103 -0.0017943185521289706 0.002706563100218773 -0.0023801312781870365 0.004482286516577005 9.26577893551439E-4 -0.003394948784261942 0.006455480586737394 -0.0030996608547866344 0.0010027807438746095 -0.005866732448339462 -0.00495424447581172 -0.006114020943641663 0.0033576025161892176 -0.004014700185507536 0.001093388651497662 0.0024074381217360497 -0.004494601860642433 -0.0036406072322279215 -0.00577642722055316 0.0066696228459477425 0.00375975389033556 9.961799951270223E-4 -0.0061616539023816586 0.0056459554471075535 0.004044275730848312 -0.005858756601810455 0.007276638876646757 -1.6622606199234724E-4 7.040511118248105E-4 0.0035193178337067366 -0.005293998401612043 -0.004007382318377495 -0.00563651230186224 0.003235440468415618 -0.0025258937384933233 -0.007176657672971487 0.0017975526861846447 8.693392155691981E-4 -0.0031873336993157864 -0.0016990054864436388 0.0010217236122116446 0.004248262383043766 2.8901328914798796E-4 0.002522894646972418 0.0019740290008485317 -0.006317794788628817 -0.0017597200348973274 -2.640136517584324E-4
need 0.005023860838264227 0.0021896781399846077 -0.0037866279017180204 -0.005622072145342827 -0.0054219430312514305 -0.0033710114657878876 -0.0016825349302962422 -5.544138257391751E-4 0.005239059217274189 -0.0017517062369734049 -7.039119955152273E-4 -0.0017811523284763098 -0.006084720138460398 0.0016370773082599044 -0.002413699636235833 -8.382135420106351E-4 -0.0022353949025273323 0.005388183519244194 0.006389991845935583 -0.0057548112235963345 -0.003409693716093898 0.006185607519000769 -0.001889470499008894 -0.006127555388957262 -2.002475957851857E-4 -0.002025570021942258 0.0038813005667179823 -0.0018205551896244287 0.002678794553503394 -0.006378237158060074 -0.0054120454005897045 0.0031274252105504274 -0.006553166080266237 -0.0024666155222803354 0.0025809628423303366 -0.006435351446270943 -0.004670269787311554 0.003523728344589472 -0.00473833316937089 -0.006117114797234535 -0.004904912784695625 -0.0048249769024550915 -0.005589833948761225 -9.373538196086884E-4 0.004757951945066452 0.004958139266818762 0.0042002140544354916 0.006746252998709679 0.005428603384643793 -0.0010148498695343733 -1.2313220940995961E-4 0.004605351481586695 0.005616666749119759 -0.0012308546574786305 5.937474779784679E-4 0.003410781966522336 0.004836175125092268 0.005903384182602167 -0.0025555859319865704 -0.004687267821282148 -0.006332333665341139 -9.032190428115427E-4 -0.0019556512124836445 0.005564443301409483 -0.006414602976292372 0.0043260399252176285 -0.001900954870507121 3.6987895146012306E-4 0.0027043025474995375 0.005249043460935354 0.004802515730261803 -0.005229264032095671 -3.6688108230009675E-4
like -0.003780805505812168 0.0047437637113034725 -0.0043518091551959515 -0.002177531598135829 -0.005732214543968439 -0.007030873093754053 -0.001706239185295999 0.0032004304230213165 2.122686564689502E-4 0.0025769833009690046 0.0052057006396353245 -4.4252272346057E-4 -0.0020108665339648724 0.007652690168470144 0.002739245304837823 0.0036790238227695227 -0.0017409243155270815 0.0054361699149012566 -0.0036941256839782 -0.001931093167513609 -6.441022851504385E-4 0.00697338068857789 -3.307031583972275E-4 0.0016754065873101354 -0.0034683644771575928 -1.9545454415492713E-4 -0.0017610820941627026 -0.0029538122471421957 -0.006623609457165003 -0.006230970378965139 -0.0029110172763466835 -0.003241483122110367 0.0010068867122754455 -0.0032922569662332535 -0.004590929951518774 0.0010654139332473278 -0.005905922036617994 -0.0015185122611001134 0.003550490830093622 0.001207684283144772 0.0036703411024063826 0.004397233482450247 0.007257102522999048 0.005630867090076208 0.0013013903517276049 0.0023133268114179373 0.00415592547506094 -0.006192220840603113 0.004679032601416111 0.005381741560995579 -0.0021846110466867685 0.008048647083342075 -4.6201617806218565E-4 -0.003959559369832277 -0.0018376364605501294 -0.002035647165030241 0.0048550027422606945 -6.493906839750707E-4 -0.007933535613119602 -0.0048106457106769085 0.0038124090060591698 0.001285959267988801 -0.007846602238714695 0.00602173013612628 0.007322766352444887 -0.006435268092900515 0.0042555127292871475 0.005566336214542389 -0.0070615774020552635 0.0029643122106790543 0.003200909588485956 0.0020256265997886658 0.004008576739579439
work -0.0038370671682059765 -0.0029331452678889036 -0.00298594543710351 -0.001406972180120647 8.050274918787181E-4 -0.005281285848468542 -0.0014427992282435298 -1.428851974196732E-4 0.0016867169179022312 -8.684817003086209E-4 -0.0018627914832904935 -0.0029875184409320354 -0.004318844527006149 0.006264386232942343 -0.003929915837943554 -0.00450104009360075 -0.0027711684815585613 0.001416850253008306 -5.846521889907308E-5 -8.370275609195232E-4 6.128919776529074E-4 -0.0046673910692334175 0.005448759999126196 0.0010943969246000051 6.771807093173265E-4 0.003451846307143569 0.004609990864992142 -0.0032956432551145554 0.006116517819464207 0.002981219906359911 -0.005789198912680149 7.506256806664169E-4 -0.005948449019342661 0.0011183492606505752 0.00612872326746583 -0.004424999933689833 -4.4110300950706005E-4 0.0034875720739364624 -7.98751600086689E-4 -0.003181376261636615 -0.005870921537280083 0.001986666349694133 -0.003878154559060931 0.0036251794081181288 -2.7449242770671844E-4 -0.002622646279633045 8.356808102689683E-4 -8.040838874876499E-4 0.0018437757389619946 0.0051516699604690075 0.004355194512754679 0.001466759480535984 0.005859974306076765 -0.003988014068454504 0.006777236238121986 -0.0038654671516269445 -0.0030799899250268936 -0.0062555549666285515 0.0027118532452732325 -0.0043221041560173035 -0.006920135114341974 9.00407088920474E-4 0.0015535528073087335 -3.1779208802618086E-4 -0.001173563301563263 -0.0049405586905777454 -6.286727730184793E-4 -0.0016106166876852512 0.0018432599026709795 0.005557385738939047 -0.006487162783741951 0.005775672849267721 -0.0018971323734149337
nothing 6.16824981989339E-5 -0.004293322563171387 -0.004748890176415443 -0.005920532625168562 -0.0047052036970853806 -0.0034190004225820303 -0.006381228566169739 0.0016942386282607913 -0.0019855874124914408 -0.004539186134934425 0.0059368968941271305 3.740481042768806E-4 0.0036928686313331127 0.004711545538157225 0.0014826267724856734 -0.002457614755257964 -0.0029781318735331297 -7.270954083651304E-4 -0.0027542696334421635 -0.002386362524703145 -0.002618725411593914 -0.005949632730334997 -0.006544180680066347 0.0014311970444396138 0.0022668419405817986 -0.005643805023282766 -0.0013727708719670773 -0.005296702962368727 0.003995642531663179 -0.006330541800707579 3.831486392300576E-4 0.002348115434870124 -0.0036209358368068933 0.0011998972622677684 -0.0061623090878129005 -0.0025102663785219193 0.0066740987822413445 -0.002740514697507024 1.1410995648475364E-4 -0.004065271001309156 0.0022913850843906403 -0.002265150425955653 -0.006039278581738472 -0.004614416975528002 0.003956970293074846 0.0053413319401443005 -0.00414828909561038 0.003028146456927061 0.004248575773090124 -0.004609365947544575 -0.004584143403917551 -0.005254413466900587 0.001550892717204988 0.0067480881698429585 0.00403183326125145 -0.0026191154029220343 -0.002863069996237755 -0.004860331770032644 -0.004890291951596737 0.002595998579636216 -0.005272196605801582 0.0022267207968980074 -0.0029332039412111044 -0.0023743740748614073 -8.609065844211727E-5 -0.0011389934225007892 -0.002195571083575487 0.005020271521061659 1.4804306556470692E-4 -3.291021566838026E-4 0.006037265527993441 0.003676965832710266 0.006069899071007967
paralysis 0.0027924957685172558 0.001899909577332437 6.830701022408903E-5 -0.0036289391573518515 -1.375536376144737E-4 0.0013391159009188414 0.005248150788247585 -0.006916292943060398 -0.003107992932200432 0.006318665109574795 0.005165466107428074 0.006863206624984741 -0.0058875917457044125 -0.0020189296919852495 -0.0058955177664756775 -0.0012455309042707086 0.0015664186794310808 0.0021287603303790092 -0.0023257711436599493 7.829768001101911E-4 4.574646009132266E-4 0.006201547104865313 0.004027194809168577 -0.005950732156634331 4.3964735232293606E-4 -0.007016774732619524 -0.004669195041060448 6.260154768824577E-4 -0.00441859383136034 0.0051657287403941154 0.0017118378309533 0.006033021025359631 -0.006114766467362642 -0.0034850104711949825 0.0059570614248514175 -0.006553150247782469 6.481329910457134E-4 -7.453629514202476E-4 0.0024852436035871506 0.006449275650084019 -0.0023037891369313 -0.0015328236622735858 -0.0034316375385969877 0.005724727176129818 0.0031502419151365757 0.001997262006625533 -0.0027119203004986048 0.004227356985211372 0.0037754185032099485 0.00629712687805295 -0.006291248369961977 0.002482827054336667 -0.0010967643465846777 -0.004930639639496803 -0.005998681299388409 -0.003965168260037899 0.004352067597210407 -0.0047292630188167095 -7.342342869378626E-4 -0.0011827348498627543 -0.0014337492175400257 -0.0032136570662260056 -0.0029651348013430834 -7.250399212352931E-4 0.002365299966186285 -0.0052945720963180065 0.0040476759895682335 0.0054856943897902966 0.0030275597237050533 -0.0039780414663255215 0.001731387572363019 1.3751184451393783E-4 -0.00602744659408927
list 0.0013468749821186066 -0.0011712823761627078 -2.557662664912641E-4 -0.006256865803152323 -0.0021522354800254107 0.006088530644774437 -0.0031289411708712578 -0.005582854151725769 0.006633898243308067 0.004324598703533411 0.004442289471626282 -0.005308272782713175 -0.005541504360735416 0.009116114117205143 -0.003152806544676423 0.002171375323086977 -0.00595826143398881 0.0011451857862994075 0.00396876921877265 0.005592454224824905 -0.006398370955139399 5.919162067584693E-4 0.0011997660622000694 -0.002882616827264428 -0.0057591102086007595 -2.9150518821552396E-4 -0.004746455233544111 -0.0036074870731681585 -0.0022016416769474745 0.004527288954705 0.004688159096986055 0.00435339380055666 -0.0010191589826717973 -0.0064917500130832195 0.0024082025047391653 -0.005611225496977568 0.0021605738438665867 -0.0020881835371255875 -0.006493089720606804 -0.0039007063023746014 -0.004426190629601479 -0.003093461273238063 0.0030547839123755693 -0.005184793844819069 0.006773130502551794 0.006464124657213688 0.004503361880779266 0.005798910278826952 7.630380569025874E-4 -0.007497716695070267 -0.002982779173180461 -0.0010523675009608269 -0.004027047194540501 -0.002748192520812154 -0.0015039308927953243 0.004650898277759552 0.006937824655324221 -0.004797737114131451 -0.004945255815982819 -0.0044802166521549225 -0.0038151515182107687 0.004557071253657341 -0.00531880185008049 -0.006459804251790047 0.004430717788636684 -0.003763416549190879 0.0022778285201638937 -0.0034519690088927746 -0.004968695342540741 0.004340070765465498 -0.007211342453956604 -0.004735487978905439 0.002673703245818615
catalogue 0.009122875519096851 -0.004543928429484367 0.004344683140516281 2.387573040323332E-4 0.0032400647178292274 -0.003476121462881565 0.008628739975392818 0.004065521527081728 -0.0015084035694599152 -0.005773842800408602 -0.004787760321050882 0.007056949660181999 0.0034079737961292267 -0.0049896761775016785 0.006324683781713247 0.004470790736377239 -0.004803165793418884 0.007113810162991285 -0.003909007646143436 0.002325250068679452 -0.0029758396558463573 -0.007050542160868645 0.004369623959064484 -0.004485005512833595 -0.005142971407622099 -0.004360990598797798 -0.008210779167711735 0.00793782714754343 0.004620670340955257 -7.735630497336388E-4 7.224773871712387E-4 0.0020162358414381742 -0.006282887887209654 1.5479288413189352E-4 -0.005822708830237389 -0.004956849850714207 0.004239097237586975 1.6075445455498993E-4 -0.005319992545992136 0.0010007238015532494 -0.0031646830029785633 -6.434058886952698E-4 -6.722311954945326E-4 -6.605914677493274E-4 -0.004460957366973162 0.0027735948096960783 -0.0017500472022220492 0.0033716834150254726 -0.00846689473837614 0.002526165684685111 0.002327296417206526 0.003215857082977891 -0.0022878386080265045 0.00747265899553895 -0.008929336443543434 0.0033826082944869995 6.131944246590137E-4 0.0019731177017092705 0.00808708742260933 -0.001685407361947 -6.915575941093266E-4 0.003920623566955328 0.0010228127939626575 0.007860307581722736 0.0037661632522940636 0.007798329461365938 -0.0016657713567838073 2.0006817067041993E-5 0.0020645365584641695 0.0031199767254292965 9.331188048236072E-4 -0.002235803985968232 -0.005139128305017948
prosthesis 0.006604311056435108 0.006581702269613743 -0.006555532105267048 -5.634336266666651E-4 -0.0028923240024596453 -7.554046460427344E-4 0.002335828496143222 0.004491931758821011 0.004610578063875437 0.002802738919854164 -0.005890978965908289 -0.006078227888792753 0.0020146677270531654 -0.005956367123872042 -0.00469674076884985 -0.0030453011859208345 0.002942904131487012 -0.0010027431417256594 -0.004364434629678726 -0.0058443257585167885 0.006299830973148346 -4.8467773012816906E-4 -0.006272995378822088 -0.003123342525213957 -0.00642503472045064 -0.00693932268768549 0.002819198416545987 8.382426458410919E-4 0.0018367896554991603 -0.005329265724867582 -0.0017447501886636019 0.005873081739991903 1.054489694070071E-4 -0.004472603090107441 -0.005748411640524864 0.002212932799011469 -0.00568304443731904 -0.0013568061403930187 0.0031011602841317654 -1.124706759583205E-4 -0.004546615295112133 0.0033536353148519993 -0.006537784822285175 0.001972608035430312 -0.00402388721704483 0.00470116687938571 -0.0029008525889366865 0.003233306109905243 4.495640750974417E-4 0.003213017014786601 -0.004704400897026062 -0.005964435171335936 0.002559096785262227 0.007339795120060444 0.0027916685212403536 -0.0017586143221706152 -0.00586773082613945 -0.005935215391218662 -0.001928148791193962 -0.0051954323425889015 -3.1775515526533127E-4 -0.004357543308287859 2.625493216328323E-4 6.481995224021375E-4 -0.004109450150281191 -0.0032890948932617903 -0.004413736052811146 0.0027424339205026627 -0.006333528086543083 0.0046581849455833435 0.004776874557137489 -0.0044117271900177 -0.0021300967782735825
demonstration 4.7771434765309095E-4 3.3988719223998487E-4 0.0038899604696780443 -0.006169317290186882 0.0010511010186746716 0.005158433225005865 0.0017831512959674 -0.0066280364990234375 0.0033344170078635216 4.480526549741626E-4 -0.0013848887756466866 -8.470344473607838E-4 0.001960448920726776 -0.003695288673043251 -0.0021286578848958015 5.824834806844592E-4 0.0057221525348722935 4.097953569726087E-5 7.003702339716256E-4 -0.004817479755729437 -0.002983458572998643 0.0021025293972343206 0.004099472425878048 -0.004813677631318569 0.0015802589477971196 0.0014549007173627615 -0.004472375847399235 -0.004089318215847015 -0.0032804354559630156 -0.005764083471149206 -0.004928819369524717 0.0038040962535887957 -0.0025792315136641264 -0.0067055560648441315 0.001297543291002512 -0.0023215305991470814 -0.004130656365305185 -0.005199290346354246 -0.0054889824241399765 0.003921356983482838 0.004780450835824013 -0.006215440575033426 -1.4808868581894785E-4 -0.0021295107435435057 0.006329027004539967 -0.0019867599476128817 -0.001748934155330062 -1.7789828416425735E-4 -0.0018903148593381047 0.004099338315427303 0.0038449738640338182 0.005537422839552164 -0.002511025173589587 7.723209564574063E-4 -0.006256318651139736 0.005039008799940348 0.004919057711958885 0.004006317351013422 -0.00326005881652236 8.333849837072194E-4 0.004215029533952475 -0.002652090974152088 -0.0010865445947274566 -0.006511670537292957 -0.0037803715094923973 0.00619194470345974 -0.004193891771137714 0.004972774535417557 0.0027878473047167063 -0.0018884483724832535 -0.001110012293793261 0.004876267164945602 -0.003511197166517377
detail 1.082942180801183E-4 0.004220677074044943 -0.001409824239090085 -0.002786779310554266 -0.0016997476341202855 0.00105041463393718 0.0032361585181206465 -0.007177595980465412 0.004264466930180788 0.0028469052631407976 0.004883465822786093 -0.0071063353680074215 -0.002826074371114373 0.004021889064460993 -0.005643053911626339 0.0025473511777818203 0.004506384022533894 0.003622423391789198 -0.006213726010173559 -0.003407426178455353 -0.0010212402557954192 5.202404572628438E-4 2.762913645710796E-4 -0.0021095843985676765 -1.714737736620009E-4 0.00416210712864995 3.681442467495799E-4 -0.005389575380831957 0.0018830832559615374 0.0026878956705331802 0.005876120645552874 4.4948901631869376E-4 -0.004584489855915308 0.0015604018699377775 0.006556608248502016 -0.0024319118820130825 0.007002825848758221 0.005465152207762003 0.006228037178516388 0.0015029768692329526 0.003515730844810605 0.004504047334194183 -0.005101083777844906 0.001244153594598174 -0.005282231140881777 0.0037784138694405556 4.7502986853942275E-4 0.005104902666062117 -0.002989176893606782 -9.494147379882634E-4 -0.0021458035334944725 0.003078269073739648 5.975035601295531E-4 -0.00673579890280962 -0.0028341664001345634 -0.004889795556664467 0.004491185769438744 0.0012731008464470506 -8.697479497641325E-4 -0.002826381241902709 0.005194908939301968 0.0013220076216384768 -0.006630579940974712 -0.006092556286603212 0.0025285836309194565 0.0023163617588579655 -4.3697789078578353E-4 0.005655787885189056 -0.007010905537754297 2.7324436814524233E-4 -0.003744537243619561 0.005144518334418535 0.0033286039251834154
amputation 0.007605799473822117 -0.0033165165223181248 -0.006118976045399904 0.00900291744619608 0.003300741082057357 0.005972118582576513 0.006955497432500124 1.0487745748832822E-4 -0.0029439106583595276 -0.0012278490466997027 -0.00166053487919271 0.0032417476177215576 -3.969367244280875E-4 0.0025329296477138996 -0.004521726630628109 0.0036231486592441797 -0.001002794480882585 -0.0032304294873028994 0.0011443461989983916 0.001902288873679936 -0.0025009389501065016 2.7294750907458365E-4 -0.0010177561780437827 -0.00508619612082839 0.0011470145545899868 8.176622213795781E-4 0.003716863691806793 -0.003240329446271062 -0.007333540823310614 6.011617952026427E-4 0.005032900255173445 4.7799001913517714E-4 0.0023359106853604317 -0.0026168895419687033 -1.545737322885543E-4 -0.007417615503072739 0.0014114456716924906 0.0012695115292444825 0.0018130014650523663 0.0042548649944365025 0.00124945433344692 -0.004248736426234245 -0.003975396975874901 0.004274426959455013 0.006474256981164217 -5.955114029347897E-4 -0.004483349621295929 0.0018472418887540698 -0.003488174406811595 -0.005606767721474171 0.0042542447336018085 -0.0015776627697050571 -6.922328611835837E-4 6.515625864267349E-4 0.0038017453625798225 0.003765906672924757 -0.0033752501476556063 -0.0062539600767195225 -0.0018546807114034891 -0.0014052194310352206 0.00725299958139658 -0.006906512193381786 0.001642968854866922 -0.005557558033615351 -0.006516804452985525 1.7958052922040224E-4 -6.710108718834817E-4 -0.007642204873263836 -0.003408352378755808 -0.005386465694755316 0.0010562483221292496 0.006673505064100027 -0.0068269348703324795
cut -0.002881305292248726 0.001139485975727439 0.0019296722020953894 -7.46929319575429E-4 0.004508718382567167 -0.0049517350271344185 0.003848159220069647 0.003672592807561159 -0.0024302927777171135 -0.0013210608158260584 -0.0029715602286159992 0.0024457687977701426 0.003191768191754818 0.0028411049861460924 -0.004470637068152428 0.005395052954554558 -0.0030954619869589806 4.2140690493397415E-4 0.0064935204572975636 0.005939946044236422 -8.842960232868791E-4 0.004063818138092756 3.010472864843905E-4 -0.003330316860228777 -0.005864131264388561 -0.0010979408398270607 -0.004699418321251869 -0.0015038023702800274 -0.004472596570849419 0.0014879709342494607 -0.001433892291970551 0.00304438010789454 -0.0070935944095253944 -0.00464549008756876 0.0018780254758894444 -0.00125681865029037 -0.0029050910379737616 0.0048829978331923485 -0.002002823632210493 0.004715163726359606 0.0017148508923128247 -0.0019274158403277397 -0.00228921533562243 0.006448026280850172 0.002754248445853591 -8.68438626639545E-4 -0.001560484990477562 2.3823228548280895E-4 0.004514995962381363 -7.247243192978203E-4 0.0012330700410529971 0.00647357665002346 -0.004239120986312628 0.004783045966178179 -0.004875747486948967 -0.006720899138599634 -0.004382112994790077 0.003577380208298564 -0.0015841476852074265 -0.006886668503284454 -0.001392953097820282 -0.004163472447544336 0.005256831645965576 -0.0058347322046756744 -0.0010333431418985128 0.003640281269326806 -0.004031321965157986 6.641597137786448E-4 0.004364413674920797 -0.005465762224048376 -0.003636737586930394 -0.006588548421859741 0.0017099084798246622
show -8.86758673004806E-4 0.003212231444194913 0.005368607118725777 0.004296685568988323 -0.011033222079277039 -7.356481364695355E-5 -0.006040631327778101 -0.0049859522841870785 0.008429490029811859 6.354161305353045E-4 0.0026082773692905903 0.005142103414982557 -0.009904559701681137 0.005896990653127432 -0.005236951168626547 0.003662564791738987 -0.006678539328277111 -0.005634556990116835 -0.0037188935093581676 -0.006193050183355808 0.006330663803964853 -0.0024507842026650906 0.006021507084369659 -0.006985300220549107 0.004013269208371639 0.00720216752961278 0.010077256709337234 -0.003955792170017958 0.004655472002923489 -0.0052049667574465275 -0.002709937049075961 -0.006345064379274845 0.010307859629392624 5.335129681043327E-4 0.009145100601017475 -0.004227998200803995 0.0030528861097991467 -0.0012723354157060385 -0.0021162149496376514 -0.0029184380546212196 -2.81604388874257E-6 9.134411811828613E-4 0.005021725315600634 -0.007670531049370766 -7.009526016190648E-4 0.007383502088487148 -0.0019795261323451996 -0.005544119514524937 0.0015069482615217566 -0.0066060274839401245 -0.008910711854696274 7.134171901270747E-4 -0.0015549492090940475 -0.004185551777482033 0.009080491028726101 0.002632496878504753 -1.5298252401407808E-4 0.006802226882427931 -0.004259328357875347 0.005327466409653425 7.597464136779308E-4 0.005209882743656635 -0.00384143297560513 -0.0074487351812422276 0.005284611135721207 -0.006847739685326815 0.0014151133364066482 0.005718954373151064 -0.010758042335510254 0.007016248535364866 0.0023236700799316168 0.0031985826790332794 0.003517107805237174
video -0.0023258395958691835 0.005832123104482889 2.5321924476884305E-4 2.7444486477179453E-5 -0.006663498468697071 -0.0010104973334819078 0.0036013051867485046 -0.0023377116303890944 -4.434803267940879E-4 0.0013019870966672897 3.2419091439805925E-4 -8.432792965322733E-4 0.005376207642257214 0.0025466284714639187 -0.002811986720189452 4.0341931162402034E-4 -0.0017278139712288976 -0.0031632850877940655 -0.006678353995084763 0.004084791988134384 0.005102471448481083 -0.0047829425893723965 -0.005700032692402601 0.0019656189251691103 0.0010938241612166166 -0.0054245758801698685 0.003291564527899027 0.002303978195413947 -0.004441551864147186 0.0028571304865181446 -0.003248874330893159 4.374868585728109E-4 0.0034480635076761246 0.006475544068962336 0.003866421291604638 -0.005433220881968737 -0.0011204256443306804 -0.004048938397318125 -0.006240658927708864 -0.004111940972507 0.003604767844080925 0.0036126587074249983 0.001377591397613287 -0.006197664421051741 0.004962010774761438 0.002415446098893881 0.0027873823419213295 0.001883594784885645 -0.005496916361153126 -4.4327520299702883E-4 -0.0012015795800834894 0.00531311659142375 0.005612293258309364 5.071668419986963E-4 -0.0012353247730061412 -0.005924693774431944 0.003555071307346225 -0.0036261200439184904 -0.005028744228184223 -0.0038974620401859283 0.0057160076685249805 -0.006530465092509985 0.0034878943115472794 0.005233201198279858 -0.005404036026448011 -0.004333238583058119 -0.0011844036635011435 0.003965863958001137 -0.004016251768916845 -0.005544763524085283 -0.0010791081003844738 0.004189974162727594 -0.004310806281864643
demo 0.005845476407557726 0.002395166317000985 -0.006006104405969381 0.004423912148922682 -0.0019069216214120388 -0.0011897071963176131 -3.743734851013869E-4 0.0010558315552771091 -0.003783758031204343 -8.737974567338824E-4 0.001870444044470787 -0.005296182353049517 -0.0036822992842644453 -0.00510369660332799 -0.005993416532874107 -0.0012204733211547136 -0.0019309980561956763 0.0030343318358063698 0.003313088323920965 -1.9073007570113987E-4 -0.003966257441788912 0.004455619025975466 0.006756165996193886 -0.006163435056805611 -0.006225811317563057 -0.0022854958660900593 -0.002194230677559972 -4.031890712212771E-4 -0.0029435011092573404 -8.578039705753326E-4 1.6193940246012062E-4 0.005022414494305849 -0.0033728342968970537 -0.0050051650032401085 0.004552013240754604 -0.0030370312742888927 -0.002256709150969982 7.667043246328831E-4 0.0014108147006481886 -0.004174157045781612 0.006352622527629137 -0.0034602168016135693 8.233261178247631E-4 -0.0026847345288842916 -0.002368145389482379 -6.848936900496483E-4 -0.004658904857933521 -0.005358968861401081 -0.005556538235396147 -2.885865105781704E-4 0.006402680650353432 2.361070946790278E-4 -0.005983768962323666 -0.0016336239641532302 0.002093008253723383 -0.004105373285710812 -0.006186401471495628 0.004235265776515007 -0.006256870925426483 -0.006619357503950596 -0.0037834716495126486 -0.005389553029090166 0.0047195772640407085 -0.0057111456990242004 -0.001577227027155459 -0.006023372523486614 0.001979953609406948 7.888015825301409E-4 -0.0027137293945997953 -0.003900916315615177 0.004995753988623619 0.0026271911337971687 -8.337933686561882E-4
can -0.0029077576473355293 4.883259534835815E-4 -0.003304951125755906 -0.0054970383644104 0.0019792707171291113 -0.001176391146145761 0.0012224875390529633 -0.004564274568110704 0.001858116709627211 0.006018663756549358 9.835809469223022E-4 -9.671790758147836E-4 0.0036706815008074045 0.005282522179186344 9.135212749242783E-4 7.156009087339044E-4 -0.0032005414832383394 -8.526559686288238E-4 -0.002643180312588811 0.0011524122674018145 0.0012078300351276994 0.005041689611971378 0.0010013380087912083 -0.004364213906228542 0.004198688548058271 0.0045374417677521706 0.004501522518694401 -0.006135484203696251 -6.605816452065483E-5 0.004529139026999474 0.00639713229611516 -0.006018062122166157 0.0028830177616328 0.005429985001683235 -0.0033273997250944376 -0.006753118708729744 1.1923207057407126E-4 -0.006651465781033039 -0.0014010911108925939 -1.353456318611279E-4 0.001229241956025362 -0.003923541866242886 0.003391570644453168 -0.004478901624679565 -0.0061712078750133514 0.00600160239264369 0.002997496398165822 0.003927330486476421 -0.002432714682072401 -5.337008624337614E-4 0.005310300271958113 -0.0030319499783217907 0.004497576504945755 -0.004496924579143524 0.00632333243265748 -0.002678730059415102 -0.0037103486247360706 7.957251509651542E-4 0.0036344651598483324 0.006743405479937792 0.0043403212912380695 -7.635378860868514E-4 -0.0033118268474936485 0.0038515967316925526 -0.006271681282669306 -8.722756174392998E-4 6.443413440138102E-5 0.0012815917143598199 3.2544118585065007E-4 1.9484825315885246E-4 0.0012813291978091002 -0.002350267255678773 0.002315337536856532
see 0.003602593205869198 -0.0037517528980970383 3.097409789916128E-4 8.05799791123718E-5 5.084897857159376E-4 -0.0034686133731156588 3.992800338892266E-5 -0.0041442932561039925 0.005175359547138214 -0.005994089879095554 -0.0015443692682310939 0.0051078516989946365 0.003952309489250183 0.005310251377522945 6.867967895232141E-4 0.0016114835161715746 0.0033295119646936655 4.5543492888100445E-4 0.0048117851838469505 -0.001625332166440785 0.00254085473716259 -0.0061568571254611015 -0.006378795951604843 -0.00434176716953516 -0.003935696557164192 2.642124891281128E-4 -0.0013726961333304644 7.334472029469907E-4 -0.006124564912170172 -0.005713076796382666 -0.005888144951313734 -0.002338910475373268 -0.006534564774483442 -0.002363282022997737 0.0017176482360810041 -0.006789667997509241 3.198819831595756E-5 -0.0014473556075245142 0.0019391374662518501 0.0010217668022960424 -0.005528504028916359 -0.005014478228986263 -0.0035586473532021046 0.006689824163913727 0.0030762269161641598 -2.3262441391125321E-4 0.0012245435500517488 0.005480528809130192 -0.0027749058790504932 0.005369362886995077 0.006826713681221008 -0.00644174637272954 0.0039264787919819355 0.00176541309338063 0.0025717110838741064 -0.005048933904618025 -5.707056261599064E-4 0.002287270501255989 -0.005263888742774725 -0.0030307862907648087 -0.004836144391447306 -0.005095291417092085 0.0021030630450695753 0.0011238950537517667 -0.002984947757795453 -0.004814766813069582 0.004517286084592342 6.164714432088658E-5 -0.003693248610943556 0.006045241840183735 -0.005103113129734993 -0.0023343360517174006 -0.003942754585295916
get -0.002283747075125575 0.002098285360261798 0.002226154785603285 1.6287194739561528E-4 -0.0037697225343436003 -6.038113497197628E-4 -7.875231676734984E-4 -0.007067633792757988 -5.185971385799348E-4 0.0015114155830815434 -0.002054654061794281 3.832345537375659E-4 -0.007091614417731762 -0.0032182687427848577 0.005323865916579962 0.0013822960900142789 -0.0031074455473572016 -4.4165016151964664E-4 0.006430862471461296 8.186224731616676E-4 -0.001992168603464961 0.004198448732495308 0.0053483485244214535 0.0031848568469285965 0.007506756577640772 -0.004288137424737215 -0.0011487849988043308 2.923142455983907E-4 0.0028897023294121027 -8.871832978911698E-4 -0.0035676388069987297 0.0065329065546393394 0.004557659849524498 -0.004959064535796642 0.0031260072719305754 0.006604031194001436 -0.003570378525182605 -0.005752560216933489 -7.051551365293562E-4 0.007090266328305006 -0.0031524193473160267 -8.58218118082732E-4 0.007221142295747995 1.4384039968717843E-4 -0.002440270036458969 -0.0030588607769459486 0.0019556337501853704 -0.005278120283037424 -0.004323664121329784 -0.005602586083114147 0.0035681165754795074 0.0014964162837713957 0.005539917387068272 -0.007716148626059294 0.005903265438973904 -0.0056735859252512455 -2.2681051632389426E-5 -2.0019036310259253E-4 0.00417832937091589 -0.0025046304799616337 0.004233956802636385 -0.0023283306509256363 0.0025145693216472864 -6.364872097037733E-4 -0.006333902012556791 0.005766422022134066 0.0034216511994600296 0.0021837030071765184 0.0057675279676914215 0.004450324922800064 -0.006600327789783478 -0.006055452860891819 0.004468774423003197
muscle 0.005956415086984634 -0.004823425319045782 -0.002470196457579732 -0.002660950878635049 0.0011881011305376887 0.005012855399399996 0.006473907269537449 0.00673271669074893 -0.0035865663085132837 -0.00218900665640831 -0.0022231044713407755 0.00624063890427351 -9.084857883863151E-4 -0.008194955065846443 -9.030497749336064E-4 -8.901730179786682E-4 -0.0038092874456197023 -0.006703496444970369 0.0021261952351778746 -0.0015406564343720675 -0.0018404267029836774 -0.007397633511573076 0.0011184217873960733 -1.0481987555976957E-4 -0.007156451232731342 -0.006432888098061085 -0.0023173107765614986 -0.0037937499582767487 -0.004895344376564026 -0.004706559237092733 -0.006828794721513987 0.0038576964288949966 -0.00781321618705988 -0.003862262237817049 -0.0031882429029792547 0.0038310892414301634 -0.006954933051019907 0.0059445686638355255 -1.0802919859997928E-4 0.0015165561344474554 0.0018632749561220407 0.007265087682753801 -0.006253426894545555 -0.001919543370604515 0.004655491095036268 -0.006336885970085859 -0.002276137238368392 0.0010118642821907997 -0.005207275040447712 0.007840873673558235 0.00710811372846365 -0.006883296649903059 0.0010134911863133311 0.0014162660809233785 -0.0010611885227262974 -0.003985271789133549 -0.0046868156641721725 -0.0012565775541588664 0.007543467450886965 0.0015936350682750344 0.007681296207010746 8.311743149533868E-4 -0.005147288553416729 0.005223155952990055 -0.005939580965787172 9.700445807538927E-4 -0.003604175988584757 1.4392285083886236E-4 0.0014946673763915896 0.004800004884600639 -0.0016931616701185703 -0.004238042049109936 -0.006782532203942537
working -0.0018417915562167764 -0.002212490886449814 4.0381631697528064E-4 0.0033558132126927376 0.0013958688359707594 -5.615726695396006E-4 -0.0062471311539411545 -0.003441738896071911 0.006156417541205883 0.005553744733333588 0.004498060327023268 8.965925371740013E-5 -0.0018175662262365222 0.0037533207796514034 0.003519142745062709 0.0026796942111104727 -0.006594487931579351 -6.539650494232774E-4 -4.1057096677832305E-4 0.006640941835939884 0.005485329311341047 -0.0047044637612998486 0.003021906828507781 -0.005404047667980194 0.004307594150304794 -0.004443609621375799 0.006267797201871872 -0.003153404453769326 -0.004298090469092131 -0.003568357788026333 0.0012417271500453353 0.006323345936834812 0.0064649744890630245 -0.006108803674578667 0.005675934255123138 -0.0035274061374366283 0.001216128352098167 0.004761699121445417 -0.0029230830259621143 -0.0067235990427434444 3.7496903678402305E-4 -3.692036843858659E-4 -0.002677988726645708 -0.004276493098586798 0.0019033675780519843 0.002214559353888035 0.004079916980117559 0.004163227044045925 0.0033853864297270775 0.0027080532163381577 -0.005512164440006018 0.0016947350231930614 0.0032946153078228235 -0.003350611310452223 0.005753153469413519 0.006782751064747572 -7.591368048451841E-4 0.0039879875257611275 -0.004680606536567211 -0.004122664220631123 -8.328441763296723E-4 0.002575349761173129 0.005427663680166006 0.0013427407247945666 0.0037946291267871857 7.048817933537066E-4 -0.003857316682115197 -0.006586735602468252 -5.548920016735792E-4 -0.001217288663610816 0.0030647399835288525 -0.004113446921110153 0.0055488538928329945
exoskeleton -0.005057052709162235 -0.005098080728203058 -6.102145416662097E-4 0.0019421842880547047 0.004389749374240637 -0.0010359663283452392 0.0021210473496466875 -0.0018876678077504039 2.7210076223127544E-4 -0.003015064401552081 -0.0013843034394085407 0.00340056954883039 0.0012495608534663916 5.89030038099736E-4 0.004185441881418228 0.003077124711126089 -8.483910351060331E-4 -0.005211503244936466 -7.924656383693218E-4 -0.003940205089747906 0.004583080764859915 8.072155178524554E-4 0.003733169985935092 0.005812355317175388 0.002455029170960188 -0.005509222391992807 2.5523448130115867E-4 -0.004082156345248222 -0.006123624742031097 -0.002319070277735591 0.005537189543247223 0.0018839144613593817 -0.00619334215298295 0.0039628311060369015 -0.0041018216870725155 -2.502512070350349E-4 0.0055139628238976 0.002826028037816286 -0.001102568581700325 0.00507116736844182 -0.0013670774642378092 -0.0057213264517486095 0.004914410412311554 -8.960675331763923E-4 0.004017658531665802 0.007252472918480635 0.0027260337956249714 0.003207460045814514 0.0032634956296533346 0.0025338290724903345 -0.00521429255604744 0.006211113650351763 0.001674643368460238 0.004172380082309246 -0.004175276029855013 0.002047589048743248 8.188668871298432E-4 0.00564100407063961 0.0016835742862895131 0.004146372899413109 0.006547841709107161 4.665144660975784E-4 0.002685820683836937 -0.004278210457414389 -7.57565489038825E-4 0.0010968680726364255 -0.0035537322983145714 0.005546051077544689 0.0014231381937861443 -0.004484930075705051 -0.005961949005723 -0.005246575456112623 0.0013550835428759456
company 0.004389414098113775 0.001981496810913086 5.52335346583277E-4 -0.002518043853342533 -0.0054046278819441795 0.006024541333317757 -0.007531776558607817 0.001458748010918498 0.0038273835089057684 -0.0019593338947743177 -0.005248382221907377 -7.054908783175051E-4 0.003095117397606373 -0.0014017532812431455 0.004283262882381678 0.007026819512248039 -0.0015622092178091407 -0.0019806271884590387 -0.005256155505776405 0.005559235345572233 0.005148198455572128 -2.5456963339820504E-4 -0.0031809103675186634 0.0042106471955776215 0.004414934664964676 -0.0043841758742928505 0.0038664534222334623 -0.006836248096078634 -0.0034299863036721945 0.0012083441251888871 0.003655893262475729 -5.816026241518557E-4 -0.0036571307573467493 0.005388179793953896 0.004451434593647718 -0.005201171152293682 0.0064612762071192265 -0.004799545276910067 0.0048311976715922356 0.0052167996764183044 -0.0016940929926931858 -0.005456267390400171 0.007442796137183905 0.0015284896362572908 -0.001694189035333693 0.005806911736726761 -0.004674876108765602 0.0025083376094698906 0.006437934935092926 0.0031160227954387665 -0.007289078552275896 0.0027019439730793238 -0.005425631068646908 -0.005269257351756096 -0.002778019290417433 -0.003158107167109847 -0.004472783766686916 -0.006638963241130114 0.0021324092522263527 0.0019691018387675285 0.004588528536260128 -0.005200355779379606 0.005797253921627998 -0.0016253612702712417 -0.0046315621584653854 -8.91662435606122E-4 -4.3770609772764146E-4 0.004871970042586327 1.870440610218793E-5 0.0018822422716766596 -0.002643987536430359 -0.0065301815047860146 -0.004429488908499479
amputee 0.009930601343512535 0.0017379852943122387 -0.005507543683052063 0.008917141705751419 0.0055872853845357895 8.782960940152407E-4 0.003305697813630104 -0.0023328689858317375 0.005570577923208475 -0.005643477663397789 0.0047880555503070354 0.0028395948465913534 -0.004358428064733744 0.005989836063235998 0.004921278450638056 -0.00265240715816617 0.0067602163180708885 -0.006335368379950523 0.004244202747941017 -0.0036502897273749113 -9.265082189813256E-4 0.006548585835844278 0.002590845339000225 -0.001948308665305376 -0.005244591739028692 3.928529913537204E-4 0.0021238005720078945 0.004958698991686106 -0.005831062328070402 0.003922036848962307 -0.004900672007352114 -0.0022256867960095406 0.0021760801319032907 -3.553871647454798E-4 0.002335773315280676 0.004147211089730263 -0.0015547556104138494 0.006356582976877689 -0.006410354282706976 0.0015425404999405146 0.002637336729094386 -0.0062517449259757996 -0.007133773528039455 0.0021391159389168024 0.005443735048174858 6.25412561930716E-4 -6.813727086409926E-4 -0.004086510743945837 -4.4587283628061414E-4 0.003347694640979171 -0.00614574970677495 5.407872376963496E-4 -0.0038872023578733206 0.003861680394038558 -0.004560747183859348 0.005592403467744589 -8.63026361912489E-5 -0.004837054759263992 0.0025479865726083517 0.0023616673424839973 0.0030315115582197905 -0.006735864095389843 0.0031321386341005564 -0.00534239923581481 4.3222878593951464E-4 -0.006731473375111818 0.005846851505339146 2.2409413941204548E-4 0.002650314476341009 -0.001182909240014851 0.00756275886669755 0.0074807871133089066 -0.0035425845999270678
hand -0.08818614482879639 0.042709898203611374 0.02760344371199608 -0.04843456298112869 -0.06858433783054352 -0.014607363380491734 -0.048634447157382965 -0.06230662763118744 0.018641114234924316 -0.013307400047779083 0.06126348301768303 -0.04406677931547165 -0.06194721534848213 0.05820764973759651 0.004592705052345991 0.022246459499001503 -0.044541142880916595 -0.0021521179005503654 -0.006258553359657526 0.008463316597044468 -0.017795681953430176 0.006064111832529306 0.05948861688375473 -0.03140103816986084 0.06812387704849243 0.030822131782770157 0.043860651552677155 -0.06519966572523117 0.016450216993689537 0.007030167616903782 0.04851079359650612 -0.006686911918222904 0.0792560875415802 -0.008858697488904 0.06350735574960709 0.021087994799017906 0.009346448816359043 -0.043061576783657074 0.021614620462059975 0.04343685880303383 -0.012883707880973816 -0.05587165430188179 0.06219572201371193 -0.016137558966875076 0.014742257073521614 -0.0013572948519140482 -0.0408632829785347 -0.061551373451948166 0.052533458918333054 -0.0308704674243927 -0.025061961263418198 0.07272040843963623 0.024384718388319016 -0.09149254858493805 0.08956684917211533 0.0037891468964517117 0.058067694306373596 0.012640906497836113 -0.06466713547706604 0.022304419428110123 -0.04643293097615242 0.03830844163894653 -0.047471340745687485 -0.012023481540381908 0.03280464559793472 -0.03409701585769653 0.035461705178022385 0.04212809354066849 -0.06632740795612335 0.057507701218128204 -0.07023666054010391 -0.01435557845979929 0.02799184061586857
product 0.018362626433372498 -7.748426287434995E-4 0.0015463022282347083 0.013859599828720093 0.020162461325526237 8.756156312301755E-4 0.006867150776088238 0.012322439812123775 -0.0108611099421978 0.00956445001065731 -0.00496060261502862 -0.0031406551133841276 0.019590329378843307 -0.012895770370960236 0.008428576402366161 -0.0034347446635365486 0.0024215811863541603 -0.006068063899874687 0.009355021640658379 0.010052382946014404 -0.0015397671377286315 -1.1435973647166975E-5 -0.017887409776449203 -0.0037125011440366507 -0.0013630430912598968 -0.005819362588226795 -0.011556540615856647 0.016470883041620255 0.0052999225445091724 0.0020403775852173567 -0.0027483906596899033 0.008186453953385353 6.183181540109217E-4 0.006075797136873007 -0.010796247981488705 0.005931572522968054 -0.012511128559708595 -0.004047749564051628 -0.0038684597238898277 0.0012571406550705433 0.004724588245153427 0.0012715172488242388 -0.013422290794551373 -0.001476821955293417 0.006833692081272602 -8.604458998888731E-4 -0.0019529710989445448 -0.0014030690072104335 -0.011938889510929585 0.013908092863857746 0.012888145633041859 -0.006430820096284151 -0.01069379411637783 0.02179826982319355 -0.019455933943390846 -0.008073057979345322 -0.003350712824612856 -0.004135413095355034 0.0091659314930439 0.007708295714110136 -0.0019683747086673975 -0.0014215547125786543 0.005648243241012096 -0.0075392755679786205 0.005425757262855768 0.008811738342046738 -0.001968115335330367 -0.011414078995585442 0.007809908594936132 -0.0043380726128816605 0.011576991528272629 -0.008963390253484249 -0.00972658023238182
prosthetic 0.005274300463497639 0.0050666481256484985 -0.002287575975060463 -3.5861547803506255E-4 -0.007716774474829435 -0.003393051913008094 0.005343275144696236 -0.007013680879026651 -0.004721278324723244 0.004987054504454136 9.546246146783233E-4 -0.005447692703455687 4.667813773266971E-4 -0.004264533519744873 0.002347639761865139 0.005740690510720015 -0.0013001508777961135 -7.616335642524064E-5 -0.006969863548874855 -0.007438634056597948 -0.0031455298885703087 0.0035808647517114878 -0.0036145669873803854 -0.001602435833774507 -0.001421494409441948 -0.005466465372592211 0.0025308551266789436 -0.003004856640473008 -0.004194801207631826 0.00424375431612134 0.002565649338066578 -0.0012533600674942136 3.1068501994013786E-4 0.00497202156111598 0.0025077974423766136 -0.005327177699655294 0.0039352113381028175 0.0030316058546304703 -0.006775146350264549 -0.002723662881180644 -0.006462372839450836 -0.007733888924121857 -0.001301273936405778 -0.005678205285221338 -5.875907372683287E-4 0.002884986810386181 0.0019044600194320083 4.7188010648824275E-4 -0.004490233957767487 0.0014404496178030968 0.002034404780715704 -0.0018848193576559424 0.0035459052305668592 -0.007391155231744051 7.10538006387651E-5 0.006944551598280668 -3.3254874870181084E-4 0.002774151973426342 -0.004925023298710585 0.0010686415480449796 4.326100752223283E-4 9.518314618617296E-4 -0.005755526479333639 -0.008397262543439865 -7.771072559989989E-4 0.003085279604420066 0.00508409459143877 -0.0020315113943070173 -0.002400751691311598 -0.006054949946701527 0.004568813368678093 0.0019513261504471302 -4.3839990394189954E-4
sell 0.006983186583966017 -0.0032023184467107058 0.004850087221711874 0.002397053875029087 0.002528121694922447 0.004817969631403685 -0.004305931273847818 0.004391719587147236 -0.003979447763413191 -0.004265386611223221 -0.004716012626886368 0.004650549031794071 4.933121963404119E-4 -0.003921374678611755 0.006176224444061518 -0.004012756049633026 -0.0037796373944729567 0.0012772325426340103 -0.006053275428712368 -0.0030027679167687893 0.006447930354624987 -7.442518835887313E-4 0.0030382771510630846 0.006087730638682842 0.0056709484197199345 0.0011828797869384289 -0.006032601464539766 -9.236861951649189E-4 0.0038448739796876907 0.0014566956087946892 -5.708669195882976E-4 3.862656594719738E-4 -0.005372046958655119 -0.0055539570748806 -0.004304974805563688 -0.006443217396736145 0.004868925549089909 0.0016529082786291838 0.004814137704670429 -0.0071471636183559895 0.004414060618728399 0.0026953639462590218 -0.007330219727009535 0.005411386024206877 2.881110704038292E-4 -0.0035521325189620256 0.0031503080390393734 0.001499737030826509 -0.005572880618274212 0.0032086295541375875 0.0031575714237987995 0.0026504655834287405 -0.00536751002073288 0.00303100747987628 -0.008065957576036453 0.004952796269208193 -0.0031614177860319614 -0.005365016870200634 -1.5810856712050736E-4 0.004159071482717991 0.005957669112831354 -0.0016819058218970895 0.006414532195776701 0.0039949980564415455 -1.871381391538307E-4 0.005187202710658312 -0.0010831296676769853 -0.00615775678306818 5.439977394416928E-4 -0.0017823160160332918 -0.0048469193279743195 -0.001679685665294528 -0.00543293496593833
purchase -0.0014283553464338183 -0.0013939433265477419 0.0027042946312576532 -0.006437163800001144 -0.0036888716276735067 -0.006993892136961222 -0.0024954346008598804 -0.006676849443465471 0.0013986905105412006 0.00190917553845793 -0.004283328074961901 -0.007228334434330463 -0.0037371013313531876 0.00365677778609097 -0.0011255432618781924 -0.0021033096127212048 0.0036975080147385597 -0.006701614707708359 0.0041595930233597755 -0.002202160656452179 -0.006725986488163471 -0.003000283380970359 0.002175798173993826 0.001144207431934774 0.004857715684920549 0.002048627706244588 0.0056112101301550865 0.00426656985655427 -0.0040619042702019215 0.003378297435119748 -0.004334465600550175 -0.005710156634449959 -0.0034953507129102945 4.915572935715318E-4 -9.493485558778048E-4 0.0034828237257897854 0.0031054290011525154 -0.0038749135565012693 -0.006233608350157738 0.003639383940026164 0.0011922318954020739 0.0013109944993630052 -1.7109306645579636E-4 0.0034414175897836685 -0.0038268680218607187 0.0038100711535662413 0.004701138474047184 -0.003998103551566601 0.004127144813537598 -0.004292394034564495 -0.005630412604659796 -0.0052611748687922955 -2.094457158818841E-5 -0.0016926436219364405 -0.004336012993007898 -0.001081704394891858 0.0054804133251309395 -0.0058308932930231094 -0.0015125611098483205 2.704882062971592E-4 0.0018109377706423402 0.0032815609592944384 0.003451206022873521 -0.0013949170242995024 -0.004731125198304653 -0.0021844403818249702 -0.0034934841096401215 0.002108393469825387 0.0020578184630721807 -0.0012957090511918068 0.005216453690081835 -0.003452666336670518 -0.005894583649933338
menu 0.004939676728099585 -0.0031991219148039818 -0.0019219371024519205 0.001312503358349204 0.002509675920009613 0.001352185383439064 0.0035659056156873703 -0.0010721217840909958 0.0019367564236745238 -0.002513106679543853 -0.0016463196370750666 0.003416382474824786 0.0013096799375489354 -0.0029699429869651794 0.0028649303130805492 0.003959410358220339 0.0045442176051437855 0.0034061498008668423 0.003991477657109499 -0.003868675325065851 -0.004324347246438265 -0.004653805401176214 0.0012309782905504107 0.005220611579716206 7.949526770971715E-4 -0.0013140363153070211 -0.0028809562791138887 7.577321957796812E-5 0.003663640236482024 0.004717384930700064 -0.0023521871771663427 0.0027008485049009323 -0.004222641699016094 0.005059360060840845 0.004965802188962698 -0.0024571993853896856 -4.8126018373295665E-4 -2.8476541046984494E-4 -0.0027483527082949877 -0.004318791441619396 -7.969363941811025E-4 0.0012861137511208653 -0.005025389138609171 -0.0027131414972245693 0.0035010080318897963 4.93652987643145E-5 5.29497570823878E-4 6.656657205894589E-4 -0.00260351225733757 -0.0017082247650250793 -0.006945435423403978 0.004757752176374197 0.003440464846789837 0.0017988230101764202 -0.005737484898418188 -0.004527858458459377 -0.0027603553608059883 -0.0029121125116944313 0.006808343809098005 0.003616979345679283 -0.005395662039518356 -0.0067779310047626495 -0.0022289587650448084 -0.004188355058431625 0.0028766391333192587 0.0032616567332297564 -0.003924674354493618 -0.0020287514198571444 -0.004383263178169727 0.0025381427258253098 -0.005462396889925003 0.0012980879982933402 2.0704382041003555E-4
people 0.0058683655224740505 -0.004880071152001619 0.001882964395917952 -0.0012050545774400234 -0.003410123521462083 6.087044021114707E-4 0.006127798929810524 -0.0013346965424716473 0.0013667201856151223 0.0014404533430933952 -0.006800549570471048 0.001326900557614863 -0.004773759748786688 -0.006605091970413923 0.00588903808966279 0.003945003729313612 -0.002122884150594473 -0.003163391025736928 0.0020076946821063757 -0.0030006745364516973 0.006792738102376461 -0.0044680372811853886 -0.005168461706489325 -0.0017634487012401223 -0.003917417023330927 -0.005849550012499094 0.004226395860314369 -0.005342870019376278 0.0016318332636728883 0.006542144808918238 0.0036375015042722225 0.004069596529006958 -0.0035317682195454836 -0.0011796196922659874 7.692109793424606E-4 0.0017887023277580738 0.0024507951457053423 -0.00373084400780499 0.005568892695009708 0.0018263149540871382 1.8746145360637456E-4 0.004831511992961168 0.004523528274148703 0.0033062915317714214 -0.0055466145277023315 -0.005572635214775801 0.005283727776259184 -0.0017438180511817336 -0.002878416096791625 9.878600249066949E-4 -9.44744679145515E-4 -0.0026745230425149202 0.001859848853200674 -2.9245985206216574E-4 0.0033779661171138287 -0.002145343227311969 0.006163492798805237 -0.0030060382559895515 0.002132965484634042 9.54971183091402E-4 0.005939502269029617 -0.004336736164987087 0.003316389862447977 0.004170773550868034 0.0022106789983808994 0.005171077325940132 0.00664175022393465 -3.8923986721783876E-4 -0.0027947062626481056 0.0026678871363401413 0.006893191020935774 0.004685994237661362 0.004087242763489485
bye -0.005220193415880203 -0.0036608020309358835 -0.0022741961292922497 0.002312916563823819 4.6272066538222134E-4 -0.0016646761214360595 -0.004713486414402723 0.0016819507582113147 -5.605106707662344E-4 0.00260098185390234 -0.0018304125405848026 -0.005940224509686232 8.141504367813468E-4 1.7353688599541783E-4 -0.005972146522253752 0.005699263885617256 -0.006406444124877453 -0.00414735171943903 -8.314247825182974E-4 0.006332064978778362 -0.006290529854595661 -0.003833369817584753 -0.0031823867466300726 -0.0025411469396203756 -0.002941075712442398 0.006509833037853241 5.064247525297105E-4 -0.0034318557009100914 -0.005272644571959972 0.003109608544036746 -0.003513122210279107 0.003865318838506937 0.0017789994599297643 -0.005011136177927256 -0.0013629108434543014 0.004693797789514065 -0.0029667015187442303 4.482595977606252E-5 -0.0032219768036156893 5.305825616233051E-4 -0.006164375226944685 -0.005118485074490309 -2.272386191179976E-4 0.004928935784846544 -0.0062041073106229305 0.0010877088643610477 4.6680643572472036E-4 8.665461791679263E-4 -0.002764626406133175 -0.005630150903016329 0.0013518978375941515 0.0019157095812261105 -0.0062111057341098785 0.0018291563028469682 -0.004205874167382717 -0.003880753880366683 0.00575269665569067 -0.002373575698584318 -0.001267852378077805 0.0045512644574046135 6.449957436416298E-5 -0.0013555814512073994 0.001935330918058753 -0.00592073192819953 0.006400129292160273 0.003263338701799512 0.001750835799612105 -0.0010918027255684137 0.005238518118858337 -0.005260821897536516 -0.0023187545593827963 -0.0013116275658831 -0.001048331381753087
removed 6.744838901795447E-4 -0.00521887419745326 -0.0016064919764176011 -0.004477202892303467 -0.003919573500752449 0.0022565231192857027 0.0031505348160862923 0.002645399421453476 0.001996513456106186 -0.005150224547833204 -0.0012279179645702243 0.004773738328367472 -0.002177340677008033 -0.0032978428062051535 -0.002983072539791465 -0.0044264099560678005 -0.003928024787455797 0.003130456432700157 -0.003039570525288582 -0.005071753636002541 -0.003343123709782958 0.0017798603512346745 -0.002610226860269904 -0.002499757567420602 0.004947372246533632 5.49144169781357E-4 -4.0324669680558145E-4 0.005917706061154604 0.0031911563128232956 0.0018881171708926558 -8.092841017059982E-4 0.005712852347642183 0.005770447663962841 -0.0049919188022613525 0.005085609387606382 0.003206563415005803 0.0029166704043745995 -0.005265411455184221 -0.0066365948878228664 -4.0632914169691503E-4 0.0030600002501159906 0.006888421718031168 -5.264179781079292E-4 0.004748711362481117 -0.00186560966540128 -0.0035955088678747416 3.5108381416648626E-4 -0.005059261340647936 0.003142795991152525 -0.003808278124779463 0.002983909798786044 0.004345607943832874 -0.005935853347182274 -0.005567487794905901 -0.004675356205552816 0.003929867874830961 0.004767973907291889 -0.004838632419705391 4.151464090682566E-4 0.001104512601159513 0.0018667076947167516 -0.0012133910786360502 -0.005587148014456034 0.006563382223248482 0.005464001093059778 -0.0022575133480131626 0.003479958977550268 -0.0015117382863536477 -0.006402167957276106 -0.0027354303747415543 0.0029017978813499212 -0.003817250020802021 0.0020425107795745134
thank 0.005663157906383276 -0.003396420506760478 -0.0018894626991823316 4.349449009168893E-4 0.00544662494212389 -0.0015347963199019432 -0.005662989802658558 0.0052846139296889305 -0.003022744320333004 0.0053825597278773785 -0.005889079999178648 0.005603958386927843 -0.005185471381992102 0.003407158190384507 -0.0011263795895501971 0.005937362555414438 0.002454168861731887 0.005205881781876087 -0.0066888220608234406 -9.97104070847854E-5 0.006528773345053196 -0.005396148655563593 -7.85159703809768E-4 -0.0030114862602204084 0.005933407228440046 0.005231635179370642 -0.0026907071005553007 8.480973192490637E-4 -0.003653003601357341 -0.005451129749417305 0.003641160437837243 0.002195741981267929 -0.002311210846528411 0.0026145700830966234 0.0012921143788844347 0.0016175720375031233 -0.006687314715236425 -3.237058699596673E-4 -0.00283632124774158 -0.0035275595728307962 -0.002897938946262002 0.004585577175021172 -0.001144806039519608 0.005575661081820726 0.0020906892605125904 0.004252179060131311 0.0031418425496667624 0.0051008774898946285 -9.174890001304448E-4 0.0025839495938271284 7.156117353588343E-4 0.003966319374740124 0.0012352344347164035 0.00397851224988699 0.0066939108073711395 8.428202709183097E-4 -0.003080999478697777 -0.006572023034095764 0.0027711945585906506 0.005142115522176027 -0.006589019671082497 4.113136965315789E-4 0.00468798354268074 -0.0015113402623683214 -0.005120823625475168 0.001462880871258676 -0.0020602503791451454 -0.00609087897464633 -0.006616709288209677 0.003822479397058487 -0.004156289156526327 -0.0062714796513319016 -5.555152893066406E-4
information -0.005349230021238327 -7.176335202530026E-4 0.005117260385304689 -0.0022273478098213673 -0.0056663150899112225 0.0028912671841681004 -0.002568015595898032 -3.5165133886039257E-4 -0.00577546888962388 0.005969416815787554 -0.0054292925633490086 0.005413351580500603 -0.007107759825885296 0.002358043333515525 0.002119376789778471 8.190874359570444E-4 -0.0031965298112481833 0.004704870283603668 -0.00612027570605278 -0.0036371953319758177 -0.005752533674240112 6.2125752447173E-4 -0.0027800030075013638 -0.0010425046784803271 0.004404198378324509 -0.0026266532950103283 -0.004632590338587761 0.005812383722513914 -0.0038857802283018827 -2.7954703546129167E-4 -0.0024745611008256674 0.0064280033111572266 -6.570785772055387E-4 -0.0016303380252793431 0.0012202420039102435 -0.004376799799501896 -0.001483853324316442 0.00703195808455348 -6.408130866475403E-4 0.00281821028329432 -0.001182020059786737 -0.0019580537918955088 -0.006357470061630011 0.004063648637384176 -0.00369440671056509 -0.004124557599425316 -0.004523163195699453 -0.005249791778624058 0.005563922692090273 -0.005178735125809908 -0.004930790979415178 6.557581946253777E-4 -0.003891885047778487 -0.005070595536381006 0.0037236297503113747 0.003261863486841321 0.004976371303200722 -7.559814257547259E-4 -7.537538185715675E-4 -0.004296953324228525 0.004678600467741489 -0.0065684993751347065 -0.005171040538698435 0.004504792857915163 -0.003883304772898555 0.0020975631196051836 0.002599417930468917 0.006648843176662922 0.006599750369787216 -0.00473372545093298 -0.004012524150311947 -0.0012001132126897573 0.003791686613112688
mark -0.0021593605633825064 0.0016607069410383701 -0.0030922372825443745 -0.0028450998943299055 -0.0063676899299025536 -7.624884019605815E-4 -0.005739634390920401 -0.0024714849423617125 5.434610648080707E-4 -0.006388537120074034 0.0030375788919627666 -0.006319153122603893 0.0021635647863149643 -0.001227059867233038 -9.33873001486063E-4 -0.001611031824722886 -8.157368283718824E-4 -0.0017506505828350782 -6.334559875540435E-4 -0.0068451701663434505 0.0013280140701681376 9.303292608819902E-4 -0.005594976712018251 -0.007292431779205799 -0.003967513795942068 -0.004583604168146849 -0.0021224848460406065 3.9662772906012833E-4 -0.0013267190661281347 -0.003821712452918291 0.004464376252144575 0.003913029097020626 0.005079653114080429 3.015761321876198E-4 -0.0010220239637419581 0.0012921961024403572 -0.0042569818906486034 -8.362323278561234E-4 -0.0018892672378569841 0.0028196589555591345 -0.004673261661082506 -0.0045422823168337345 0.00156765291467309 0.0018497868441045284 -0.0019425080390647054 -0.00337538355961442 -0.003975169267505407 -0.005308892577886581 -0.00302830059081316 -0.003526532556861639 -0.006076844874769449 0.00783959124237299 0.00414174934849143 -4.0567087125964463E-4 0.005036254413425922 -0.005027418956160545 0.006308578886091709 0.0010573514737188816 -0.006783078890293837 0.005396844819188118 -0.00648565823212266 -0.0044302865862846375 -9.875891264528036E-4 -0.006547621916979551 -2.333005249965936E-4 -0.007185023743659258 9.006198379211128E-4 -2.9703008476644754E-4 -0.0018666902324184775 0.0020209411159157753 -0.006620205473154783 -6.066672503948212E-4 -0.0031404271721839905
