48 73 457
buy -0.003938488196581602 -0.004302801564335823 -0.004597679246217012 0.004729646258056164 -0.007129782810807228 -0.006793890614062548 0.001495829550549388 0.004777903668582439 -0.005217517260462046 5.403964896686375E-4 0.007468299940228462 0.0040491619147360325 0.00319650792516768 0.004321080632507801 -0.005814469885081053 -0.0025829069782048464 -0.006440441124141216 -0.003753470489755273 -0.001775563694536686 -0.0045072166249156 0.0021814932115375996 0.005820656195282936 -0.0034267765004187822 8.423322287853807E-5 0.0035811979323625565 0.002027158159762621 0.002507532015442848 -0.007697949651628733 -0.0032138307578861713 -0.0025110042188316584 -0.004571661353111267 0.0054896497167646885 -0.002010855358093977 -7.455769227817655E-4 0.0016466411761939526 0.002292253077030182 -0.0016048061661422253 1.3238220708444715E-4 -0.0049507226794958115 0.005929400213062763 -0.0017889398150146008 -0.007697874214500189 -0.002132399007678032 0.005696449428796768 0.005889128427952528 -0.006102357059717178 0.004403869155794382 -0.0019193480256944895 0.003643171861767769 -0.0036378938239067793 -0.002030576579272747 0.006540042348206043 -0.0034544700756669044 0.0011856071650981903 1.1706259829225019E-4 -0.0022397893480956554 0.00401433976367116 -0.0051799435168504715 1.9674721988849342E-4 0.004672287963330746 -0.006525065749883652 -0.001873064786195755 -0.0029097271617501974 -0.006171933840960264 7.017797324806452E-4 -0.0011708785314112902 0.005906401667743921 -5.403769318945706E-4 -0.0034218572545796633 -0.004132015164941549 0.005054505076259375 -5.730846314691007E-4 -8.599995635449886E-5
tell -0.0029626949690282345 -0.005397486966103315 -0.0066139004193246365 -5.672667175531387E-4 -0.0016921701608225703 -0.0012628025142475963 0.001227417727932334 -0.0039337375201284885 0.005251649301499128 -0.0030689688865095377 0.004771637264639139 0.0066641648299992085 7.7821034938097E-4 -0.0018353629857301712 -0.006679676007479429 0.005716776475310326 0.004166952800005674 0.003378288820385933 0.0028445047792047262 0.0036931701470166445 0.0015331620816141367 0.002475492190569639 0.004225288983434439 -0.0016437924932688475 -0.0048567019402980804 0.002982976147904992 0.0030675625894218683 0.0011834842152893543 -0.006637986749410629 5.584225873462856E-4 3.977665037382394E-4 -0.006058282218873501 -0.005034191999584436 0.006208340637385845 0.007028005551546812 -0.0033695835154503584 0.00357049354352057 -7.960930233821273E-4 -0.0063177598640322685 -0.006220183335244656 -8.33100697491318E-4 7.565104169771075E-4 8.793052984401584E-4 0.0061599756591022015 0.00252863229252398 0.00709505844861269 -0.003343495074659586 0.00434872368350625 -0.0032847332768142223 0.002230179961770773 -0.0026060957461595535 0.0045426106080412865 0.0030995009001344442 0.0053888424299657345 4.521272494457662E-4 0.0019000103930011392 0.002631434239447117 -0.0011313088471069932 -0.005376963410526514 -6.160855991765857E-4 0.005231572315096855 -2.1612539421766996E-4 0.004694217350333929 -0.006306084804236889 0.005274932365864515 0.004265305120497942 -0.0035618667025119066 -0.0023032648023217916 0.002003277651965618 0.0013065149541944265 0.0025908094830811024 -0.004429337568581104 -0.006423726212233305
available -0.003666497999802232 7.954809698276222E-4 -0.00535286869853735 0.0024153725244104862 0.004135941155254841 -0.0039061110001057386 -0.005160885863006115 9.488009382039309E-4 0.0033053611405193806 -0.00313771516084671 0.0051988172344863415 -0.0036123532336205244 0.002152916043996811 -0.001585175166837871 0.002499471651390195 0.0015644358936697245 -0.006055923644453287 2.4459962151013315E-4 -6.993608258198947E-5 0.0015243053203448653 0.0029765123035758734 -0.0031473184935748577 -0.002154983812943101 0.005567994900047779 -0.005927584134042263 0.005592563655227423 0.007446259260177612 0.0056732636876404285 8.6040492169559E-4 0.004783917684108019 -0.0010347466450184584 -0.001245721010491252 -0.003985151648521423 0.0032023151870816946 0.0010687087196856737 0.0018951361998915672 2.3025067639537156E-4 0.005291888955980539 0.0025097024627029896 2.659613674040884E-4 -0.00409008888527751 0.0059054940938949585 0.004610313102602959 0.004828258417546749 -0.0026112839113920927 0.0032998258247971535 0.001280810683965683 0.004198374226689339 -0.0038894072640687227 -0.0044974274933338165 -0.0078510707244277 -0.0017712052213028073 -0.004363751504570246 0.0031619726214557886 -3.9952172664925456E-4 0.001474122516810894 0.003029837738722563 0.002675452968105674 6.231617880985141E-4 -0.0037793205119669437 0.006019301246851683 -0.00595017010346055 -0.0071140774525702 0.003944833297282457 -0.0015463079325854778 -0.006404296960681677 -0.001197710633277893 -0.0030161926988512278 -0.007435392588376999 0.001205383101478219 -0.004627809394150972 0.003844448132440448 0.0020580170676112175
marki 0.0052803982980549335 -0.0021655557211488485 0.006534069310873747 -0.0038912121672183275 -0.005076075904071331 -0.004515804350376129 -0.005788764916360378 0.0030180139001458883 -0.0014639627188444138 0.005259760655462742 -0.0057140979915857315 -0.00552404997870326 -0.001732458476908505 1.1405783880036324E-4 -0.001593663590028882 -0.005336089059710503 -0.0026141877751797438 0.004432732705026865 -9.429766214452684E-4 -0.004495456349104643 -1.9972755399066955E-4 -0.0012001069262623787 0.0067572761327028275 -0.006169354543089867 9.666099795140326E-4 6.19639240539982E-6 -0.0010893726721405983 0.005000303965061903 0.0031795029062777758 0.00198354828171432 -0.003390200901776552 -7.922296645119786E-4 0.002920514205470681 4.002113710157573E-4 -0.003077991772443056 -0.0062721166759729385 6.801218260079622E-4 -0.004796384368091822 -2.871552133001387E-4 -8.633547113277018E-4 -0.0012779947137460113 0.0021402952261269093 1.5731308667454869E-4 0.004861405584961176 0.0014091802295297384 -0.005058601964265108 -0.006299128755927086 0.004667502827942371 -9.337466908618808E-4 0.004783381707966328 0.004720301367342472 0.0025408361107110977 -0.005410140845924616 -0.007141172885894775 0.00430746516212821 0.0029712237883359194 6.75770512316376E-4 0.006057200953364372 0.005646086763590574 7.541126251453534E-5 0.0035091133322566748 -0.0022487768437713385 -0.0036799435038119555 0.006426929030567408 -0.0019511677091941237 0.0055825370363891125 0.003614959539845586 -0.003762407461181283 -0.007059301249682903 0.0015864447923377156 7.483270019292831E-4 0.0022215871140360832 -0.0022692796774208546
rehabilitation 5.585522158071399E-4 -9.442116715945303E-4 0.0053093647584319115 0.00590519281104207 -0.003512445604428649 -5.399318761192262E-4 0.0018546502105891705 -0.009705032221972942 -0.003543446073308587 0.004330803174525499 0.00595106603577733 -0.006276300176978111 -0.010837618261575699 -0.004351793322712183 0.006538145709782839 0.004597586113959551 -0.009643050841987133 0.0039056804962456226 0.0022452925331890583 0.001206337008625269 5.02064183820039E-4 0.005274900235235691 -6.59158278722316E-4 -0.004478869028389454 0.0018836571834981441 0.0028496223967522383 0.007177951280027628 -0.0044418275356292725 -0.006085228640586138 0.00820730160921812 9.875948308035731E-6 0.002737594535574317 0.010025118477642536 0.0032576872035861015 0.008120468817651272 -3.054024709854275E-4 0.0026045397389680147 6.759806419722736E-4 0.004005336202681065 0.004425781778991222 0.0038980997633188963 -9.741527610458434E-4 0.007887626998126507 -0.007027303799986839 0.0030599895399063826 0.004688022658228874 4.0508987149223685E-4 0.0012869127094745636 0.006503184791654348 -8.164141327142715E-4 -0.0016768339555710554 0.006173501722514629 -0.001105326460674405 -0.001868484541773796 0.00812174379825592 -5.621263990178704E-4 0.005002978723496199 -0.007907724007964134 -0.00904940627515316 0.005253651179373264 -0.005171613302081823 -0.0015663155354559422 0.0018292900640517473 1.1582879960769787E-4 0.007874435745179653 -0.004355760756880045 0.004530681762844324 -0.0033487537875771523 -0.0010943555971607566 0.004459248390048742 -0.008947258815169334 0.0030500406865030527 0.0024165955837816
solution 0.01692979782819748 0.0020000189542770386 0.004996312782168388 0.006167152430862188 0.014968492090702057 1.1778523185057566E-4 0.00977358315140009 0.010259396396577358 -0.003864877624437213 -0.0011196350678801537 -0.003273722715675831 -0.004817064851522446 0.016699153929948807 -0.016404831781983376 -0.0018525333143770695 -0.010592108592391014 0.013332915492355824 0.0019247872987762094 0.00579865463078022 0.005355001427233219 -0.0022177950013428926 0.005546994507312775 -0.017867768183350563 -0.0018675463506951928 -0.004902924410998821 -0.005310125648975372 -0.014261433854699135 0.017959916964173317 0.005021466873586178 0.004936381243169308 -0.0044523365795612335 6.386684253811836E-4 -0.0024177052546292543 0.006420798599720001 -0.003560770768672228 5.169330979697406E-4 -0.009994329884648323 0.007214726414531469 -6.694016046822071E-4 -0.004352511838078499 -0.0029590362682938576 2.6811662246473134E-4 -0.006039180792868137 -9.168217075057328E-4 0.005116831976920366 -0.001908771344460547 6.056001293472946E-4 -2.969785709865391E-4 -1.039532435243018E-4 0.013703936710953712 0.008741126395761967 -0.014000867493450642 -0.005642293952405453 0.018509630113840103 -0.021020330488681793 -0.001894763670861721 -0.008744313381612301 -0.004046064335852861 0.004853386431932449 0.006772616878151894 0.0026214667595922947 -0.006605192087590694 0.01014005672186613 -0.0068223741836845875 0.003740268060937524 0.007223665248602629 -0.012078878469765186 -2.5135610485449433E-4 0.003866648068651557 -0.004733208566904068 0.013416556641459465 -0.007431975565850735 -0.004910194780677557
handyman -0.006804424338042736 0.008249202743172646 0.0043033575639128685 -0.004688050597906113 -0.006187778897583485 0.0014855462359264493 -0.0057035475037992 -0.007559763267636299 0.002815814455971122 -0.006479845382273197 0.003602881683036685 0.004510699305683374 -0.0019925651140511036 0.0016853815177455544 -0.005641743075102568 -0.002230237005278468 3.8069349830038846E-4 -0.005969871301203966 -4.444309452082962E-4 -6.831985665485263E-4 0.0023883162066340446 -0.00659949379041791 0.005881996359676123 -0.004182655364274979 0.0025601154193282127 0.005213588941842318 0.007260948419570923 0.003205656772479415 0.006975332275032997 0.00657638069242239 0.0011754437582567334 -0.006337045691907406 0.005109485238790512 -0.006665557622909546 0.006447514519095421 8.95839068107307E-4 5.961835850030184E-4 5.679000169038773E-4 -0.005375540815293789 0.007953139021992683 -0.0010249735787510872 -0.004877587780356407 -1.2058293941663578E-4 -0.002256497973576188 0.006052688229829073 0.005705380346626043 -0.006290337070822716 -1.5740915841888636E-5 0.001469804672524333 0.002158835995942354 -3.323174314573407E-4 5.488465540111065E-4 0.006927168928086758 -0.0015639362391084433 0.006242772098630667 0.007094803266227245 0.0017987589817494154 0.0032799055334180593 0.00304016494192183 -0.0029477537609636784 -0.0027501126751303673 0.003418207634240389 9.329125168733299E-5 -0.006436250638216734 -9.955719579011202E-4 -0.006336336489766836 0.0038674669340252876 0.0046057309955358505 -0.003126599593088031 -0.00372430682182312 0.0026923767291009426 -0.006633365992456675 0.0010037071770057082
visual -0.005553155671805143 0.005091553088277578 -0.0013636514777317643 -0.005310242995619774 -0.0036141856107860804 -0.0039949263446033 0.005459968000650406 0.003212596755474806 -9.722333052195609E-4 0.005603134166449308 0.004104559309780598 0.0016594866756349802 0.0063059208914637566 0.0029882285743951797 -0.0032746978104114532 3.4592568408697844E-4 -0.005024610087275505 -1.3175071217119694E-5 2.0472453616093844E-4 -0.006681906990706921 -8.885196293704212E-4 -0.006044565234333277 0.005978039465844631 0.00434124656021595 0.0018571914406493306 -0.0059531014412641525 -0.004040226805955172 -0.0013305152533575892 -0.006762174889445305 6.910805241204798E-4 -0.006656659301370382 0.0025785809848457575 -0.0015062685124576092 2.1780365204904228E-4 -0.0036981815937906504 0.003439937252551317 0.0011194465914741158 0.0034431726671755314 0.0025459681637585163 0.0047416058368980885 -0.0017298880266025662 -1.9587684073485434E-4 -0.003105505369603634 0.004982044454663992 -0.004038591403514147 -5.283906939439476E-4 -0.0032578546088188887 7.527456618845463E-4 -0.001711369724944234 0.0014451920287683606 0.0028949445113539696 -0.0011920806718990207 -6.369287730194628E-4 0.004605783615261316 4.219105903757736E-5 0.0015206271782517433 -3.829754132311791E-4 -7.889653788879514E-4 0.002119950018823147 8.75112964422442E-5 -2.6085160789079964E-4 2.267730887979269E-4 0.0010516495676711202 0.006266599055379629 0.0053130812011659145 7.7574432361871E-4 -0.0036714435555040836 0.0034390019718557596 0.005363441538065672 -0.006311480887234211 0.0025374970864504576 0.005272074602544308 7.01744225807488E-4
exo 5.680191679857671E-4 0.007138754706829786 -0.002503408817574382 0.004427841864526272 -0.002017065417021513 0.004869307391345501 -0.002920223167166114 0.005739953834563494 -0.006214882247149944 -0.0012698095524683595 0.001576259732246399 -6.351558840833604E-4 0.004433610942214727 0.0026366079691797495 -0.004875516518950462 0.0025345103349536657 -0.006980926729738712 0.004269819241017103 0.00631324015557766 6.729954620823264E-4 0.004513515625149012 -0.0050813863053917885 -0.004265096969902515 -0.004292275290936232 0.0010038807522505522 0.0018888232298195362 0.006736005190759897 0.0047551956959068775 -0.0036496552638709545 -0.0036341040395200253 0.00545708229765296 0.004200121387839317 3.261213132645935E-4 0.003942706622183323 -0.0059074461460113525 0.006914404686540365 -0.0020010091830044985 -0.005256458185613155 0.0014091874472796917 0.006569195073097944 0.004046561662107706 -0.003457189304754138 0.006236006040126085 -0.004933696240186691 -0.0037989276461303234 -0.0034844663459807634 0.005750605370849371 0.0045050824992358685 -2.6240781880915165E-4 -0.00547364354133606 0.004722862038761377 1.454781595384702E-4 0.0014971686759963632 -0.0059319669380784035 0.002332547679543495 0.0027922706212848425 -0.005339143332093954 0.00490364758297801 0.004649213515222073 0.0017456873320043087 -0.004587042145431042 -0.001274865702725947 -0.006928057875484228 0.004019494634121656 0.0020331419073045254 -0.005474358331412077 -0.00211758422665298 -0.004066052846610546 -0.0010385827627032995 0.003955041989684105 -1.6960978973656893E-4 0.0013928486732766032 0.004885687492787838
info -3.8537185173481703E-4 0.006160704884678125 -0.0045816414058208466 -0.006400109734386206 -0.007187284529209137 0.002542490139603615 0.0033868825994431973 0.0016755927354097366 0.001371003221720457 -0.0016360748559236526 -0.005749001633375883 0.006940462626516819 -0.00484154187142849 0.005943703465163708 3.542444610502571E-4 0.007556608412414789 -0.006001712754368782 -2.2287786123342812E-4 -1.919229980558157E-4 -0.006108080968260765 0.004487274214625359 6.434784882003441E-5 6.590923294425011E-5 -0.002980003599077463 -0.0039269933477044106 6.293327314779162E-4 -0.00594140263274312 -0.006639656610786915 0.0044501726515591145 -0.0020965225994586945 -0.003830960253253579 -5.990404170006514E-4 -7.112433086149395E-4 0.0038346059154719114 -0.002101915655657649 0.005432595498859882 0.007116323336958885 0.006696266587823629 -0.002661772770807147 0.004636096768081188 6.352498894557357E-5 0.0012949233641847968 -0.001928157638758421 0.001863895682618022 -0.0012212974252179265 0.006927591748535633 0.0063560656271874905 -0.004788415040820837 -0.0037025678902864456 -0.0016306380275636911 -0.005211833398789167 0.004572841338813305 -0.006313276942819357 -0.0016050218837335706 6.056608981452882E-6 0.0038118837401270866 0.005926888436079025 0.00608481140807271 -0.004472687840461731 -0.00224479241296649 -0.00661782780662179 0.0010431783739477396 -0.006039123982191086 0.0026696892455220222 -0.0038094441406428814 -0.006566289346665144 0.002585490234196186 0.00450133066624403 0.0018163630738854408 0.005388315767049789 -0.007753427606076002 0.007221975829452276 -0.003507697954773903
ii 3.2607262255623937E-4 0.0036370784509927034 -0.0012223591329529881 0.005055553745478392 8.91477451659739E-4 -0.004216038156300783 -0.0026645404286682606 -0.004365233704447746 0.0033253312576562166 0.0011142565635964274 -0.005229914095252752 0.004301713779568672 -0.003946129698306322 0.00426994264125824 -4.883609362877905E-4 0.003586646867915988 -2.074744988931343E-4 -0.004870282020419836 -0.005872041918337345 -0.0038728779181838036 -0.0011829739669337869 0.004737752489745617 -0.003455627243965864 -0.0038595683872699738 0.0010169650195166469 0.006846090313047171 -2.8528452276077587E-6 -0.0010558052454143763 -0.0018532301764935255 8.651156676933169E-4 -0.006093093194067478 6.483904435299337E-4 -0.005400117952376604 0.004767903126776218 -0.005462696310132742 0.003649435704573989 0.0019599769730120897 -0.00402468116953969 -0.005806892644613981 0.0020616473630070686 -0.001565182930789888 0.0030924601014703512 -9.259935468435287E-4 -0.005711649544537067 0.005469117779284716 -4.278691776562482E-4 0.006009540520608425 6.978800520300865E-4 5.911662083235569E-5 0.0014288778183981776 0.0018922637682408094 -0.0017078371020033956 0.0013657392701134086 -0.006970220245420933 0.0031610431615263224 0.006487900856882334 0.005601533688604832 -0.003509683534502983 8.259618189185858E-4 -0.001509105204604566 -0.003034014254808426 0.004730634856969118 0.0053094192408025265 0.0021544001065194607 0.0010443428764119744 0.002621228573843837 0.004380537196993828 -0.004769846331328154 8.822541567496955E-4 0.0018959020962938666 0.004252925049513578 8.448004373349249E-4 -0.005305010825395584
markii 0.005347059108316898 -0.005225207656621933 -0.0020954313222318888 8.51598393637687E-4 8.450676687061787E-4 -0.002913331612944603 -0.006339212879538536 8.367301197722554E-4 -0.006582899019122124 -0.0047239381819963455 0.005429420154541731 -0.0034224390983581543 -0.002133525675162673 -0.006570094730705023 -6.246910779736936E-4 -0.003152156015858054 0.003013604087755084 0.004002653062343597 -3.5680748987942934E-4 0.002374776639044285 0.002762622432783246 0.006278994493186474 -0.004899805411696434 -0.006393435876816511 -0.0022634922061115503 0.006621216889470816 0.004602920729666948 -0.004480054602026939 0.003426862182095647 0.004824591800570488 -0.0018284311518073082 -6.143857899587601E-5 0.003095737425610423 -3.554845752660185E-4 9.227942791767418E-4 -0.0036830164026468992 -5.496477242559195E-4 -0.0028735355008393526 -0.00234522414393723 -0.001111776102334261 -0.003045544493943453 0.005929895211011171 0.00558490352705121 -0.002244755392894149 0.004518942441791296 -0.00237466674298048 -0.003741747699677944 -0.006219457369297743 0.002134026028215885 -7.396379369311035E-4 0.002939655678346753 0.003073083935305476 0.0035135105717927217 0.001214384799823165 0.0024219618644565344 -2.2906596132088453E-4 -0.004546154290437698 -0.006483159027993679 8.595222607254982E-4 -0.0011981690768152475 -0.0038995405193418264 -6.538280285894871E-4 -0.004445978906005621 -0.0066457935608923435 0.0021669366396963596 0.0037651776801794767 -0.0015421041753143072 0.0033602977637201548 0.005518368910998106 0.0014383533271029592 -8.597759297117591E-4 -0.005316752474755049 -0.006558491848409176
give -6.899409927427769E-4 0.007257555611431599 -4.899954656139016E-4 -7.18825904186815E-4 -0.0034465594217181206 0.006457646377384663 -0.006899725180119276 -0.0038014487363398075 0.003994284197688103 -0.005421600770205259 0.006896457634866238 2.845139824785292E-4 -0.006143804173916578 0.005827596411108971 -0.006231832318007946 -0.0015767482109367847 0.003983124624937773 -0.005005854647606611 0.001781351282261312 -0.006509792525321245 -0.006804792210459709 0.0012254469329491258 -0.002093834802508354 0.003765988629311323 0.003381316550076008 -0.0015620449557900429 0.003197029698640108 -0.0030255743768066168 0.004691348411142826 0.0010422959458082914 -0.0028331619687378407 0.006544218398630619 -0.002207974437624216 9.60480363573879E-4 -0.005148650147020817 -0.004690384492278099 -0.006102368701249361 0.0028409205842763186 -0.0037434797268360853 0.0016860623145475984 0.002287590177729726 -0.005098175257444382 -0.0030092326924204826 -0.006055448669940233 0.00709295691922307 0.0038409291300922632 3.060425806324929E-4 -0.00689552491530776 0.006190785672515631 0.0038541737012565136 -0.006142559461295605 0.008115402422845364 -1.2091280950699002E-5 -1.714564859867096E-5 0.004386075306683779 -0.0053232884965837 -0.0034254654310643673 -0.005676441825926304 0.0024780624080449343 -0.0021846320014446974 -0.007840446196496487 0.0022537619806826115 4.836415755562484E-4 -0.003443092107772827 -0.0011399590875953436 6.008385680615902E-4 0.004529020749032497 6.153282010927796E-4 0.0016353814862668514 0.0028064558282494545 -0.007040246389806271 -0.001883522025309503 -2.2617075592279434E-4
need 0.0050160582177340984 0.00219950289465487 -0.003783280961215496 -0.005619844421744347 -0.005424873903393745 -0.0033760268706828356 -0.0016872367123141885 -5.621070158667862E-4 0.005236925091594458 -0.0017509012250229716 -6.88873406033963E-4 -0.0018005663296207786 -0.006088963709771633 0.00163745298050344 -0.0024102760944515467 -8.368829148821533E-4 -0.0022421707399189472 0.0053827702067792416 0.006396390963345766 -0.005746358074247837 -0.003413562662899494 0.0061889877542853355 -0.001889601699076593 -0.006137588992714882 -1.8668414850253612E-4 -0.0020226254127919674 0.0038931723684072495 -0.0018304430413991213 0.0026815449818968773 -0.006376194301992655 -0.0054039000533521175 0.0031330022029578686 -0.006530741695314646 -0.0024653335567563772 0.0025898481253534555 -0.006422940641641617 -0.0046803951263427734 0.003508575726300478 -0.0047292327508330345 -0.006103746592998505 -0.004903475753962994 -0.004833844490349293 -0.005580746568739414 -9.435435058549047E-4 0.004768039099872112 0.004954737611114979 0.004186821635812521 0.006732260808348656 0.005438520107418299 -0.0010112443706020713 -1.2007017357973382E-4 0.004617908503860235 0.005621165502816439 -0.0012378679821267724 6.094112759456038E-4 0.0034006109926849604 0.0048430319875478745 0.00589514896273613 -0.002568470314145088 -0.00467672711238265 -0.0063477312214672565 -8.971914066933095E-4 -0.0019592726603150368 0.005557958036661148 -0.006403511855751276 0.00432042358443141 -0.0018959746230393648 3.690480371005833E-4 0.0026892642490565777 0.005263451486825943 0.004794004838913679 -0.005235439632087946 -3.685041447170079E-4
like -0.004143193364143372 0.004943071864545345 -0.004066654480993748 -0.002287426497787237 -0.005689946468919516 -0.00702670868486166 -0.0016667915042489767 0.002844052156433463 3.0591210816055536E-4 0.0022883028723299503 0.005665425211191177 -7.505975663661957E-4 -0.002383376471698284 0.00771793257445097 0.0028587852139025927 0.0040440806187689304 -0.0020743447821587324 0.0054335989989340305 -0.003469782182946801 -0.0012275902554392815 -9.727933211252093E-4 0.006825299467891455 -7.0257669904094655E-6 0.0013300753198564053 -0.0031497336458414793 -2.979815180879086E-4 -0.0017161403084173799 -0.0031299006659537554 -0.00651948107406497 -0.006096979137510061 -0.002478510607033968 -0.002972868038341403 0.0012951490934938192 -0.0031773268710821867 -0.004048677161335945 0.0013590105809271336 -0.005883826408535242 -0.0018240574281662703 0.0037420436274260283 0.0015947562642395496 0.003451536176726222 0.004055970348417759 0.007583804428577423 0.00546529283747077 0.0018151046242564917 0.0022864239290356636 0.0034103156067430973 -0.00662338687106967 0.005016131326556206 0.005452019162476063 -0.0022905790247023106 0.008572249673306942 -4.90330159664154E-4 -0.004220269620418549 -0.001617646892555058 -0.002035637851804495 0.00531904399394989 -7.144564297050238E-4 -0.00849755946546793 -0.004652554634958506 0.0032386055681854486 0.0016973695019260049 -0.007945061661303043 0.005773895885795355 0.007930115796625614 -0.006508753634989262 0.004254971165210009 0.005675457417964935 -0.007625788915902376 0.0035762840416282415 0.0027088604401797056 0.0018235143506899476 0.0037696126382797956
work -0.0037008768413215876 -0.0030207722447812557 -0.003020270960405469 -0.0013414458371698856 9.568192763254046E-4 -0.005271496716886759 -0.0013478451874107122 -6.302623660303652E-6 0.0016394653357565403 -8.5309031419456E-4 -0.0019846505019813776 -0.0029067632276564837 -0.00417235167697072 0.006143572740256786 -0.0039335573092103004 -0.004548633936792612 -0.002673827111721039 0.0014470415189862251 -4.650316259358078E-5 -8.178119896911085E-4 6.304435082711279E-4 -0.004697349388152361 0.005347445607185364 0.0011665401980280876 5.592601373791695E-4 0.0033861377742141485 0.004491548519581556 -0.0031508784741163254 0.006112040486186743 0.002954952884465456 -0.005867545958608389 7.59855262003839E-4 -0.006118753459304571 0.00114079297054559 0.0059897382743656635 -0.004457055125385523 -4.6472379472106695E-4 0.0035493073519319296 -8.251430699601769E-4 -0.0032716079149395227 -0.00585324177518487 0.0020993659272789955 -0.003988055977970362 0.003664376912638545 -3.1996777397580445E-4 -0.002645110711455345 8.930354961194098E-4 -6.945302593521774E-4 0.0017353866714984179 0.005224436521530151 0.004438095260411501 0.00132935238070786 0.00582779198884964 -0.003810739843174815 0.006594392005354166 -0.0038856782484799623 -0.0031931463163346052 -0.006254204083234072 0.0028452929109334946 -0.004369910340756178 -0.006844484247267246 8.561041322536767E-4 0.0016515975585207343 -2.6354435249231756E-4 -0.0012278436915948987 -0.0048370566219091415 -7.192361517809331E-4 -0.0016863865312188864 0.0019824975170195103 0.005452816840261221 -0.0063544693402945995 0.005782728549093008 -0.001953654922544956
nothing 4.063689266331494E-5 -0.004287481773644686 -0.0047489553689956665 -0.005930276587605476 -0.004719449672847986 -0.0034266069997102022 -0.006390489172190428 0.0016872473061084747 -0.0019829494412988424 -0.004544649738818407 0.005945935845375061 3.7062668707221746E-4 0.003685134695842862 0.004724869970232248 0.0014803415397182107 -0.0024561374448239803 -0.0029818215407431126 -7.256579119712114E-4 -0.002759075490757823 -0.0023887918796390295 -0.0026180846616625786 -0.005948321428149939 -0.006532078143209219 0.001432342454791069 0.002277462976053357 -0.005638629198074341 -0.001364284660667181 -0.005310149397701025 0.003997596446424723 -0.006333812605589628 3.9003088022582233E-4 0.0023437365889549255 -0.0036123900208622217 0.00119481619913131 -0.006155194249004126 -0.0025054998695850372 0.006677669007331133 -0.002749091712757945 1.1933152563869953E-4 -0.00405878247693181 0.0022886681836098433 -0.0022721444256603718 -0.0060276249423623085 -0.004610365256667137 0.003955493681132793 0.005336039699614048 -0.004151307512074709 0.003019412513822317 0.004258536268025637 -0.004617101512849331 -0.004589703865349293 -0.005240908823907375 0.001559613854624331 0.006729684304445982 0.004046970512717962 -0.002618483267724514 -0.0028547889087349176 -0.004855730105191469 -0.004900210537016392 0.002594941994175315 -0.005281915422528982 0.0022328600753098726 -0.0029401544015854597 -0.002371694426983595 -8.39663262013346E-5 -0.0011469317832961679 -0.0021881272550672293 0.005027250852435827 1.37164635816589E-4 -3.255147603340447E-4 0.006031157914549112 0.0036806275602430105 0.0060771009884774685
paralysis 0.002847626805305481 0.001875792513601482 1.374260609736666E-4 -0.0035835246089845896 8.408671419601887E-5 0.001425350783392787 0.005163117777556181 -0.006649964954704046 -0.0032779474277049303 0.00626659719273448 0.00516660138964653 0.0068069277331233025 -0.005668457131832838 -0.002159371040761471 -0.00576580036431551 -0.0013266840251162648 0.0015202182112261653 0.0020129727199673653 -0.0021041647996753454 0.001016631256788969 3.803292929660529E-4 0.006076378747820854 0.0038492537569254637 -0.005993177182972431 4.669768095482141E-4 -0.007061411626636982 -0.0048293545842170715 7.46440258808434E-4 -0.004334895871579647 0.0051009515300393105 0.0016715283272787929 0.006239340640604496 -0.006071728188544512 -0.0035242789890617132 0.005834348499774933 -0.006283820141106844 3.6310424911789596E-4 -7.939815986901522E-4 0.0025088575202971697 0.006578273139894009 -0.0022204662673175335 -0.0014992904616519809 -0.0035801297053694725 0.005782915744930506 0.0033252264838665724 0.0017719491152092814 -0.002835012273862958 0.004064364358782768 0.0037406051997095346 0.006460686679929495 -0.006152646150439978 0.002556453924626112 -0.0012623310321941972 -0.004733714275062084 -0.006135112605988979 -0.004146914929151535 0.004450242500752211 -0.004806920886039734 -6.48886663839221E-4 -0.0010909035336226225 -0.0015681837685406208 -0.003184712491929531 -0.002976866438984871 -7.256502867676318E-4 0.0024421713314950466 -0.00523202121257782 0.004025457426905632 0.005393314175307751 0.0030784320551902056 -0.003847789950668812 0.0016503428341820836 -8.116217941278592E-5 -0.006144361570477486
list 0.0018298582872375846 -0.0014051325852051377 -8.051099721342325E-4 -0.005905068013817072 -0.0021675475873053074 0.006107840687036514 -0.002783582080155611 -0.005482661072164774 0.007171946112066507 0.003685989184305072 0.004281842615455389 -0.0045134988613426685 -0.005540722981095314 0.009443171322345734 -0.0036816170904785395 0.002510807244107127 -0.00591604970395565 9.625802049413323E-4 0.003768224734812975 0.005501413252204657 -0.0060688769444823265 3.8238056004047394E-4 0.0014768862165510654 -0.0030900852289050817 -0.0064269849099218845 -1.8953729886561632E-4 -0.0045279525220394135 -0.003540593897923827 -0.002408944070339203 0.004383467137813568 0.004627197049558163 0.0039032944478094578 -0.0016495282761752605 -0.006525958888232708 0.0023845769464969635 -0.006191170308738947 0.002704363316297531 -0.0017154710367321968 -0.0069890329614281654 -0.004056078381836414 -0.0046614292077720165 -0.0030297667253762484 0.0029315929859876633 -0.0048332205042243 0.006843650713562965 0.006929290015250444 0.004522254690527916 0.006176261696964502 1.9785849144682288E-4 -0.007757877930998802 -0.003353291191160679 -0.0012327880831435323 -0.004134250804781914 -0.0023201447911560535 -0.0018028973136097193 0.005240113008767366 0.006655275821685791 -0.004608286079019308 -0.004788682330399752 -0.0048380205407738686 -0.003270945744588971 0.0043685780838131905 -0.0050633796490728855 -0.006854895036667585 0.0041609569452703 -0.003909674473106861 0.0020492246840149164 -0.0035668539348989725 -0.005226468667387962 0.004100283142179251 -0.006516307592391968 -0.004191897809505463 0.0021972209215164185
catalogue 0.010005369782447815 -0.005009045824408531 0.00404733931645751 5.414867773652077E-4 0.00380255957134068 -0.0036123113241046667 0.008809851482510567 0.004957910627126694 -0.0022154494654387236 -0.004836077801883221 -0.0058688027784228325 0.007204607129096985 0.004683534614741802 -0.005838906858116388 0.006454792805016041 0.0036380053497850895 -0.003775798249989748 0.0073427376337349415 -0.004143205005675554 0.0014601405709981918 -0.002665148349478841 -0.006673783529549837 0.0032337582670152187 -0.0035245814360678196 -0.0056731379590928555 -0.0046257134526968 -0.008827179670333862 0.008815488778054714 0.004431163892149925 -9.145192452706397E-4 -1.5202265058178455E-4 0.0018234697636216879 -0.007132392376661301 2.193330874433741E-4 -0.0071432520635426044 -0.005313795059919357 0.003867873689159751 5.62347995582968E-4 -0.005501721054315567 1.1606965563260019E-4 -0.0027827934827655554 1.684938179096207E-4 -0.0014380782376974821 -3.9894526707939804E-4 -0.005408373195677996 0.002461325842887163 -4.5377033529803157E-4 0.004214037675410509 -0.009040467441082 0.0029269217047840357 0.0031065207440406084 0.0019953709561377764 -0.002229150617495179 0.008151493035256863 -0.009877151809632778 0.0030434965156018734 -3.8428627885878086E-4 0.0019961553625762463 0.009249371476471424 -0.001962102483958006 2.313296718057245E-4 0.0032433760352432728 0.0014863362303003669 0.008441770449280739 0.0028391454834491014 0.008541958406567574 -0.0018372500780969858 -3.9113187813200057E-4 0.003530048066750169 0.0017492533661425114 0.002002354944124818 -0.0022614537738263607 -0.004767680075019598
prosthesis 0.006831148639321327 0.006211119703948498 -0.00680471071973443 -6.097411969676614E-4 -0.0027539581060409546 -4.6039168955758214E-4 0.002435453236103058 0.004967543296515942 0.0046887765638530254 0.0025056092999875546 -0.006342217326164246 -0.0055608563125133514 0.002044554566964507 -0.006112037226557732 -0.00472728256136179 -0.0030377341900020838 0.003070494858548045 -9.719563531689346E-4 -0.00426912447437644 -0.005901512689888477 0.00643519451841712 -7.900887867435813E-4 -0.00649341382086277 -0.0028889973182231188 -0.007163494359701872 -0.0071500129997730255 0.00239086477085948 0.0011060226242989302 0.001604683930054307 -0.005581506062299013 -0.001963977236300707 0.006008809432387352 -3.801658167503774E-4 -0.00465542683377862 -0.0060775140300393105 0.0021531220991164446 -0.005600135773420334 -9.815862867981195E-4 0.002996277529746294 -1.295581751037389E-4 -0.004528816789388657 0.0035866342950612307 -0.006758242379873991 0.002273732330650091 -0.004138110671192408 0.004649898037314415 -0.002711275825276971 0.003474297933280468 2.5268315221183E-4 0.003022138960659504 -0.004912382923066616 -0.006027289666235447 0.0023113556671887636 0.0076489741913974285 0.002629941562190652 -0.0016724927118048072 -0.00594332255423069 -0.005978509318083525 -0.001608503283932805 -0.00552179291844368 -3.304734127596021E-5 -0.004642030689865351 3.068345249630511E-4 9.713820181787014E-4 -0.004507564008235931 -0.00330413063056767 -0.004579421132802963 0.0027326163835823536 -0.0060832444578409195 0.004715597257018089 0.004612197633832693 -0.004269850440323353 -0.00225641205906868
demonstration 3.1468228553421795E-4 3.9256049785763025E-4 0.003908188082277775 -0.006239193491637707 9.065825724974275E-4 0.0051453448832035065 0.0016966366674751043 -0.006766964681446552 0.003405278315767646 4.011797718703747E-4 -0.0012744084233418107 -8.746067178435624E-4 0.0017976535018533468 -0.0035588520113378763 -0.0021509702783077955 6.49128807708621E-4 0.005634122993797064 3.7505840737139806E-5 6.697491044178605E-4 -0.004822572227567434 -0.002994793700054288 0.0020995400846004486 0.0042518749833106995 -0.004853488877415657 0.001673415768891573 0.0015226720133796334 -0.0043517425656318665 -0.004231476224958897 -0.003285107435658574 -0.005753146484494209 -0.004847999662160873 0.0037723062559962273 -0.0024774379562586546 -0.006735767237842083 0.001434955047443509 -0.002325749257579446 -0.004063268657773733 -0.00525166280567646 -0.005456354469060898 0.0039808256551623344 0.004756120499223471 -0.006293540820479393 -3.373149229446426E-5 -0.0021447623148560524 0.006353919394314289 -0.001961164642125368 -0.0018169975373893976 -2.470510662533343E-4 -0.001802124548703432 0.004002456087619066 0.00375019246712327 0.005669316276907921 -0.002458740957081318 5.937814712524414E-4 -0.006075137294828892 0.005077374167740345 0.005013683810830116 0.004027056507766247 -0.0033822597470134497 8.351495489478111E-4 0.004161776043474674 -0.002597835846245289 -0.0011645460035651922 -0.006534942891448736 -0.0037401230074465275 0.006104211322963238 -0.004128158558160067 0.005038024857640266 0.002656426979228854 -0.0017998453695327044 -0.0012367176823318005 0.004905117210000753 -0.003465142333880067
detail -1.570948224980384E-4 0.004365470260381699 -0.0013149072183296084 -0.0028789069037884474 -0.0018948463257402182 0.0010508208069950342 0.0031473927665501833 -0.00733138108626008 0.0044835940934717655 0.0025444449856877327 0.005119021516293287 -0.007066288962960243 -0.003201219020411372 0.004346156492829323 -0.005657561589032412 0.002747896360233426 0.004182979930192232 0.0035798868630081415 -0.006161941681057215 -0.0032205425668507814 -0.0010693720541894436 3.8057772326283157E-4 6.315455539152026E-4 -0.002373454160988331 -2.403021790087223E-5 0.00426047807559371 4.904188681393862E-4 -0.0055952174589037895 0.0020126597955822945 0.0026600027922540903 0.006052414886653423 4.941014340147376E-4 -0.004328966606408358 0.0014706829097121954 0.0068481494672596455 -0.0023068597074598074 0.007081933785229921 0.005340563133358955 0.006299489177763462 0.0017780547495931387 0.003433989128097892 0.004319361411035061 -0.0048904577270150185 0.0012308139121159911 -0.005074146203696728 0.003840803634375334 1.3432110426947474E-4 0.004795073065906763 -0.0028298948891460896 -0.0011025459971278906 -0.0024040541611611843 0.00344693916849792 5.452901823446155E-4 -0.006904284469783306 -0.0025655999779701233 -0.0047986446879804134 0.0047678351402282715 0.0012943018227815628 -0.0011503580026328564 -0.002770996419712901 0.004905839450657368 0.0014994824305176735 -0.006783905904740095 -0.006149103865027428 0.0027757221832871437 0.0020523860584944487 -3.8084571133367717E-4 0.005817363038659096 -0.007438477594405413 6.982081104069948E-4 -0.004033115692436695 0.0051903920248150826 0.003249136032536626
amputation 0.007302111946046352 -0.0027478672564029694 -0.006031684577465057 0.008799067698419094 0.002856772392988205 0.00604670774191618 0.006625883746892214 -1.2922059977427125E-4 -0.0027040159329771996 -0.0015865789027884603 -0.0012557804584503174 0.0029826448298990726 -8.508387254551053E-4 0.00325238099321723 -0.0044052875600755215 0.0038798381574451923 -0.0014315183507278562 -0.003649191465228796 0.0012890365906059742 0.0020072897896170616 -0.002601048443466425 2.1373658091761172E-4 -6.578738102689385E-4 -0.005822387523949146 0.0016071749851107597 0.0011136132525280118 0.004060962237417698 -0.0037451297976076603 -0.007068005856126547 5.372108425945044E-4 0.00544784078374505 5.173335666768253E-4 0.0033072354272007942 -0.0027866929303854704 2.5791244115680456E-4 -0.007021908648312092 0.001221290323883295 0.0010797156719490886 0.0019146203994750977 0.0050812033005058765 0.0011443214025348425 -0.005019776523113251 -0.0037539852783083916 0.004284949041903019 0.0068123312667012215 -5.526642198674381E-4 -0.005062355659902096 9.51532507315278E-4 -0.00319506018422544 -0.005831744521856308 0.003861235221847892 -8.886606665328145E-4 -7.854595896787941E-4 2.1876412210986018E-4 0.004563689697533846 0.0038211550563573837 -0.0028258839156478643 -0.006195208057761192 -0.0022659345995634794 -0.0011362588265910745 0.006912190467119217 -0.006815286818891764 0.001135239377617836 -0.005929681938141584 -0.00642024353146553 -3.3879390684887767E-4 -3.506732464302331E-4 -0.007090415805578232 -0.004151941277086735 -0.0046311067417263985 5.380877992138267E-4 0.006592633668333292 -0.006840292364358902
cut -0.0030406233854591846 0.0012279788497835398 0.001999602885916829 -8.276477456092834E-4 0.0044138566590845585 -0.0049810511991381645 0.003752494929358363 0.00357722956687212 -0.0024220128543674946 -0.0013456108281388879 -0.002840983448550105 0.002344056498259306 0.0031112967990338802 0.0029600614216178656 -0.004439780954271555 0.005423886235803366 -0.00317884748801589 3.902337630279362E-4 0.006518016569316387 0.0059973630122840405 -9.388303151354194E-4 0.004083795472979546 3.9011979242786765E-4 -0.0034189673606306314 -0.005723472684621811 -0.0010357729624956846 -0.004645164590328932 -0.0016071917489171028 -0.004438701085746288 0.0015019150450825691 -0.0013350812951102853 0.0030329579021781683 -0.006917770020663738 -0.004654454533010721 0.001978265354409814 -0.0011910381726920605 -0.0029318449087440968 0.00480098370462656 -0.001970744924619794 0.004831366706639528 0.0016919587505981326 -0.002074197866022587 -0.0021770827006548643 0.0064192540012300014 0.0028140475042164326 -8.937783422879875E-4 -0.0016528702108189464 8.424311818089336E-5 0.004608492832630873 -7.575237541459501E-4 0.001219938974827528 0.006607802584767342 -0.004211336374282837 0.00463848328217864 -0.004722373094409704 -0.006723984144628048 -0.0042586601339280605 0.0036041666753590107 -0.0016951955622062087 -0.006812335457652807 -0.001482939114794135 -0.004088443238288164 0.005170442163944244 -0.005882761906832457 -9.679251816123724E-4 0.003585872007533908 -0.003964193165302277 7.488294504582882E-4 0.004257421940565109 -0.00534989545121789 -0.0037583562079817057 -0.006645286921411753 0.0017481670947745442
show -5.161901353858411E-4 0.0029385031666606665 0.00545645784586668 0.004519939422607422 -0.009940958581864834 5.7683973864186555E-5 -0.005529025103896856 -0.004005073569715023 0.008663061074912548 -3.884613688569516E-4 0.0023021153174340725 0.005885929334908724 -0.009372971951961517 0.005778767634183168 -0.0052329725585877895 0.0037151421420276165 -0.00658955005928874 -0.005704409442842007 -0.0032162629067897797 -0.005015403963625431 0.006239617709070444 -0.00323563814163208 0.006192338187247515 -0.007203401066362858 0.003582456149160862 0.006906332913786173 0.009155694395303726 -0.003069312544539571 0.005222249776124954 -0.005530573893338442 -0.0026720098685473204 -0.006205762270838022 0.009693881496787071 4.5378803042694926E-4 0.008930237963795662 -0.003788962261751294 0.00289603671990335 -0.0012069816002622247 -0.002122979611158371 -0.002751080086454749 -2.108666521962732E-4 0.0011218911968171597 0.0046391054056584835 -0.00713560963049531 -1.989448646781966E-4 0.007089164108037949 -0.0028736828826367855 -0.005872237030416727 0.0010460249613970518 -0.006204006262123585 -0.008778037503361702 6.211409345269203E-4 -0.0021452526561915874 -0.002987111220136285 0.007960177026689053 0.002750102896243334 -2.1810347971040756E-4 0.007004247047007084 -0.003891922999173403 0.005221972707659006 5.95784978941083E-4 0.005412583239376545 -0.003366868244484067 -0.007365234661847353 0.005662772338837385 -0.006643266882747412 6.591391284018755E-4 0.005658954847604036 -0.01092782523483038 0.0074465153738856316 0.0027313302271068096 0.0030909315682947636 0.002611058298498392
video -0.002949918620288372 0.0060614850372076035 3.844739403575659E-4 -2.8019031742587686E-4 -0.007160335313528776 -0.0011016466887667775 0.003299847012385726 -0.002807033946737647 -2.3647674242965877E-4 0.0011317010503262281 7.560899248346686E-4 -0.001041384064592421 0.004849713761359453 0.0029756862204521894 -0.0028394137043505907 6.461649318225682E-4 -0.0020905090495944023 -0.003157240804284811 -0.006745718885213137 0.004171937238425016 0.00500993337482214 -0.004811986815184355 -0.005178166087716818 0.0017593102529644966 0.0014779145130887628 -0.00522636016830802 0.003657569410279393 0.001817693468183279 -0.004394060466438532 0.00288493768312037 -0.0029118245001882315 3.842861333396286E-4 0.003875153372064233 0.006388534791767597 0.004353554919362068 -0.005354950670152903 -9.579916950315237E-4 -0.004326825961470604 -0.006098724901676178 -0.0038432979490607977 0.003483409993350506 0.003291462082415819 0.001829957589507103 -0.006278422195464373 0.005080316215753555 0.0024550899397581816 0.0024596641305834055 0.0015453211963176727 -0.005162584595382214 -7.18790921382606E-4 -0.0014603397576138377 0.005834626499563456 0.005797726102173328 -1.2807677558157593E-4 -5.944986478425562E-4 -0.005842310376465321 0.003949439153075218 -0.0035446747206151485 -0.005510141607373953 -0.0038255939725786448 0.005415919702500105 -0.006257202010601759 0.003178618149831891 0.005159246735274792 -0.005165070295333862 -0.004608668852597475 -9.684537653811276E-4 0.004217321053147316 -0.004536988213658333 -0.005124174524098635 -0.001572612440213561 0.004172886721789837 -0.004174152389168739
demo 0.006124737206846476 0.002289676107466221 -0.006069991271942854 0.00455585727468133 -0.001685785478912294 -0.0011573249939829111 -2.2574713511858135E-4 0.0012234474997967482 -0.0038294089026749134 -8.062486886046827E-4 0.001674300990998745 -0.005192155484110117 -0.003475404577329755 -0.005292132496833801 -0.0060064662247896194 -0.0013163394760340452 -0.001742930500768125 0.003057714318856597 0.003313919762149453 -2.2960384376347065E-4 -0.00391704635694623 0.004467876628041267 0.00656565185636282 -0.006045021582394838 -0.006410358473658562 -0.002377221127972007 -0.0023406860418617725 -1.756296114763245E-4 -0.002967002335935831 -8.420904050581157E-4 2.3997512471396476E-5 0.005007572006434202 -0.003601707750931382 -0.004966120235621929 0.004372987896203995 -0.0031262447591871023 -0.002279020845890045 8.953434298746288E-4 0.0013488797703757882 -0.004335731267929077 0.006381057668477297 -0.003302780445665121 6.403719307854772E-4 -0.0026498320512473583 -0.002430426422506571 -6.584826041944325E-4 -0.004524781368672848 -0.00517193041741848 -0.005703792441636324 -1.68869475601241E-4 0.006496806629002094 -2.3836910258978605E-5 -0.006039283704012632 -0.001362780574709177 0.0017962048295885324 -0.004102767910808325 -0.00639033829793334 0.004208636470139027 -0.006054623518139124 -0.0066872709430754185 -0.0036161451134830713 -0.005510799586772919 0.0048857638612389565 -0.005685217212885618 -0.0016803817125037313 -0.005896124057471752 0.0018612584099173546 6.827138131484389E-4 -0.0024976618587970734 -0.004112744238227606 0.005239367019385099 0.002651694230735302 -8.915315265767276E-4
can -0.0024713422171771526 4.821253241971135E-4 -0.0032277924474328756 -0.005211438983678818 0.0026387327816337347 -0.0011408872669562697 0.0014708765083923936 -0.004156004171818495 0.0015188540564849973 0.006225026678293943 8.003036491572857E-4 -0.001077480847015977 0.0042577628046274185 0.004757321905344725 0.0011164480820298195 4.8625151976011693E-4 -0.002816416323184967 -9.809316834434867E-4 -0.0024189415853470564 0.0014443777035921812 0.0011817208724096417 0.0050406623631715775 4.998602671548724E-4 -0.0043128179386258125 0.004252031445503235 0.00425779027864337 0.004120462108403444 -0.005675411317497492 1.921044458867982E-4 0.004460049793124199 0.006316880229860544 -0.005737654864788055 0.002837877720594406 0.005605862941592932 -0.003626333549618721 -0.006403699051588774 -2.786586410365999E-4 -0.006774593610316515 -0.0012819253606721759 -6.978888268349692E-5 0.001338719273917377 -0.0038534188643097878 0.002994784852489829 -0.004486557561904192 -0.006132444832473993 0.005798654165118933 0.002829301171004772 0.0038403067737817764 -0.0025800575967878103 -3.0012142815394327E-5 0.005686822347342968 -0.0032420100178569555 0.004354503937065601 -0.003937024623155594 0.005787818692624569 -0.003090012352913618 -0.003931035287678242 7.11582659278065E-4 0.003992483485490084 0.006885801907628775 0.004194396547973156 -7.393534760922194E-4 -0.003024211386218667 0.003785452339798212 -0.006182005163282156 -5.24157308973372E-4 -6.971287075430155E-5 0.0011798007180914283 7.088231504894793E-4 6.873966776765883E-5 0.0015963291516527534 -0.002655469812452793 0.00209424807690084
see 0.0034232584293931723 -0.0037007934879511595 3.342431737110019E-4 -2.840973684214987E-5 3.9186907815746963E-4 -0.0034713682252913713 -4.069220449309796E-5 -0.004264094401150942 0.005244334228336811 -0.006057241931557655 -0.0014597434783354402 0.005077961832284927 0.0037955744192004204 0.005429170560091734 6.709915469400585E-4 0.0016650138422846794 0.003271685913205147 4.7930044820532203E-4 0.004788223188370466 -0.001608551014214754 0.002510035177692771 -0.006176769733428955 -0.006224368698894978 -0.004343211650848389 -0.0038555061910301447 3.0581653118133545E-4 -0.0012873809318989515 6.061436724849045E-4 -0.006113665644079447 -0.005702656228095293 -0.005812325980514288 -0.002358565106987953 -0.006474052090197802 -0.0024024404119700193 0.0018219540361315012 -0.0067822313867509365 9.10963790374808E-5 -0.0014922588597983122 0.001989528303965926 0.0010695994133129716 -0.005556411575525999 -0.005070642102509737 -0.003449259325861931 0.00668078288435936 0.003087722696363926 -2.2283314319793135E-4 0.0011554782977327704 0.005422498099505901 -0.0026737202424556017 0.005297979339957237 0.006750050000846386 -0.006324275396764278 0.003992420621216297 0.0015992989065125585 0.0027362986002117395 -0.005018830765038729 -4.929117858409882E-4 0.002304461784660816 -0.005368947051465511 -0.0030673244036734104 -0.004903269931674004 -0.005030924454331398 0.002048936439678073 0.0011556007666513324 -0.0029614719096571207 -0.004875852260738611 0.004559454042464495 1.315980771323666E-4 -0.0037851883098483086 0.006136428564786911 -0.005248166620731354 -0.0023196616675704718 -0.003896549576893449
get -0.0018123005283996463 0.0018150382675230503 0.002156400354579091 3.5191315691918135E-4 -0.003276738803833723 -4.2954442324116826E-4 -4.795253335032612E-4 -0.006662321276962757 -6.132809212431312E-4 0.0015224519884213805 -0.0024515758268535137 7.06147460732609E-4 -0.0067513445392251015 -0.0035884876269847155 0.00536136282607913 0.0013217396335676312 -0.0029286497738212347 -3.760639810934663E-4 0.006513140629976988 9.503841283731163E-4 -0.0019451782573014498 0.004026861861348152 0.005067508202046156 0.003369510406628251 0.007107889745384455 -0.004520821385085583 -0.0015491509111598134 7.119959336705506E-4 0.0028829295188188553 -9.305226849392056E-4 -0.003796142293140292 0.006648399401456118 0.004019245970994234 -0.004900291096419096 0.0027763843536376953 0.006515931338071823 -0.0035941109526902437 -0.005498914048075676 -7.914159214124084E-4 0.006839362904429436 -0.003103430848568678 -4.973508766852319E-4 0.006854921113699675 2.184830082114786E-4 -0.0025017268490046263 -0.0030579606536775827 0.0020889155566692352 -0.004933759570121765 -0.004651350900530815 -0.005404543597251177 0.003716589417308569 0.0011048022424802184 0.005327937193214893 -0.007143282797187567 0.005311916582286358 -0.005695111118257046 -3.0070357024669647E-4 -2.3245015472639352E-4 0.004556930158287287 -0.0026534965727478266 0.004437015391886234 -0.002461469266563654 0.002782754832878709 -4.755342670250684E-4 -0.006456637289375067 0.006013734731823206 0.0031383109744638205 0.0019575783517211676 0.006160293705761433 0.004241250455379486 -0.006349856965243816 -0.006038961000740528 0.004254020284861326
muscle 0.005909005645662546 -0.00475403992459178 -0.0027185301296412945 -0.0026709334924817085 9.431319776922464E-4 0.004871928598731756 0.006160966586321592 0.006393952760845423 -0.0034968520049005747 -0.001649281708523631 -0.002160901902243495 0.005807323381304741 -8.442314574494958E-4 -0.007987922057509422 -0.0011139677371829748 -0.0012162477942183614 -0.0033822297118604183 -0.00661806995049119 0.0019304192392155528 -0.0021588285453617573 -0.0017190129728987813 -0.006845820229500532 8.199451258406043E-4 2.0826930995099247E-4 -0.007207242306321859 -0.006154462229460478 -0.00190159329213202 -0.003923753276467323 -0.005185306537896395 -0.004518228117376566 -0.006927678361535072 0.0035461196675896645 -0.007731515448540449 -0.0039020755793899298 -0.0033868018072098494 0.0034320885315537453 -0.006958528887480497 0.005961714778095484 -1.988820149563253E-4 0.0011151473736390471 0.0019796176347881556 0.007326333783566952 -0.006135690491646528 -0.0020031961612403393 0.0042521338909864426 -0.006145200226455927 -0.0015244302339851856 0.0014621327864006162 -0.005066117737442255 0.007570772431790829 0.007068517617881298 -0.007201222702860832 0.0013466252712532878 0.0011146622709929943 -7.841893238946795E-4 -0.004028585739433765 -0.00491374684497714 -0.0014016965869814157 0.007585424929857254 0.0014465766726061702 0.008020500652492046 5.406711716204882E-4 -0.005143224727362394 0.0051189204677939415 -0.006279353052377701 8.981684222817421E-4 -0.0033943974412977695 5.351216532289982E-5 0.0017217490822076797 0.0042630759999156 -0.0014268660452216864 -0.004075472708791494 -0.00618447782471776
working -0.0021553104743361473 -0.0021098079159855843 4.369894159026444E-4 0.00320990732870996 0.0011272943811491132 -5.920794210396707E-4 -0.0064026471227407455 -0.0036874578800052404 0.00629885820671916 0.0054420833475887775 0.004697469063103199 4.114380499231629E-5 -0.002117468975484371 0.004008128307759762 0.003474956611171365 0.0028100726194679737 -0.0067621818743646145 -6.611182470805943E-4 -4.68996207928285E-4 0.006639801897108555 0.005464440677314997 -0.004734504502266645 0.0033200427424162626 -0.0054856110364198685 0.004474147222936153 -0.004324454348534346 0.006490781903266907 -0.003424388822168112 -0.004288582596927881 -0.0035684898030012846 0.0013987818965688348 0.006266314536333084 0.006646267604082823 -0.006169564556330442 0.005915368907153606 -0.0035221586003899574 0.0013366126222535968 0.0046540517359972 -0.0028556655161082745 -0.006602409295737743 3.21724743116647E-4 -5.12522179633379E-4 -0.00246095797047019 -0.004304811358451843 0.0019408556399866939 0.002258146647363901 0.003935857675969601 0.004027506336569786 0.0035417082253843546 0.002535987412557006 -0.005683402996510267 0.0019457148155197501 0.0034020247403532267 -0.0036735839676111937 0.00609868997707963 0.00684731500223279 -5.872451583854854E-4 0.004039150662720203 -0.004901811946183443 -0.0041251108050346375 -9.467649506404996E-4 0.0026955907233059406 0.005282204132527113 0.0013173168990761042 0.00386760919354856 5.468919407576323E-4 -0.003746975678950548 -0.006455536466091871 -8.109462214633822E-4 -0.0010248251492157578 0.0028249328024685383 -0.004064947832375765 0.005624210927635431
exoskeleton -0.004616549238562584 -0.005265423562377691 -7.682967116124928E-4 0.0022101267240941525 0.00458664121106267 -8.418867364525795E-4 0.002278034808114171 -0.0015522169414907694 2.5545648531988263E-4 -0.002992854220792651 -0.0017443053657189012 0.0037481344770640135 0.0014364297967404127 4.906525718979537E-4 0.004172253422439098 0.0030825070571154356 -7.991830352693796E-4 -0.005321191623806953 -7.788017392158508E-4 -0.004070460796356201 0.004711540415883064 7.308923522941768E-4 0.003465130925178528 0.005820755381137133 0.0021531505044549704 -0.005529988091439009 1.1487543815746903E-4 -0.0038650138303637505 -0.006185774225741625 -0.0024157098960131407 0.005279455333948135 0.0018845811719074845 -0.006403603125363588 0.003981139976531267 -0.004345739725977182 -3.820435958914459E-4 0.005498900543898344 0.00313745578750968 -0.0012818898539990187 0.004936478566378355 -0.0012865840690210462 -0.0055212704464793205 0.0045741768553853035 -7.916747126728296E-4 0.003978961147367954 0.007343601435422897 0.0029248567298054695 0.003362233517691493 0.0029795223381370306 0.002529224380850792 -0.005242808256298304 0.005933534353971481 0.0014116994570940733 0.004589040298014879 -0.004473577253520489 0.002134529408067465 6.311167380772531E-4 0.00561637245118618 0.0019562027882784605 0.004066852852702141 0.00687566539272666 2.1039826970081776E-4 0.0027752621099352837 -0.004298345651477575 -9.927640203386545E-4 0.0011528555769473314 -0.0036691927816718817 0.005422466434538364 0.001639854279346764 -0.004660830833017826 -0.005715896841138601 -0.00511894840747118 0.001226078369654715
company 0.004337222781032324 0.0019852935802191496 6.152577116154134E-4 -0.00239749439060688 -0.005359978880733252 0.00606139563024044 -0.007452614605426788 0.001358886482194066 0.0038124502170830965 -0.002157780574634671 -0.005041762720793486 -7.244584849104285E-4 0.0028945019003003836 -0.001333685009740293 0.004356341902166605 0.007214907556772232 -0.0018345075659453869 -0.0020702278707176447 -0.005147750023752451 0.005872515961527824 0.005039760377258062 -3.280798555351794E-4 -0.0030280826613307 0.003948581404983997 0.004509233869612217 -0.004396173637360334 0.003948735073208809 -0.0069496105425059795 -0.003488898044452071 0.0012594317086040974 0.0038451070431619883 -4.560976231005043E-4 -0.0034770406782627106 0.005360129754990339 0.004676929675042629 -0.005080020520836115 0.006474014837294817 -0.004908095579594374 0.004885731730610132 0.005512027069926262 -0.0017107250168919563 -0.005628627724945545 0.007561927195638418 0.001508468994870782 -0.0013900332851335406 0.005745053291320801 -0.0050387028604745865 0.0022898910101503134 0.006519655231386423 0.00312292599119246 -0.007278539706021547 0.002960474230349064 -0.005513695999979973 -0.0053244903683662415 -0.002664366737008095 -0.0031062664929777384 -0.0042754290625452995 -0.006747208535671234 0.0019141489174216986 0.002067134017124772 0.004410955589264631 -0.005093256942927837 0.00578909320756793 -0.0017434938345104456 -0.004416641779243946 -9.962383192032576E-4 -3.8286251947283745E-4 0.004826493561267853 -2.143773017451167E-4 0.002104765037074685 -0.002783050760626793 -0.00651334086433053 -0.004642201121896505
amputee 0.01102997362613678 0.0013263345463201404 -0.005649281200021505 0.009523994289338589 0.006709182169288397 0.0010039040353149176 0.003674999810755253 -7.780012674629688E-4 0.005094843916594982 -0.00579696474596858 0.0038849860429763794 0.003335958579555154 -0.0029041736852377653 0.005322918761521578 0.00507659837603569 -0.003151149954646826 0.007248248439282179 -0.006646483205258846 0.004682402592152357 -0.0034480635076761246 -6.723274127580225E-4 0.0061295730993151665 0.001576635637320578 -0.0018536306452006102 -0.005889905616641045 2.0108424359932542E-4 0.0012330894824117422 0.005937122739851475 -0.005460699088871479 0.0033959918655455112 -0.005546643398702145 -0.00210498902015388 0.0016039354959502816 -2.9100599931553006E-4 0.001071605714969337 0.004499626345932484 -0.002259860746562481 0.006728488951921463 -0.006617061793804169 0.0014371196739375591 0.0029188059270381927 -0.005754946731030941 -0.008045683614909649 0.0025001701433211565 0.005357715301215649 2.147627528756857E-4 -3.590600681491196E-4 -0.003963895607739687 -0.0013098667841404676 0.003934601321816444 -0.005466621834784746 -2.0130752818658948E-4 -0.0044157495722174644 0.005503591150045395 -0.005724679678678513 0.005207292269915342 -7.1740458952263E-4 -0.004747577477246523 0.0036865132860839367 0.0024186826776713133 0.0033496918622404337 -0.0070466771721839905 0.003692095633596182 -0.005152368918061256 -3.055491833947599E-5 -0.006166576407849789 0.005261334590613842 -1.5403961879201233E-4 0.003452049335464835 -0.0014910722384229302 0.00845642201602459 0.007279939483851194 -0.004037253092974424
hand -0.08852018415927887 0.04092084988951683 0.03138333559036255 -0.0469357892870903 -0.061707090586423874 -0.013901608064770699 -0.044060591608285904 -0.06374205648899078 0.020655756816267967 -0.020205100998282433 0.06589365750551224 -0.04362531751394272 -0.06494096666574478 0.055376142263412476 0.005452727898955345 0.02722438983619213 -0.04961526393890381 -3.049800870940089E-4 -0.0020123091526329517 0.022892262786626816 -0.020870614796876907 5.407904973253608E-4 0.0648418590426445 -0.03519885614514351 0.06779775768518448 0.027078287675976753 0.040572669357061386 -0.06318235397338867 0.01890590973198414 0.009209560230374336 0.05411158502101898 -0.0021790219470858574 0.07654162496328354 -0.008107696659862995 0.06955575942993164 0.023040771484375 0.011172237806022167 -0.04738814756274223 0.02424703724682331 0.046403758227825165 -0.015981493517756462 -0.05621025338768959 0.0656462088227272 -0.017367148771882057 0.023029804229736328 -9.300493984483182E-4 -0.052597831934690475 -0.06260564923286438 0.0526689849793911 -0.027512328699231148 -0.02446812018752098 0.07711614668369293 0.022098811343312263 -0.08724647760391235 0.08477117121219635 0.004052846692502499 0.06127573549747467 0.010690855793654919 -0.06909408420324326 0.023092415183782578 -0.0535401850938797 0.04429785534739494 -0.04393695294857025 -0.013930186629295349 0.043039605021476746 -0.03319695219397545 0.03110583685338497 0.03942929953336716 -0.07277187705039978 0.06510108709335327 -0.0737839937210083 -0.017015479505062103 0.01983957178890705
product 0.01807381398975849 -8.717330638319254E-5 0.0019230777397751808 0.012890801765024662 0.018521420657634735 8.126468164846301E-4 0.004917490761727095 0.011391980573534966 -0.011547506786882877 0.010657960548996925 -0.003776444820687175 -0.005406743846833706 0.019000917673110962 -0.013073138892650604 0.008962113410234451 -0.004280573688447475 0.0026027418207377195 -0.006187127903103828 0.009653832763433456 0.009254791773855686 -0.0015129961539059877 0.0010766931809484959 -0.018412884324789047 -0.0033847989980131388 2.873435732908547E-4 -0.005403589922934771 -0.010613120160996914 0.015407782047986984 0.005408283323049545 0.0022363828029483557 -0.0027859497349709272 0.00871160440146923 0.0028415294364094734 0.005879135802388191 -0.010108080692589283 0.007428009994328022 -0.013557433150708675 -0.004761700984090567 -0.002845727140083909 0.002119866432622075 0.005318211857229471 6.177317118272185E-4 -0.012571165338158607 -0.0020174484234303236 0.006830880884081125 -0.0014167835470288992 -0.0015829892363399267 -0.0023220041766762733 -0.009918170049786568 0.014254393987357616 0.012682532891631126 -0.005344156175851822 -0.010042564943432808 0.0202028825879097 -0.01773814857006073 -0.009301558136940002 -0.0024976569693535566 -0.004817682318389416 0.008351623080670834 0.008288642391562462 -0.003150097094476223 -0.001269904780201614 0.005128403659909964 -0.007525837514549494 0.0057796286419034 0.008188234642148018 -7.50795821659267E-4 -0.01055311132222414 0.008032982237637043 -0.003814408089965582 0.01000980008393526 -0.010088452138006687 -0.008283518254756927
prosthetic 0.007464893162250519 0.00421176478266716 -0.003128242678940296 8.189727086573839E-4 -0.006314852740615606 -0.002780589275062084 0.006493028253316879 -0.0055900197476148605 -0.004894332028925419 0.00497193168848753 -2.573288802523166E-4 -0.0045248339883983135 0.0014655082486569881 -0.005220186896622181 0.0023532258346676826 0.005746876355260611 -8.16059997305274E-4 -3.332201740704477E-4 -0.006622364278882742 -0.007359808310866356 -0.0028946069069206715 0.0033109113574028015 -0.004855339415371418 -0.0015142846386879683 -0.0029548979364335537 -0.006198087707161903 0.001712315483018756 -0.001912104431539774 -0.0046674152836203575 0.00391209963709116 0.001721694367006421 -7.088601705618203E-4 -0.0010361647000536323 0.005145538132637739 0.0013728984631597996 -0.005532458890229464 0.0036674742586910725 0.003956898581236601 -0.0073089636862277985 -0.0031892615370452404 -0.006305514369159937 -0.006867922842502594 -0.002731477376073599 -0.005239557940512896 -5.128206685185432E-4 0.0030378138180822134 0.0022895163856446743 0.0013470066478475928 -0.005614940542727709 0.0019101365469396114 0.0021716791670769453 -0.002978978678584099 0.002605507615953684 -0.0053701545111835 -0.0016062513459473848 0.006929671857506037 -0.0012114811688661575 0.0022631450556218624 -0.0038728672079741955 6.425385363399982E-4 0.0012984751956537366 6.739990203641355E-5 -0.005034587346017361 -0.008459780365228653 -0.0013614118797704577 0.00354534899815917 0.0043924166820943356 -0.002854863414540887 -0.0015034537063911557 -0.006609256379306316 0.005669597070664167 0.002264463109895587 -0.0014296473236754537
sell 0.0061372676864266396 -0.0027203732170164585 0.004886795300990343 0.002027680166065693 0.001648463774472475 0.004517831839621067 -0.0048047383315861225 0.003739444073289633 -0.0036596127320080996 -0.004496693145483732 -0.004065095447003841 0.004291967488825321 -4.947578418068588E-5 -0.003226541681215167 0.005969780031591654 -0.0038209001068025827 -0.003996084909886122 0.0011507879244163632 -0.006254876963794231 -0.0032303344924002886 0.006416493561118841 -5.557526601478457E-4 0.003621757496148348 0.005799015052616596 0.006263939663767815 0.001626576529815793 -0.0053308033384382725 -0.0016255114460363984 0.003912223502993584 0.0014369676355272532 -1.7985455633606762E-4 2.3685402993578464E-5 -0.004612789023667574 -0.005589812528342009 -0.003668412333354354 -0.006368875503540039 0.005028742831200361 0.0013177416985854506 0.004891525954008102 -0.0068252431228756905 0.0042447601445019245 0.002125670900568366 -0.006715771276503801 0.005365489050745964 3.424511232879013E-4 -0.003496983088552952 0.0028818054124712944 9.145605727098882E-4 -0.005117469001561403 0.0028114013839513063 0.0027999558951705694 0.0032945803832262754 -0.004973144736140966 0.0020829502027481794 -0.007102353032678366 0.005088722798973322 -0.002757720183581114 -0.005134616978466511 -7.743614842183888E-4 0.004337701480835676 0.0057276105508208275 -0.0014267211081460118 0.005966594908386469 0.003665989963337779 -2.4832766939653084E-5 0.004794488660991192 -7.212765049189329E-4 -0.005695788189768791 -2.090272755594924E-4 -0.0014180241851136088 -0.005175812169909477 -0.0016146417474374175 -0.005122959613800049
purchase -0.0014562635915353894 -0.001351837650872767 0.002779770875349641 -0.006447216961532831 -0.0035765336360782385 -0.006956364493817091 -0.002453720895573497 -0.006702591199427843 0.0014186884509399533 0.001813801471143961 -0.004214270040392876 -0.007281469646841288 -0.003756713354960084 0.0036142163444310427 -0.0011093058856204152 -0.0020656450651586056 0.003689713077619672 -0.0067395116202533245 0.004238811321556568 -0.0019998939242213964 -0.00678765494376421 -0.003080823691561818 0.002205226570367813 0.00105705123860389 0.004923705011606216 0.0020006357226520777 0.005588674917817116 0.004277324303984642 -0.0039808559231460094 0.003395336912944913 -0.0042272647842764854 -0.005630405154079199 -0.0034408571664243937 5.185006302781403E-4 -8.557685068808496E-4 0.003591342130675912 0.0030672582797706127 -0.003947900142520666 -0.0061689638532698154 0.003735382342711091 0.0011510668555274606 0.0012494813418015838 -1.5660235658288002E-4 0.003383080242201686 -0.003704729489982128 0.0037929413374513388 0.0044885482639074326 -0.004091066773980856 0.0041905902326107025 -0.004215723369270563 -0.005625059828162193 -0.005204571411013603 -1.7913023839355446E-5 -0.0016491534188389778 -0.004347884561866522 -0.0011207545176148415 0.005526846274733543 -0.005854875780642033 -0.0015758185181766748 3.1908004893921316E-4 0.0016572278691455722 0.0033852322958409786 0.0034901269245892763 -0.001454790704883635 -0.004602001514285803 -0.002185128629207611 -0.0035589111503213644 0.002141221659258008 0.001973415957763791 -0.0011603954480960965 0.005150565877556801 -0.0035386704839766026 -0.005991625599563122
menu 0.005036364309489727 -0.0030938568525016308 -0.002056996338069439 0.0013378035509958863 0.0022953751031309366 0.0013646024744957685 0.00357537972740829 -0.001188472262583673 0.0020721883047372103 -0.002533692866563797 -0.0015557445585727692 0.0034098709002137184 0.0011491607874631882 -0.002741913078352809 0.002859564032405615 0.004160820506513119 0.004296152852475643 0.0032673717942088842 0.0039392937906086445 -0.003967630676925182 -0.004288163967430592 -0.004566814750432968 0.0012698833597823977 0.004988436121493578 7.507901173084974E-4 -0.0012952473480254412 -0.002749323844909668 -9.01419116416946E-5 0.0035645023453980684 0.004764694720506668 -0.0022612649481743574 0.0026895205955952406 -0.004065746441483498 0.00506253307685256 0.005130424164235592 -0.0025403706822544336 -3.731328761205077E-4 -2.81012908089906E-4 -0.0028889786917716265 -0.004181103315204382 -9.394803200848401E-4 0.0010553770698606968 -0.004931905306875706 -0.0026950915344059467 0.003592725843191147 2.104111190419644E-4 5.031054024584591E-4 5.317350733093917E-4 -0.002625094261020422 -0.0018881692085415125 -0.0071762544102966785 0.0048859938979148865 0.003307713195681572 0.001625580945983529 -0.005616089329123497 -0.0043555982410907745 -0.002610405208542943 -0.00290474365465343 0.006633195094764233 0.0036974914837628603 -0.005347320344299078 -0.006862155627459288 -0.0024649561382830143 -0.0044281440787017345 0.0028790750075131655 0.003020730335265398 -0.0037699933163821697 -0.0019602261018007994 -0.004695777781307697 0.0026617273688316345 -0.00550391711294651 0.0013799975859001279 1.618322858121246E-4
people 0.005677139852195978 -0.004787809681147337 0.0019723516888916492 -0.0013216712977737188 -0.0035337593872100115 5.552672664634883E-4 0.0060172006487846375 -0.0014093335485085845 0.0013674383517354727 0.0014168003108352423 -0.006678701378405094 0.001219427096657455 -0.004835883621126413 -0.006506904494017363 0.005903732497245073 0.003958883695304394 -0.002222213428467512 -0.0031748926267027855 0.0020153962541371584 -0.002948882058262825 0.006754697300493717 -0.004454853478819132 -0.005085829645395279 -0.0018594623543322086 -0.0037538008764386177 -0.005776266101747751 0.004273202735930681 -0.005448663607239723 0.001712667872197926 0.0065310061909258366 0.003730740398168564 0.004057658836245537 -0.0033363939728587866 -0.0011881993850693107 8.629849762655795E-4 0.0018761439714580774 0.0024228927213698626 -0.003855462186038494 0.0056043826043605804 0.0019294630037620664 1.745949120959267E-4 0.004721213132143021 0.0046583907678723335 0.003271533874794841 -0.005519473925232887 -0.005612008739262819 0.005202529951930046 -0.0019145077094435692 -0.0027834621723741293 9.618215844966471E-4 -9.271055459976196E-4 -0.002524550771340728 0.0018922813469544053 -4.4975485070608556E-4 0.003534854156896472 -0.002172611653804779 0.006292142905294895 -0.002954794792458415 0.0020137648098170757 0.0010373268742114305 0.005813997704535723 -0.004222013987600803 0.003222751896828413 0.004158632829785347 0.0022974805906414986 0.005126682575792074 0.006703933700919151 -2.990709035657346E-4 -0.002912251278758049 0.0027986804489046335 0.006776486989110708 0.004606785252690315 0.004136670846492052
bye -0.005220193415880203 -0.0036608020309358835 -0.0022741961292922497 0.002312916563823819 4.6272066538222134E-4 -0.0016646761214360595 -0.004713486414402723 0.0016819507582113147 -5.605106707662344E-4 0.00260098185390234 -0.0018304125405848026 -0.005940224509686232 8.141504367813468E-4 1.7353688599541783E-4 -0.005972146522253752 0.005699263885617256 -0.006406444124877453 -0.00414735171943903 -8.314247825182974E-4 0.006332064978778362 -0.006290529854595661 -0.003833369817584753 -0.0031823867466300726 -0.0025411469396203756 -0.002941075712442398 0.006509833037853241 5.064247525297105E-4 -0.0034318557009100914 -0.005272644571959972 0.003109608544036746 -0.003513122210279107 0.003865318838506937 0.0017789994599297643 -0.005011136177927256 -0.0013629108434543014 0.004693797789514065 -0.0029667015187442303 4.482595977606252E-5 -0.0032219768036156893 5.305825616233051E-4 -0.006164375226944685 -0.005118485074490309 -2.272386191179976E-4 0.004928935784846544 -0.0062041073106229305 0.0010877088643610477 4.6680643572472036E-4 8.665461791679263E-4 -0.002764626406133175 -0.005630150903016329 0.0013518978375941515 0.0019157095812261105 -0.0062111057341098785 0.0018291563028469682 -0.004205874167382717 -0.003880753880366683 0.00575269665569067 -0.002373575698584318 -0.001267852378077805 0.0045512644574046135 6.449957436416298E-5 -0.0013555814512073994 0.001935330918058753 -0.00592073192819953 0.006400129292160273 0.003263338701799512 0.001750835799612105 -0.0010918027255684137 0.005238518118858337 -0.005260821897536516 -0.0023187545593827963 -0.0013116275658831 -0.001048331381753087
removed 9.549962123855948E-4 -0.005303740035742521 -0.0018359649693593383 -0.004311596974730492 -0.0038323048502206802 0.002351416740566492 0.0032738654408603907 0.0027576982975006104 0.0020469166338443756 -0.0052044508047401905 -0.0013583125546574593 0.004958760924637318 -0.002123011741787195 -0.0033277098555117846 -0.003065303200855851 -0.004414682276546955 -0.0037968670949339867 0.0030581282917410135 -0.0030269024427980185 -0.005184999667108059 -0.003265942679718137 0.001808126806281507 -0.002730496460571885 -0.002483819145709276 0.004674414172768593 5.238333251327276E-4 -3.8878503255546093E-4 0.006031504832208157 0.0030096392147243023 0.0018726435955613852 -9.668946731835604E-4 0.0056879110634326935 0.005587631370872259 -0.005013936199247837 0.004993816372007132 0.0031180274672806263 0.0029319655150175095 -0.005017303861677647 -0.0067704361863434315 -4.636571975424886E-4 0.003067245241254568 0.006961733568459749 -7.484637317247689E-4 0.0049019381403923035 -0.0018470720387995243 -0.0035108975134789944 4.401521000545472E-4 -0.004896536469459534 0.003007249440997839 -0.00381618645042181 0.0028906352818012238 0.004192446358501911 -0.006017013918608427 -0.005341149866580963 -0.004807019606232643 0.0040441472083330154 0.004637284204363823 -0.004924371838569641 5.285159568302333E-4 9.535150020383298E-4 0.002116212621331215 -0.0014580884017050266 -0.005494062323123217 0.006488029845058918 0.005266735330224037 -0.002287179697304964 0.0034271730110049248 -0.0015872634248808026 -0.006271459627896547 -0.0029021860100328922 0.003084104973822832 -0.0036882436834275723 0.0019264013972133398
thank 0.005663157906383276 -0.003396420506760478 -0.0018894626991823316 4.349449009168893E-4 0.00544662494212389 -0.0015347963199019432 -0.005662989802658558 0.0052846139296889305 -0.003022744320333004 0.0053825597278773785 -0.005889079999178648 0.005603958386927843 -0.005185471381992102 0.003407158190384507 -0.0011263795895501971 0.005937362555414438 0.002454168861731887 0.005205881781876087 -0.0066888220608234406 -9.97104070847854E-5 0.006528773345053196 -0.005396148655563593 -7.85159703809768E-4 -0.0030114862602204084 0.005933407228440046 0.005231635179370642 -0.0026907071005553007 8.480973192490637E-4 -0.003653003601357341 -0.005451129749417305 0.003641160437837243 0.002195741981267929 -0.002311210846528411 0.0026145700830966234 0.0012921143788844347 0.0016175720375031233 -0.006687314715236425 -3.237058699596673E-4 -0.00283632124774158 -0.0035275595728307962 -0.002897938946262002 0.004585577175021172 -0.001144806039519608 0.005575661081820726 0.0020906892605125904 0.004252179060131311 0.0031418425496667624 0.0051008774898946285 -9.174890001304448E-4 0.0025839495938271284 7.156117353588343E-4 0.003966319374740124 0.0012352344347164035 0.00397851224988699 0.0066939108073711395 8.428202709183097E-4 -0.003080999478697777 -0.006572023034095764 0.0027711945585906506 0.005142115522176027 -0.006589019671082497 4.113136965315789E-4 0.00468798354268074 -0.0015113402623683214 -0.005120823625475168 0.001462880871258676 -0.0020602503791451454 -0.00609087897464633 -0.006616709288209677 0.003822479397058487 -0.004156289156526327 -0.0062714796513319016 -5.555152893066406E-4
information -0.007349126506596804 4.1115214116871357E-4 0.005763281602412462 -0.0030636966694146395 -0.0074124811217188835 0.002491143299266696 -0.0037464050110429525 -0.0022125376854091883 -0.005308055318892002 0.005607927218079567 -0.003504945896565914 0.004148698877543211 -0.008847341872751713 0.0038496307097375393 0.0022158960346132517 0.0015810155309736729 -0.004617023281753063 0.004493580665439367 -0.006202646065503359 -0.003202063962817192 -0.006187009159475565 8.689768728800118E-4 -0.001225138665176928 -0.0021523067262023687 0.006151711568236351 -0.0018672965234145522 -0.0032775835134088993 0.004074683412909508 -0.0036472349893301725 1.0957952326862141E-4 -0.001046678051352501 0.006359298247843981 0.0015251811128109694 -0.0019185900455340743 0.0031089342664927244 -0.003972632810473442 -0.0012042156886309385 0.005705452989786863 -1.538147043902427E-4 0.0041077882051467896 -0.001580366282723844 -0.003606218844652176 -0.0046692402102053165 0.0036183272022753954 -0.002857436193153262 -0.004021166358143091 -0.005834055133163929 -0.0068526375107467175 0.006841543596237898 -0.0059559834189713 -0.005603445693850517 0.00273450231179595 -0.0033423835411667824 -0.00738265085965395 0.00601929659023881 0.0034789007622748613 0.006584799848496914 -7.31378560885787E-4 -0.002709988970309496 -0.003597622038796544 0.0033767465502023697 -0.005567529704421759 -0.006334979087114334 0.003685490693897009 -0.002712251152843237 0.001066321274265647 0.0036790911108255386 0.007415318861603737 0.004504847805947065 -0.003210728522390127 -0.005703899078071117 -0.001567726954817772 0.004194632172584534
mark -0.001962129259482026 0.001508083543740213 -0.0030615939758718014 -0.002725702477619052 -0.005951030179858208 -5.992603255435824E-4 -0.005483195185661316 -0.002302123000845313 5.627669161185622E-4 -0.006536376196891069 0.002867631148546934 -0.006124440580606461 0.0022795293480157852 -0.0014846805715933442 -9.337484370917082E-4 -0.0015730601735413074 -6.523252814076841E-4 -0.001743759959936142 -5.11161342728883E-4 -0.006532850209623575 0.0012715555494651198 7.249979535117745E-4 -0.005679439753293991 -0.007170101162046194 -0.004174578934907913 -0.004753770772367716 -0.0023681975435465574 6.426322506740689E-4 -0.001270514097996056 -0.0038135512731969357 0.004401657730340958 0.00402118219062686 0.004753656219691038 3.445830661803484E-4 -0.0010476959869265556 0.0013441191986203194 -0.004231984727084637 -6.526385550387204E-4 -0.0018619109177961946 0.002720892196521163 -0.004705240484327078 -0.004353578668087721 0.001358026871457696 0.0018585312645882368 -0.0018039112910628319 -0.0033770394511520863 -0.0041342247277498245 -0.0051763709634542465 -0.0031032750848680735 -0.003368763020262122 -0.006033036392182112 0.007639110088348389 0.004027419723570347 -2.6489029551157728E-5 0.004683179315179586 -0.005001358222216368 0.0061944699846208096 0.0010215011425316334 -0.006674367468804121 0.005250249523669481 -0.006498164497315884 -0.00439563998952508 -7.358072907663882E-4 -0.006540017202496529 -1.8176663434132934E-4 -0.007027897983789444 6.470051012001932E-4 -3.8267215131781995E-4 -0.001719947555102408 0.001981136156246066 -0.006553296465426683 -6.167890387587249E-4 -0.003342981915920973
