97 30 457
hi -0.013426396995782852 -0.010321279987692833 -0.00301719200797379 0.009572047740221024 -0.009032443165779114 -0.014765185303986073 -0.0021533642429858446 0.008844294585287571 -0.011383170261979103 0.001526242820546031 -0.01218203641474247 -0.0034260298125445843 -0.010753834620118141 -0.010580959729850292 0.00601465068757534 0.007369701750576496 0.006333464290946722 0.005501465871930122 -0.012559807859361172 -0.0024026583414524794 0.011522089131176472 -0.005737530067563057 -0.007061848882585764 -0.007718291599303484 -0.011264730244874954 -0.009981224313378334 0.00786096416413784 -0.006685805507004261 -0.011533766984939575 -0.008561522699892521
about 0.009292828850448132 -5.062627024017274E-4 0.011706074699759483 -0.016382278874516487 -0.003201764076948166 -0.005865839775651693 -0.008963174186646938 -0.025108369067311287 8.004576084204018E-4 0.006485704332590103 0.017276261001825333 -0.012165859341621399 0.011630550026893616 -0.014787687920033932 0.02073853090405464 0.01283225230872631 -0.019428450614213943 0.018469667062163353 0.005424304399639368 0.008099083788692951 -0.01745627075433731 -0.010328931733965874 0.0011508313473314047 -0.0028231570031493902 0.0052560679614543915 0.01943376660346985 0.012665662914514542 -0.001494301133789122 0.004578611813485622 -0.0032757334411144257
videos 0.01165992021560669 -0.007729608099907637 2.79828323982656E-4 0.0010436384472995996 0.0070751444436609745 -0.009349696338176727 0.002439731964841485 -0.02006392367184162 0.0088380491361022 -0.0013684805016964674 -0.014844303019344807 -0.01011384092271328 0.01679363287985325 0.011450272984802723 -0.009970149956643581 0.016186578199267387 -0.0022024319041520357 0.008827519603073597 -0.006485058926045895 -0.00397589523345232 0.011206877417862415 -0.011056005954742432 0.012990329414606094 -0.006650293245911598 -0.006234700791537762 0.006647739093750715 -0.011361186392605305 0.006789624225348234 0.011604373343288898 -0.012819903902709484
your -0.05183139443397522 0.05243219435214996 0.020178798586130142 0.010937472805380821 0.06506872922182083 -0.10665135085582733 -9.200088097713888E-4 -0.10047505795955658 -0.09142927825450897 0.09260893613100052 -0.02013794519007206 -0.04472723603248596 0.05614127591252327 -0.014815631322562695 0.09220612794160843 0.035243771970272064 0.008497570641338825 0.07737237215042114 0.05591391772031784 -0.015398015268146992 0.020300697535276413 -0.05083653703331947 0.11965005099773407 -0.049464792013168335 -0.03824865072965622 0.004798118956387043 0.01597464084625244 0.09531174600124359 0.02757883071899414 -0.0324222557246685
handy -0.01108471117913723 0.015076560899615288 -0.006979288533329964 -0.01030031219124794 -0.008119854144752026 0.0017170612700283527 0.015373888425529003 0.013996393419802189 -0.01546866912394762 0.014246854931116104 -0.008544503711163998 0.0026484995614737272 0.012512639164924622 -0.007946435362100601 -0.01549026183784008 0.0014597896952182055 -7.94984691310674E-4 -0.005821447819471359 -0.010248973034322262 0.004670657217502594 0.005483405198901892 0.009600202552974224 0.011010590009391308 0.007672256324440241 0.006288401782512665 -0.013353624381124973 0.00422454671934247 0.00860431045293808 -0.007318544667214155 0.01362644787877798
without 0.0062130168080329895 0.00437876395881176 0.004953413736075163 -0.0013367432402446866 0.0076660094782710075 -0.01083473488688469 0.009279582649469376 0.013197166845202446 -0.010039194487035275 0.009939558804035187 -0.00975507777184248 -0.013251755386590958 -0.013088321313261986 -2.7235771995037794E-4 -0.0023141459096223116 -0.013118190690875053 -0.0028058700263500214 0.012346960604190826 -0.011248543858528137 -0.003572660032659769 3.306955622974783E-4 0.004205587785691023 0.007978921756148338 0.008830278180539608 -0.003591393819078803 -0.014492052607238293 -0.004723318386822939 -0.0073924888856709 0.004315928556025028 0.004950712900608778
required 0.006498201750218868 -0.004352091811597347 -0.002186656929552555 0.011966254562139511 -0.008117749355733395 -0.005171055905520916 -0.005657658912241459 -2.2797862766310573E-4 0.007786717265844345 0.004177936818450689 -0.0011178029235452414 -0.015283463522791862 -0.007716340012848377 0.014570179395377636 0.014531412161886692 0.01121237501502037 1.275615650229156E-4 -0.0036548932548612356 0.00931409653276205 0.008545326068997383 0.006319947075098753 -0.016171978786587715 -5.295687587931752E-4 -0.0014320974005386233 0.015998227521777153 0.013248817063868046 -0.011196416802704334 0.007614145055413246 -0.012765907682478428 0.0102778859436512
these 0.003033220302313566 0.008229734376072884 -0.0043259249068796635 0.004062740597873926 -0.005879085510969162 -0.0029670388903468847 0.006976019125431776 0.0026675830595195293 -0.007567974738776684 0.008538661524653435 0.009573552757501602 0.0114477863535285 0.007649203296750784 0.009155720472335815 -0.008406334556639194 -0.010635679587721825 -0.009975613094866276 0.0033074798993766308 0.011144209653139114 0.004267312586307526 -0.0016782485181465745 -0.007383460178971291 0.0012044553877785802 0.00825849175453186 0.01173919066786766 -0.0046688648872077465 0.006805398967117071 -0.009854774922132492 0.01237384881824255 0.012652813456952572
thanks -0.01367809996008873 -0.013189215213060379 -0.008201273158192635 -0.004091187380254269 -0.0013447653036564589 0.012747636064887047 -0.00426219729706645 -0.0017175049288198352 -0.004330125637352467 -0.014802777208387852 0.003980092238634825 -0.005873558111488819 -0.00204064860008657 -0.00543711893260479 0.01311199739575386 0.015549191273748875 -0.014003847725689411 -0.008295723237097263 0.01505036000162363 -0.0046007405035197735 -0.014907999895513058 -4.923155065625906E-4 -0.004930728115141392 0.009441022761166096 -0.004425819031894207 0.006517539732158184 -0.015521037392318249 -0.013172697275876999 0.007610398810356855 -0.01595207117497921
marki -0.003938034642487764 -0.003425868693739176 -0.0034703330602496862 -0.006828783079981804 -0.011342007666826248 0.0014682074543088675 0.0024276277981698513 -0.008089292794466019 -0.004804180469363928 0.00715620256960392 -0.001136883976869285 0.0016929252305999398 -0.001384533359669149 -0.005358916241675615 -0.006449391599744558 -0.017415490001440048 0.013394766487181187 0.007202301174402237 0.0022685290314257145 -0.013279273174703121 -0.01169675961136818 -0.005653834901750088 -0.010399640537798405 0.018154678866267204 0.010571334511041641 -0.013625351712107658 -0.01699727214872837 -0.0078542809933424 -0.011684051714837551 0.008178981952369213
rehabilitation -0.005745736416429281 0.01890166662633419 0.011766240000724792 0.006909691728651524 0.003702149260789156 -0.020931530743837357 -0.008176649920642376 -0.01732112467288971 -0.007007566746324301 0.009431754238903522 0.004244765266776085 0.003731626085937023 0.023485643789172173 -0.0049310652539134026 0.003960918635129929 0.0037067995872348547 -0.018889304250478745 0.018526563420891762 0.01882544532418251 0.002224668627604842 0.007226407062262297 0.001335774315521121 -0.0010933669982478023 -0.002338612452149391 -0.01653449423611164 -0.019905153661966324 -0.002037310739979148 0.03408955782651901 0.011776400730013847 -0.02018607407808304
would 0.03526230528950691 -0.011165890842676163 -0.022191228345036507 -0.023104336112737656 -0.0446447879076004 0.0617188885807991 -0.009265778586268425 0.05211808905005455 0.03086644969880581 -0.02751770243048668 -0.011797408573329449 0.012206921353936195 -0.045649297535419464 0.02749384008347988 -0.058090515434741974 -0.03454041853547096 0.013245555572211742 -0.03652598708868027 -0.05600826069712639 0.016910918056964874 0.0025141688529402018 0.021112438291311264 -0.07004117220640182 0.02722848951816559 0.02362706884741783 0.012496579438447952 -0.02915390022099018 -0.055570174008607864 -0.008158872835338116 -0.003533443668857217
handyman -0.013969551771879196 5.494149518199265E-4 0.00274772010743618 -0.005000052507966757 0.014751866459846497 3.0340711236931384E-4 -0.007399708963930607 -0.016859030351042747 -0.02000885084271431 0.013526877388358116 0.002122448990121484 0.008061569184064865 0.01045277714729309 -0.015206374228000641 0.0012655687751248479 -0.001982945716008544 0.012157022953033447 -0.01631494052708149 3.36663011694327E-4 0.011941378004848957 0.021851815283298492 0.014088585041463375 -0.01199823897331953 -0.00965382345020771 -0.016432492062449455 -0.014172657392919064 0.003709043376147747 0.01400845404714346 -0.009083817712962627 0.001706612529233098
exo -0.0075136045925319195 -0.00795528944581747 0.0012186472304165363 -0.009946085512638092 -6.333127967081964E-4 0.037511926144361496 2.506178861949593E-4 0.020795302465558052 0.0016107938718050718 0.0028640483506023884 0.008992370218038559 0.007038644049316645 -0.022257912904024124 0.016859669238328934 -0.011753306724131107 -0.02154255285859108 0.013608823530375957 -0.023058941587805748 -0.020491117611527443 0.005616327747702599 0.008655540645122528 0.004452996887266636 -0.033557791262865067 0.024299710988998413 0.01079830713570118 -0.009790639393031597 0.008007429540157318 -0.025042887777090073 0.004774885252118111 0.013903394341468811
you -0.017779922112822533 -0.003919441252946854 0.012430748902261257 0.01920001395046711 0.018933238461613655 -0.03741579130291939 0.015167775563895702 -0.04031512513756752 -0.0038882987573742867 0.03209783509373665 0.014147569425404072 -0.006603356450796127 0.004902091342955828 -0.003738761181011796 0.017364103347063065 0.007877364754676819 0.003921713214367628 -0.004397665616124868 0.027828272432088852 0.011571292765438557 0.015610265545547009 -7.047956460155547E-4 0.04267323017120361 -0.02594035677611828 -0.005795483011752367 -0.02633599378168583 0.013374341651797295 0.033562008291482925 6.618771585635841E-4 -0.006966413930058479
ii 0.013810234144330025 0.0068111964501440525 0.01436837948858738 -0.01212648581713438 -0.006779143586754799 0.007159542758017778 0.007326825056225061 0.002882798435166478 -0.0065766675397753716 0.013341392390429974 0.00810946710407734 -0.01006133109331131 0.0034568754490464926 0.01668044552206993 -0.01325876172631979 -0.01476200670003891 -6.072134128771722E-4 0.014140447601675987 -0.010558762587606907 2.3542965936940163E-4 0.016137853264808655 0.0019328538328409195 -0.011190411634743214 -0.004869427531957626 0.006492268294095993 -0.010503634810447693 -0.013331927359104156 -0.0164028350263834 0.007930059917271137 0.0027294426690787077
give 0.01648016646504402 -0.004167790524661541 0.012951910495758057 -0.004306142684072256 -0.005150368437170982 -0.007561789359897375 -0.0058194976300001144 0.011868505738675594 -6.861796136945486E-4 -0.015430881641805172 -0.012798796407878399 0.013884893618524075 -2.5060135521925986E-4 -0.017089903354644775 0.014057420194149017 0.014817675575613976 -0.011627031490206718 0.005842486396431923 0.009963036514818668 -0.011516742408275604 0.00652589276432991 0.012638408690690994 0.002992314286530018 0.007850537076592445 0.015255038626492023 -0.006128187756985426 0.012387934140861034 0.0029355869628489017 0.0022759875282645226 0.011983410455286503
markii 0.010283421725034714 -0.011163285002112389 -0.0070051210932433605 -0.011875884607434273 0.0041741617023944855 -0.008245169185101986 0.002570799784734845 0.005857077892869711 -3.9327939157374203E-4 0.0011761938221752644 0.004107493441551924 0.003075962420552969 -0.010114528238773346 3.032212844118476E-4 -0.00537607679143548 -0.01743938960134983 -4.226657620165497E-5 0.0017088968306779861 -0.00979568250477314 0.0031401279848068953 -0.01567622646689415 -0.008009559474885464 0.00814185943454504 0.005508925765752792 -0.005849415902048349 8.459297532681376E-6 0.014369703829288483 -0.001295653753913939 -0.005936914123594761 0.010439969599246979
work -0.005549679975956678 -0.00569822546094656 -0.015169402584433556 -8.157669799402356E-4 -0.0013084040256217122 0.014285815879702568 -0.0029365969821810722 -0.004274135455489159 -0.012135574594140053 0.015415819361805916 -6.098443409428E-4 -8.045640424825251E-4 0.013878109864890575 -0.005944233853369951 0.010955536738038063 -0.002510474529117346 7.923824014142156E-4 -0.010107947513461113 0.01438317634165287 0.0027606715448200703 -1.3699039118364453E-4 -0.013925380073487759 -0.004919213242828846 0.011355037800967693 0.0018266804981976748 -0.005128517746925354 0.015002410858869553 0.011522792279720306 -0.016351958736777306 0.016432013362646103
nothing 0.001920783193781972 0.009303824044764042 -0.0032330448739230633 -0.005832192022353411 -0.0011662662727758288 0.0014130828203633428 0.009251927956938744 -0.016768014058470726 0.008600160479545593 0.007665624842047691 0.010321692563593388 -0.016613662242889404 -0.004137144889682531 0.007433618418872356 -0.012110850773751736 0.006097776815295219 0.011599374003708363 0.010153441689908504 -0.014024628326296806 -0.007875697687268257 -0.0025511537678539753 6.878141430206597E-4 4.4847605749964714E-4 -0.0050010643899440765 -0.0023765643127262592 0.008818218484520912 -8.162969024851918E-4 -0.01019291765987873 0.004707056097686291 0.006299329921603203
paralysis -0.007335986010730267 0.003198500256985426 0.002035494428128004 -0.010702023282647133 -0.03061864711344242 0.004501799121499062 0.015379740856587887 0.03848529979586601 -0.007194161415100098 -0.002795871114358306 -0.016561122611165047 0.01661868952214718 0.005349539685994387 0.004424492362886667 0.005222742445766926 -0.009474783204495907 -0.009089671075344086 0.008845423348248005 0.028710076585412025 -0.009263779036700726 0.00631219707429409 -0.00919282529503107 -0.0028473264537751675 -0.007859019562602043 0.010254357010126114 -0.00916558038443327 -0.014950217679142952 0.023961802944540977 0.008491321466863155 -0.01935713365674019
is -0.004147247411310673 -0.011708243750035763 0.015278857201337814 0.004516711458563805 -0.005270886234939098 0.013101216405630112 -0.01017733570188284 0.007078920491039753 0.013369179330766201 0.01145489513874054 -0.013844127766788006 0.005257469601929188 -0.013578236103057861 -0.009939114563167095 -0.010582873597741127 -0.009109864942729473 -0.013914750888943672 -0.017088616266846657 0.008754952810704708 0.005015943665057421 0.013852456584572792 -0.0133949751034379 0.016907619312405586 -0.0034766276367008686 -0.012540009804069996 -6.469115614891052E-4 -0.0026455617044121027 0.009481148794293404 0.0035820649936795235 0.002080465666949749
am 0.009088088758289814 -0.013291841372847557 -0.0029075664933770895 -0.009658195078372955 -0.015307577326893806 -0.010256963782012463 0.008847938850522041 0.009072823449969292 0.002970391185954213 -0.015033685602247715 0.012135335244238377 0.005900197196751833 0.006959965918213129 0.004877876490354538 -0.013671742752194405 -7.867554086260498E-4 -0.002720172517001629 0.012477332726120949 0.013485651463270187 0.0018814494833350182 -0.0035956385545432568 -0.014499867334961891 0.008299178443849087 -0.008982788771390915 -0.011907067149877548 -0.00948676373809576 0.014149871654808521 -0.016113940626382828 0.008807459846138954 0.012616977095603943
prosthesis -0.019189978018403053 -0.007623981684446335 0.0014402269152924418 0.01132382731884718 -0.027014493942260742 0.007328452542424202 -0.003562713973224163 0.03457888960838318 -0.013794620521366596 0.012989046983420849 0.0021566443610936403 -0.005205963738262653 0.011009006761014462 0.013654750771820545 -0.006452973000705242 -0.02810833416879177 0.005170453805476427 -0.01668274961411953 0.02772986702620983 -0.026784101501107216 0.01740145869553089 -0.0037272770423442125 -0.006300761364400387 0.006685637403279543 0.007274435367435217 -0.0066694775596261024 -0.011209881864488125 -0.002131456509232521 -0.018228035420179367 -0.014667636714875698
demonstration -0.003669311758130789 -0.011340019293129444 1.5095020353328437E-4 0.012932679615914822 6.875111721456051E-4 0.010027069598436356 -0.0159242432564497 0.009931226260960102 0.010539531707763672 -0.00843086652457714 -0.006038784980773926 0.005314361769706011 0.0030525424517691135 0.0073820194229483604 -0.009789956733584404 -0.01498302724212408 -0.002657190663740039 0.0038748278748244047 -0.007842541672289371 -0.005561397410929203 -0.013126173056662083 -0.0014603727031499147 -0.00954697746783495 -0.004506321623921394 3.749530587811023E-4 -0.01518960576504469 0.0053139133378863335 -0.01228272169828415 0.008465019054710865 -0.005152969621121883
thats -0.009946017526090145 0.014789769425988197 -0.009395074099302292 -0.011125531978905201 -0.006064311601221561 0.0030763568356633186 -9.134181891568005E-5 -0.002545333933085203 0.0014421239029616117 -0.01123457495123148 0.01276168692857027 0.002672529313713312 0.001313796266913414 0.008057834580540657 0.011236617341637611 -0.007181880529969931 0.01468830369412899 0.007425944786518812 -0.01437467709183693 0.0019220910035073757 -0.015118930488824844 0.0028287938330322504 0.014826340600848198 -0.011046452447772026 -0.0013082836521789432 0.008869221433997154 -0.0019820567686110735 -0.007906678132712841 -0.01403390895575285 0.005249370355159044
amputation -0.016266874969005585 0.01781051978468895 0.016082247719168663 -0.0023825617972761393 -0.025415927171707153 -0.0011725975200533867 -0.003498741891235113 0.004760325886309147 0.008047993294894695 0.0031210847664624453 0.0011417214991524816 -0.002770972903817892 0.016829099506139755 0.012143498286604881 -0.008907332085072994 -0.024749351665377617 -0.007751469500362873 -0.007225849200040102 0.03125832974910736 -0.018924321979284286 0.0032978288363665342 -0.01528142299503088 -0.01842358335852623 0.0018656521569937468 -0.0036701990757137537 -0.03075415827333927 -0.013241583481431007 0.0022949608974158764 -0.00903355237096548 0.0013137375935912132
cut -0.01276270393282175 -0.014801356010138988 -0.004902319051325321 -0.004743641242384911 0.003682238282635808 0.012801201082766056 -5.3416675655171275E-5 -0.0021195660810917616 0.013103224337100983 0.013702812604606152 -0.015565978363156319 -0.014220168814063072 -0.007585116662085056 -0.003408983815461397 -0.005167212337255478 -0.010957649908959866 -9.105255012400448E-4 -0.0027661852072924376 0.012597255408763885 -0.00906755868345499 -0.011155177839100361 0.011325604282319546 -0.012836141511797905 -0.003452560631558299 0.002808967838063836 0.0018645341042429209 -0.011871949769556522 0.014004773460328579 -0.010518159717321396 4.7153927152976394E-4
goodbye 0.011251376941800117 -0.014095380902290344 -0.014026074670255184 -0.010822431184351444 0.00935674924403429 0.011892557144165039 -0.011538355611264706 5.115143721923232E-4 0.0029290253296494484 0.003859707387164235 -0.0022938698530197144 -0.013960403390228748 0.016012830659747124 0.013660449534654617 -0.005269515328109264 0.008731896989047527 -0.0032319664023816586 -0.01589585468173027 -0.00610756129026413 0.006592037156224251 -0.010021134279668331 0.005115853156894445 0.0014263115590438247 7.716238615103066E-4 0.009418396279215813 -0.014827834442257881 0.002673676935955882 0.012610778212547302 0.004493917804211378 -0.016029072925448418
products -0.06178813800215721 0.04777869954705238 0.08127399533987045 0.021143577992916107 0.04170190542936325 -0.13003414869308472 -0.010966378264129162 -0.07159186899662018 -0.07309311628341675 0.04962294548749924 0.019590890035033226 -0.012299246154725552 0.07644195109605789 -0.025698816403746605 0.10412625223398209 0.043411027640104294 -0.02870672568678856 0.0365513451397419 0.09858083724975586 -0.04944369196891785 -0.04265262931585312 -0.03490268066525459 0.1002039909362793 -0.02301359549164772 -0.048125315457582474 -0.062231551855802536 0.017555059865117073 0.10824231803417206 0.03218488022685051 -0.03138825297355652
how -0.01181691326200962 0.009099526330828667 -0.00906229019165039 -0.010473781265318394 -0.005826305132359266 0.005119429901242256 -0.001007786369882524 -0.015454474836587906 0.013473659753799438 -0.007132733706384897 -0.009686718694865704 0.0011331811547279358 -0.01428966410458088 -0.00912193488329649 0.019332055002450943 0.001970660174265504 0.009615891613066196 0.016665378585457802 0.015403141267597675 0.005474069621413946 -0.01268760859966278 -0.00526831392198801 0.015374853275716305 8.564848103560507E-4 -3.280632081441581E-4 0.002392127178609371 -0.00875466875731945 -0.013145540840923786 -0.00665521202608943 -0.013300314545631409
see 0.011331863701343536 -0.014513019472360611 0.0153307830914855 -0.013400498777627945 0.00349609786644578 -0.008086873218417168 0.010901570320129395 -0.016943996772170067 0.007680627983063459 -0.0033588367514312267 0.00814550369977951 -0.0035731482785195112 -0.01361674815416336 0.013012650422751904 0.01428464986383915 0.008942379616200924 0.014150550588965416 0.013902413658797741 -0.013687985017895699 -0.014240941032767296 0.008737428113818169 -0.0036098610144108534 0.004060780163854361 0.0032794650178402662 -0.01630380004644394 -0.00693745631724596 -0.014564628712832928 -0.0020763734355568886 -0.012246708385646343 0.00403244886547327
does -0.009095568209886551 0.0035039284266531467 -0.005753863602876663 0.006652454379945993 -0.010265177115797997 0.022530440241098404 0.008311488665640354 0.014984915032982826 -0.0027247355319559574 0.01279861107468605 0.01015368290245533 0.019249070435762405 -0.009972008876502514 0.006270051002502441 -0.007296796888113022 0.003757685190066695 -0.007310084532946348 -0.014901341870427132 -0.017748456448316574 -0.005035065114498138 -0.006319509353488684 0.01249217614531517 -0.014506945386528969 0.004781637340784073 0.005658612120896578 0.0022810420487076044 7.256476092152297E-4 -0.01294061541557312 0.009458045475184917 -0.015509366989135742
prosthetics -0.02579287625849247 -0.005043528042733669 -0.012506474740803242 -0.005085357930511236 -0.011410797014832497 -0.004792035557329655 0.018962061032652855 0.03968149051070213 0.00995031837373972 0.0144382668659091 -0.0029197847470641136 -0.008073870092630386 7.156690116971731E-5 -0.0013624869752675295 -0.021954482421278954 -0.014587245881557465 -0.011304962448775768 -9.042053716257215E-4 0.027774734422564507 -0.019959373399615288 -8.491941262036562E-4 -0.012877904810011387 -0.02272201143205166 0.015309675596654415 -0.010755965486168861 -0.03035436011850834 0.005793010350316763 0.0013250180054455996 -0.004973175469785929 -0.021749235689640045
get -0.0047800056636333466 9.484312613494694E-5 -0.01618545688688755 -0.017736393958330154 -0.017816003412008286 0.018828226253390312 -0.013876833021640778 0.03204590454697609 0.0087296636775136 -0.00804650504142046 -1.1074633221141994E-4 0.0063055120408535 -0.006497924216091633 -0.005438651889562607 -0.02804919332265854 -0.01965942606329918 -0.007210017181932926 -0.012671418488025665 -0.004750383086502552 0.004509667865931988 0.007051259279251099 0.015379749238491058 -0.02443486452102661 0.013140833005309105 0.019191529601812363 0.011440926231443882 -3.8170249899849296E-4 -0.020309561863541603 0.005653044208884239 -0.004507318139076233
have 0.004292876459658146 -0.005974756553769112 -0.017350705340504646 0.0050086393021047115 -0.004639905411750078 -0.016192641109228134 -0.015212148427963257 9.454941609874368E-4 -0.005616120528429747 0.007607996929436922 -0.01280647236853838 0.011993208900094032 0.008394833654165268 -0.01864045485854149 -0.008951328694820404 -0.006151847541332245 -0.012027456425130367 -0.014899718575179577 0.004918407648801804 -0.01667519472539425 0.022735869511961937 -0.012043952010571957 -0.00454983813688159 -0.014006214216351509 0.010484762489795685 -0.035391710698604584 0.015719570219516754 0.008013554848730564 5.364720127545297E-4 0.0027068196795880795
exoskeleton 0.0015220212517306209 -0.007557407952845097 0.013346382416784763 -0.0019780900329351425 -0.010205826722085476 0.007220924831926823 0.011452220380306244 0.003337772097438574 -0.01683702878654003 0.009432659484446049 0.0043119704350829124 0.010910885408520699 -0.002540560672059655 0.009169034659862518 -0.007974985986948013 -0.01227860152721405 0.006882760673761368 -6.897529819980264E-4 0.023901838809251785 0.006534860003739595 -0.0021366009023040533 0.0037032205145806074 -0.011480552144348621 0.0043939510360360146 0.0020550370682030916 -0.030159953981637955 -0.014452692121267319 0.016796203330159187 0.011136398650705814 -0.012101785279810429
close -0.01574813388288021 -0.0023857099004089832 0.009050454944372177 -0.005314947571605444 -0.0011970849009230733 0.003269642824307084 5.178849096409976E-4 -0.0019132794113829732 0.013533318415284157 0.005759837571531534 -0.006888179574161768 8.003394468687475E-4 -0.003920817747712135 -0.00777496537193656 -0.01612568274140358 0.009954828768968582 0.012528112158179283 -0.011631598696112633 -0.014338246546685696 0.004889150615781546 0.0022923352662473917 -0.01337556540966034 0.007780421059578657 0.006052827928215265 -0.010867370292544365 0.006957729812711477 -0.008189869113266468 0.0011187216732650995 0.008047932758927345 0.015839818865060806
hand 0.06111440435051918 0.06423162668943405 0.14268693327903748 0.04253294691443443 0.22342371940612793 -0.16671912372112274 -0.01632852666079998 -0.2982053756713867 -0.10132011026144028 0.1639590710401535 -0.028315266594290733 -0.12197113782167435 0.18999892473220825 -0.09553319215774536 0.23538555204868317 0.07828131318092346 -0.08745161443948746 0.03149658069014549 0.12245064228773117 -0.04683277755975723 0.006638870574533939 0.04126186668872833 0.1958611160516739 -0.16660484671592712 0.009810356423258781 0.009386243298649788 0.11492892354726791 0.1514882743358612 -0.0035412448924034834 0.02145080454647541
a -0.010781202465295792 0.005854242481291294 -0.006406445987522602 -0.014781152829527855 0.018628286197781563 -0.01873917691409588 -0.0067872898653149605 -0.0132457185536623 -0.014673746190965176 0.013006562367081642 0.011819001287221909 -0.0016185693675652146 0.007394705433398485 0.002645157976076007 -0.002260791603475809 0.0017356915632262826 -0.007609198801219463 -0.00805943924933672 0.011487347073853016 -0.003366175340488553 -0.012366050854325294 0.0058096349239349365 -0.004128259140998125 -0.008933385834097862 0.003605831181630492 -0.002668669680133462 -0.007041128817945719 0.00932859443128109 -0.005732037127017975 0.0033717993646860123
product -0.032776907086372375 0.02928750030696392 0.03655989468097687 0.002417910611256957 0.02862456813454628 -0.07859312742948532 -0.012679889798164368 -0.05036093294620514 -0.046818625181913376 0.014106436632573605 0.017658904194831848 -0.0197460874915123 0.016135796904563904 -0.011069372296333313 0.03771652281284332 0.032896190881729126 8.875546045601368E-4 0.030643770471215248 0.024193741381168365 -0.022995881736278534 -0.03107382170855999 -0.025018014013767242 0.06025613471865654 -0.029969587922096252 -0.020092587918043137 -0.007959115318953991 -0.003295253962278366 0.037843890488147736 0.018562516197562218 -0.014119157567620277
sell -0.006222098134458065 0.0016147082205861807 0.008318539708852768 0.0031709836330264807 -0.01775798760354519 0.015609712339937687 -0.004335192497819662 0.010752367787063122 0.013207532465457916 0.014854030683636665 0.010723027400672436 0.005131433252245188 0.010717323049902916 0.0016941702924668789 0.005680398549884558 -7.976128836162388E-5 0.011766827665269375 0.0015396715607494116 0.01992868445813656 -0.01734626106917858 0.009474558755755424 0.00867440551519394 0.005648555234074593 0.006262898910790682 0.006705025676637888 -0.013860635459423065 6.034689140506089E-4 0.010446111671626568 -0.007516574114561081 0.0035309107042849064
i 0.049421992152929306 -0.02658025734126568 -0.034947462379932404 -0.02466447465121746 -0.05717676505446434 0.08799274265766144 0.010273553431034088 0.10248560458421707 0.0741056501865387 -0.06929533183574677 -0.030284499749541283 0.04560121148824692 -0.048341259360313416 0.029182283207774162 -0.08348489552736282 -0.055442925542593 0.049004387110471725 -0.05476418882608414 -0.05489254742860794 0.013423541560769081 -0.0073145246133208275 0.04224923625588417 -0.09688063710927963 0.06535565853118896 0.029197392985224724 0.018384583294391632 -0.0382218062877655 -0.07737484574317932 -0.029723966494202614 0.019910240545868874
menu -0.01269880123436451 0.007942676544189453 0.01063196174800396 -0.011106621474027634 -0.018061278387904167 0.015885520726442337 0.007695384789258242 0.011768145486712456 0.01488336082547903 -0.013150928542017937 0.005754412151873112 -0.0049129873514175415 0.004968107212334871 0.007432314567267895 -0.02340845949947834 -0.008796945214271545 0.002276078099384904 -0.002174659864977002 0.010395649820566177 -0.010403323918581009 -0.004925111774355173 0.015849070623517036 -0.02601093426346779 0.01719997078180313 0.018087664619088173 0.012454011477530003 4.73595893708989E-4 0.011225288733839989 -0.009359501302242279 -0.005974175408482552
people -0.013035937212407589 -0.012462159618735313 0.010472563095390797 -0.006284486036747694 -0.017060425132513046 0.0016767890192568302 0.0031821015290915966 -0.006195497699081898 -0.006061527878046036 0.004493750166147947 0.009404290467500687 -3.967427182942629E-4 0.008781341835856438 0.003752653021365404 -0.013061368837952614 -0.005127628333866596 -0.0018083569593727589 0.015106018632650375 0.008856973610818386 -0.01586025394499302 0.011403455398976803 -0.005010516848415136 -0.0018551177345216274 -0.0010570535669103265 0.0021943903993815184 -0.011804874055087566 -0.0017758561298251152 0.006453458219766617 -0.013137116096913815 -0.009659348987042904
the 0.013809995725750923 0.002233795588836074 -0.01466519758105278 -0.013814139179885387 0.006334646139293909 0.006043690722435713 -0.0026161056011915207 0.010820492170751095 -0.015056993812322617 -6.721235113218427E-4 -0.0075009604915976524 0.012133454903960228 0.006900376174598932 0.0033905699383467436 0.016998158767819405 -0.005887927953153849 0.011749154888093472 -0.0025735017843544483 0.011461718007922173 -0.005474149715155363 0.015265925787389278 -0.015511482954025269 -0.001788457971997559 0.0018145889043807983 -3.2236656988970935E-4 0.013346429914236069 0.005158036481589079 -0.012399502098560333 0.006006362847983837 -0.015203587710857391
amputations -0.013067260384559631 0.009164302609860897 0.010498197749257088 -0.015309029258787632 -0.0025021214969456196 -0.0021340041421353817 0.015744829550385475 -2.2912933491170406E-4 -0.0028203423134982586 -0.0016048618126660585 -0.005157435312867165 0.010937260463833809 0.008245403878390789 0.014535830356180668 -0.009137323126196861 -2.136161201633513E-4 -0.014702444896101952 0.010440295562148094 0.011824025772511959 0.009342372417449951 -0.007324357982724905 0.0024405450094491243 0.0068081216886639595 -0.004958917386829853 -0.0022652004845440388 -0.016579894348978996 -0.010201468132436275 0.014001373201608658 -0.011675260961055756 0.01145661436021328
removed 0.0036707366816699505 -0.01607791893184185 -0.001280108466744423 9.580709738656878E-4 -0.019982514902949333 -0.006648482289165258 0.016835296526551247 0.02628832869231701 -0.0045140585862100124 0.005721114110201597 -0.0025283286813646555 -0.012379115447402 -0.01671513356268406 6.008921191096306E-4 -0.004407621920108795 -0.005099953152239323 0.016028743237257004 0.0014151065843179822 0.019233865663409233 -0.009423419833183289 0.013651997782289982 -0.007989252917468548 8.698692545294762E-5 -0.0023757426533848047 0.010554496198892593 0.001758222235366702 0.013747403398156166 -0.0021884480956941843 -5.075588705949485E-4 0.0036999545991420746
thank -0.00393118429929018 0.013599528931081295 -0.008173228241503239 -0.014751347713172436 0.0026446266565471888 0.014805201441049576 -0.0023840328212827444 -7.054242305457592E-4 -0.0053359647281467915 0.016475515440106392 -0.014340280555188656 -0.005908144637942314 0.008575399406254292 -0.012364676222205162 0.013732402585446835 0.0030454208608716726 -0.011435634456574917 0.011315408162772655 -0.01487593911588192 -0.005210799165070057 0.011847954243421555 -0.011519776657223701 0.0048892442137002945 -0.016600433737039566 -0.0159145575016737 0.00286959414370358 -0.008167609572410583 0.01117686741054058 0.005076085217297077 -0.005248558707535267
information -0.003811863251030445 0.022838396951556206 0.023393942043185234 -0.01127159595489502 0.01639457419514656 -0.03684192895889282 -0.013949709013104439 -0.01949155516922474 -0.021558675915002823 0.019609803333878517 0.005227904301136732 0.0028487020172178745 -0.0034930529072880745 -0.010881786234676838 0.03252829983830452 -0.006196954287588596 -0.0073526883497834206 0.006054277997463942 0.018834412097930908 0.010500824078917503 -0.01270908024162054 -0.007367262616753578 0.00955883413553238 0.00844226498156786 0.002158260205760598 0.0041501326486468315 -0.001945836003869772 0.024846917018294334 0.016849752515554428 0.011122985742986202
to 0.009727053344249725 -0.013755287043750286 -0.027396608144044876 -0.022659679874777794 -0.039848294109106064 0.041580986231565475 0.015505907125771046 0.04590418562293053 0.035023704171180725 -0.03538044914603233 -0.014572142623364925 0.014729684218764305 -0.039492446929216385 0.012007897719740868 -0.04339677840471268 -0.03002600185573101 0.027869995683431625 -0.006653968710452318 -0.032113656401634216 0.0035522279795259237 0.001611428800970316 0.012074467726051807 -0.06672058254480362 0.03970002755522728 0.0250029806047678 -3.134270664304495E-4 -0.022032612934708595 -0.04951059818267822 -0.01624959148466587 0.013866700232028961
visualization 0.007819524966180325 0.0013557631755247712 -0.0032017293851822615 -0.0019486915552988648 0.00526359211653471 -0.009963734075427055 -0.005288898013532162 4.038918996229768E-4 0.013509933836758137 4.909097915515304E-4 0.0017904972191900015 -0.012024962343275547 -0.0069892024621367455 0.004931861534714699 0.010551185347139835 -0.011257275938987732 0.003734006779268384 0.004091210663318634 -0.01073620468378067 -0.009893221780657768 -0.008142081089317799 -0.014336866326630116 -0.011185760609805584 0.008949937298893929 -0.006619954016059637 -0.016239594668149948 0.0032347054220736027 -0.0052748569287359715 -0.009711893275380135 -0.012679729610681534
buy 0.013543066568672657 -0.01835809461772442 -0.0036426554434001446 -0.01974000409245491 -0.023629484698176384 0.015802176669239998 0.004104175604879856 0.02462669275701046 0.016948526725172997 -0.006366575136780739 -0.011426089331507683 8.103720610961318E-4 -0.002809470519423485 -0.0030022922437638044 -0.028058813884854317 -0.016735808923840523 0.025496574118733406 -0.01300649531185627 -0.024149809032678604 0.008456756360828876 -0.01004352793097496 0.002378243487328291 -0.012115062214434147 0.013973904773592949 0.011920488439500332 0.0042935023084282875 -0.013945556245744228 -0.03730472922325134 0.00205855630338192 -0.0034430348314344883
tell 0.006444159429520369 -0.0015988288214430213 0.009839832782745361 0.010127768851816654 0.022941123694181442 -0.0470484234392643 -0.009119391441345215 -0.05409069359302521 -0.014750097878277302 0.0266541950404644 0.003947218880057335 -0.025982443243265152 0.031335342675447464 -0.028992541134357452 0.029731109738349915 0.0012064608745276928 -0.00815589353442192 0.03207017853856087 0.007049471605569124 -0.016307640820741653 0.005880151875317097 -0.017191288992762566 0.031378041952848434 -0.0314430370926857 0.007148263044655323 -0.015519081614911556 0.020240506157279015 0.0028174533508718014 0.01690663956105709 0.003720553359016776
available 0.01308105606585741 -0.02150261402130127 -5.628942381008528E-5 0.00486270897090435 -0.034866612404584885 0.034980904310941696 0.012051207944750786 0.045368682593107224 0.02833210863173008 0.0030762748792767525 -0.007721816189587116 0.010167259722948074 -0.006026482675224543 -9.456904954276979E-4 -0.04519021883606911 -0.012812931090593338 0.01266000047326088 -0.03213464841246605 -0.017748795449733734 -0.01769535057246685 0.024723485112190247 0.015386512503027916 -0.05451561138033867 0.024119731038808823 0.012026902288198471 -0.004853425081819296 -0.0039206137880682945 -0.0022542234510183334 -0.023851953446865082 -0.010864853858947754
do 7.331678061746061E-4 -0.018799005076289177 -0.019442906603217125 0.019068079069256783 -0.007003090810030699 -0.011862915940582752 -0.0029596828389912844 -0.005902425851672888 0.012789293192327023 0.003603603458032012 0.021023988723754883 0.02193523943424225 0.024835914373397827 -0.015870248898863792 0.01851193793118 -7.07975763361901E-4 0.004839195404201746 -0.01579827070236206 0.016208408400416374 -0.002491711638867855 0.029461044818162918 0.02217588573694229 -0.008579227142035961 -0.02377331256866455 -0.0014446080895140767 -0.022571315988898277 0.017018798738718033 -0.012856338173151016 -0.008112999610602856 -0.004197582136839628
good 0.012482876889407635 -0.002003698842599988 -0.012410380877554417 0.01212555356323719 -0.001473828568123281 0.0024301642552018166 -0.012163161300122738 0.002614314202219248 0.00653926283121109 -0.014487562701106071 0.012079840525984764 0.013173525221645832 0.00368288392201066 -0.009858026169240475 -0.0036518836859613657 -0.015446492470800877 0.010217824950814247 0.004023497924208641 -0.012244774028658867 -0.006131104659289122 -0.010913272388279438 -7.298977579921484E-4 0.008542883209884167 0.0012190209235996008 0.0036830208264291286 0.011448531411588192 -0.004903251305222511 0.01421843096613884 7.229631301015615E-4 5.142070585861802E-4
amputees -0.013398812152445316 0.018617428839206696 -0.0077174571342766285 0.009777866303920746 -0.015110762789845467 -0.005044830963015556 0.004530423320829868 0.02845156379044056 -0.010422819294035435 -0.0011680450988933444 0.002074522664770484 -0.013471575453877449 0.010233009234070778 0.011002495884895325 0.002481603529304266 -0.02550092153251171 -0.013917961157858372 -0.00809545163065195 0.036259595304727554 -0.006562554277479649 0.011071198619902134 -0.009145522490143776 -0.005316792521625757 -0.013218691572546959 -3.608308616094291E-4 -0.01779373176395893 0.00644947774708271 0.021722925826907158 -0.0046462793834507465 -0.025334442034363747
that 0.016225969418883324 -0.0018699874635785818 0.009740329347550869 -0.011084573343396187 -0.0097305653616786 -0.002575079444795847 0.0060513257049024105 0.012543261051177979 0.002838012296706438 0.009594536386430264 0.0020093466155231 -0.009650819934904575 -0.015936313197016716 -0.0014203411992639303 -0.0025256979279220104 0.008029212243855 -0.01000965852290392 0.013789189048111439 -0.008348576724529266 -0.007322464603930712 -0.007449625991284847 -0.003230973845347762 0.003330988809466362 -0.013138778507709503 -0.003389321966096759 1.1626106424955651E-4 0.004017291124910116 -0.0016550056170672178 -0.004750959575176239 -0.0071187750436365604
solution -0.0048254127614200115 -0.015061813406646252 -0.010462366044521332 -0.005146616138517857 -0.011211864650249481 -0.020108655095100403 -9.505635825917125E-4 -0.007134522311389446 -0.0055603706277906895 0.005755187943577766 -0.007247304078191519 0.010255450382828712 -0.005075136665254831 0.009810155257582664 0.019522812217473984 0.006409442517906427 -0.0073547945357859135 -0.013536462560296059 0.014137581922113895 0.011281642131507397 0.00739518366754055 0.006619129795581102 0.014170320704579353 0.0016569995786994696 0.005596655886620283 0.00789925642311573 -0.003033492248505354 -0.010048187337815762 0.007883829064667225 0.006122813560068607
me -0.011372226290404797 0.021830996498465538 0.06392375379800797 0.007235116325318813 0.06830254197120667 -0.12090613692998886 0.004686563275754452 -0.1501578390598297 -0.04244910553097725 0.013412375003099442 -0.0018095087725669146 -0.05894569680094719 0.06026024371385574 -0.01341746374964714 0.09327580779790878 0.06573330610990524 -0.04539826512336731 0.07328391075134277 0.005715722218155861 -0.028219934552907944 -0.02593374438583851 -0.02549881674349308 0.07350882142782211 -0.01039367076009512 -0.003923674114048481 0.026065070182085037 0.030182721093297005 0.042864277958869934 0.06140468642115593 0.015034830197691917
details -0.00789444986730814 0.009067315608263016 0.009845037013292313 0.009967117570340633 -0.018722372129559517 0.005436120089143515 0.0105822142213583 0.023584121838212013 -0.012266340665519238 0.002638852223753929 0.012093632481992245 -0.005002830643206835 -0.019811641424894333 0.002442270051687956 -0.019899344071745872 -0.005244608037173748 4.7474686289206147E-4 -3.035276895388961E-4 -0.011308383196592331 0.009632669389247894 -0.01014383602887392 -0.0135092968121171 0.009646113030612469 0.010219902731478214 0.011635415256023407 -0.005237987264990807 -0.0036907715257257223 0.009159479290246964 -0.00930902361869812 0.012500150129199028
info 0.001972223399206996 0.026135290041565895 0.02705615758895874 -0.00903256330639124 0.014340798370540142 -0.015215159393846989 -0.008831603452563286 -0.030443178489804268 -0.030379869043827057 0.013993808068335056 0.013418037444353104 0.0011871564202010632 9.491397649981081E-4 -0.001490280730649829 0.023328715935349464 0.004773053340613842 -0.029320627450942993 0.00970379076898098 0.001640415983274579 -0.011247210204601288 -0.012878142297267914 0.0032809535041451454 0.03412754461169243 0.0038058662321418524 -0.011609410867094994 -0.015853585675358772 0.00668742973357439 0.010875631123781204 0.01140964962542057 -0.011742747388780117
all 0.006776062306016684 0.008724385872483253 0.0035297172144055367 -6.335450452752411E-4 0.01799851655960083 -0.006214025430381298 -0.010894394479691982 9.267427958548069E-4 0.002410589950159192 -0.010821666568517685 -0.01110552903264761 -0.02064439468085766 -0.008218950591981411 -0.004528790712356567 -0.006796081550419331 -0.002790374681353569 3.2322274637408555E-4 0.008382556028664112 0.010945889167487621 -0.0183580219745636 0.006277909968048334 0.006316390819847584 -7.101511582732201E-4 0.005635627079755068 -0.015152190811932087 -0.006780983880162239 0.01832280308008194 0.006382626947015524 0.010122185572981834 -0.009730889461934566
like 0.019542528316378593 -0.013695405796170235 -0.027997460216283798 -0.021520346403121948 -0.02199353650212288 0.04661662504076958 0.009196411818265915 0.054175011813640594 0.049646299332380295 -0.0439591221511364 -0.004969737026840448 0.026277650147676468 -0.02778833545744419 0.002498143818229437 -0.06855075806379318 -0.01449429802596569 0.03600852191448212 -0.014739728532731533 -0.04748871177434921 -9.572887211106718E-5 -0.01164943352341652 0.009366433136165142 -0.07036768645048141 0.02775682881474495 0.002071477472782135 0.011576461605727673 -0.013802259229123592 -0.05270330235362053 -0.02321794629096985 -7.808528607711196E-6
need -0.009934254921972752 0.008922506123781204 -6.397140678018332E-4 -0.006388969253748655 0.0023263273760676384 -0.0016134318429976702 0.004081558436155319 0.012802510522305965 0.01086573675274849 0.002960813930258155 0.014054013416171074 -0.008933214470744133 0.015726977959275246 -0.009488526731729507 -0.007900937460362911 -0.015327353961765766 0.007048312108963728 -0.010547639802098274 -0.016540374606847763 0.0019031492993235588 0.00414257263764739 -8.227708167396486E-4 -0.0029830618295818567 -0.011733480729162693 -0.0018269463907927275 -0.004247279372066259 0.004964353516697884 0.013082915917038918 -0.015138465911149979 0.014085967093706131
solutions -0.06994767487049103 0.031943824142217636 0.09224488586187363 0.041500385850667953 0.07103846967220306 -0.16554301977157593 0.011030780151486397 -0.13534650206565857 -0.09921173751354218 0.08238489180803299 0.01095523964613676 -0.031956929713487625 0.10207332670688629 -0.04941823333501816 0.12581847608089447 0.04195944592356682 -0.05373416095972061 0.0705004334449768 0.10206414759159088 -0.02919640950858593 -0.04430771246552467 -0.035498518496751785 0.12638629972934723 -0.047298915684223175 -0.06123108044266701 -0.06118433177471161 0.03870508074760437 0.12668906152248383 0.05602654069662094 -0.028678670525550842
please 0.0045637465082108974 -0.009058919735252857 -0.0014752660645172 0.005725142080336809 0.0012981026666238904 -0.009412063285708427 -0.015698689967393875 5.680580507032573E-4 -0.011341963894665241 -8.273248677141964E-4 -0.002518216846510768 -0.003028110135346651 0.006764853838831186 -0.0012241752119734883 0.012973236851394176 0.0034716695081442595 -0.012668776325881481 -0.013962164521217346 0.012165711261332035 -0.0031987777911126614 0.01192549616098404 0.011522332206368446 0.005235662683844566 -0.013528415001928806 -0.016045840457081795 0.009189948439598083 0.007523681037127972 0.0010577639332041144 0.015264095738530159 0.015149460174143314
finished -0.008921290747821331 -0.014892322942614555 0.004990385379642248 -0.0017426471458747983 0.007209875620901585 0.007180748973041773 0.008458992466330528 0.0032426179386675358 0.00557660311460495 -5.285174120217562E-4 -0.011296967975795269 -0.01571987196803093 0.002401250647380948 -0.0030505997128784657 -0.009249227121472359 -0.0017305960645899177 -0.01068778708577156 -0.016028359532356262 0.0050627849996089935 0.0093159144744277 -0.003914319910109043 0.008112013339996338 0.013723175041377544 0.0032830776181071997 -0.0019058805191889405 -0.012893136590719223 -0.01599564217031002 0.012230083346366882 0.0053248330950737 -0.009215778671205044
list -0.007526174187660217 0.010217377915978432 -0.013787399977445602 7.870318368077278E-4 0.004638306330889463 0.03288412466645241 0.005367887672036886 0.03832501173019409 -0.011387468315660954 -0.013799392618238926 -0.020430896431207657 0.015411441214382648 0.002450233092531562 0.020929519087076187 -0.026562204584479332 -0.014120562933385372 6.83342688716948E-4 -0.019913505762815475 -0.0030239170882850885 -0.005245664622634649 0.016755642369389534 0.007840464822947979 -0.03454120457172394 0.0029073210898786783 0.020686142146587372 -0.010107561945915222 -0.010729733854532242 -9.005163447000086E-4 -0.021445097401738167 -0.01961345784366131
done 0.007490057498216629 0.009788619354367256 -8.873143815435469E-4 0.005701798480004072 0.006804195698350668 0.01516063790768385 -0.012066354975104332 -0.015395066700875759 -0.005757778417319059 0.016015835106372833 0.010997382923960686 -0.010669237934052944 0.008344129659235477 0.011683912947773933 -0.004623975604772568 -1.5905845793895423E-4 0.007174276746809483 -8.466285071335733E-4 0.0020033412147313356 -0.009085568599402905 -0.001313167973421514 -0.006772730499505997 -0.0057715014554560184 -0.0029133681673556566 -0.007382611278444529 0.01465908158570528 0.013360121287405491 -0.005376841872930527 0.01084731426090002 -0.005770780611783266
catalogue -0.02060484141111374 -5.281373159959912E-4 0.004934815689921379 0.01884503848850727 0.009430237114429474 -0.053058646619319916 -0.002496810629963875 -0.053186699748039246 -0.03416554257273674 0.02600310742855072 0.01152060367166996 -0.0032435243483632803 0.015721341595053673 -0.011384802870452404 0.02550896629691124 0.030216798186302185 -0.025896737352013588 0.010194520466029644 0.025194382295012474 -0.014746933244168758 -0.005656375549733639 -0.004067274741828442 0.05201556533575058 0.003167085349559784 -0.02330792509019375 -0.00805017352104187 0.005013342015445232 0.03246573731303215 0.008977576158940792 -0.002180614275857806
hanydman -0.006241280119866133 0.0060670142993330956 -0.015794791281223297 -0.010855128988623619 0.00880249124020338 -0.012232432141900063 -0.014751696959137917 -0.013199458830058575 -0.012316267006099224 -0.01261053141206503 -0.0022731474600732327 0.011864601634442806 0.013021235354244709 0.009440676309168339 0.016870032995939255 0.013163839466869831 -0.002529267920181155 1.341037277597934E-4 0.011342461220920086 0.013481393456459045 -0.001836502575315535 0.0011086913291364908 0.008868604898452759 0.011041724123060703 0.014277719892561436 -0.007040831726044416 -0.011178304441273212 -0.014946297742426395 -0.0021138854790478945 -0.004450150765478611
some 0.004151646979153156 -0.006031626369804144 -0.005949162412434816 0.012852154672145844 0.0018099877052009106 -0.0019223721465095878 0.013988177292048931 0.007278986740857363 0.0039653112180531025 -0.0011616386473178864 0.014178234152495861 0.014686191454529762 -0.01142037846148014 0.0119790593162179 0.009325379505753517 0.007393134757876396 -0.01389344409108162 -0.01512199454009533 -4.2760063661262393E-4 0.007189182098954916 0.01629825122654438 -0.0010444626677781343 0.01180832926183939 -0.004569391719996929 -0.0092418622225523 2.7858154498972E-4 -0.012685859575867653 0.008462788537144661 -0.008610278367996216 0.0076629407703876495
no -0.003050520783290267 -0.004148819018155336 4.8164601321332157E-4 -0.004000455606728792 -5.10704587213695E-4 -0.01822640746831894 0.003402831731364131 -6.032453384250402E-4 -0.016324413940310478 -0.015572289936244488 -0.011799095198512077 -0.012804572470486164 -0.006662828382104635 0.003055781591683626 -0.0016916445456445217 -0.008831111714243889 0.008896100334823132 0.010630067437887192 0.009740564972162247 9.50585410464555E-4 -0.004712782334536314 0.0020429936703294516 -0.008711491711437702 -8.655780693516135E-4 -0.005634698085486889 0.005002445075660944 -0.01076635904610157 -0.008117551915347576 0.0018702837405726314 0.005035201087594032
needed 0.004312293138355017 -0.003337536472827196 0.011306018568575382 0.0023384769447147846 -0.00863721314817667 0.014642011374235153 -0.009578093886375427 0.0011928066378459334 -0.016758710145950317 -0.011757934466004372 -0.014991333708167076 0.008837410248816013 -0.009573863819241524 0.001142212189733982 0.007411889266222715 -0.008923638612031937 -0.010568460449576378 -0.012937753461301327 0.01651071012020111 0.008969110436737537 0.003230214584618807 -0.014026577584445477 0.01390474010258913 0.009999769739806652 -0.01347000990062952 0.01571490988135338 -9.577438468113542E-4 0.005022322293370962 0.006341465283185244 -0.012909929268062115
show -0.0027904491871595383 0.02677389234304428 0.022577861323952675 0.019376227632164955 0.055569346994161606 -0.09728913754224777 -0.030020514503121376 -0.13218054175376892 -0.04558428004384041 0.035967592149972916 0.03618945926427841 -0.03740272298455238 0.02522912621498108 -0.042293112725019455 0.10935802757740021 0.06332733482122421 -0.01912912167608738 0.04351237043738365 0.02794705331325531 0.006434541195631027 -0.041545335203409195 -0.022142890840768814 0.09301574528217316 -0.046642933040857315 -0.03805834800004959 0.028605375438928604 0.016362695023417473 0.04155028611421585 0.046706635504961014 -0.029058780521154404
for -0.1646706610918045 0.0934838354587555 0.042935263365507126 -0.0315525196492672 0.016163771972060204 -0.20028619468212128 -0.049070775508880615 -0.2655440866947174 -0.11841309815645218 0.02245495282113552 0.11559600383043289 -0.06531891226768494 -0.015302297659218311 0.004951270297169685 0.15981492400169373 0.11788138002157211 -0.035931386053562164 0.12916231155395508 0.02625257708132267 0.039347127079963684 -0.0228006262332201 -0.08411111682653427 0.22345587611198425 -0.07925634831190109 0.019354434683918953 0.015278070233762264 0.029247619211673737 0.02089749649167061 0.11302156001329422 -0.007277135271579027
their 0.009367173537611961 0.005993531085550785 0.017568709328770638 -0.01601709984242916 0.015341046266257763 -0.0047922017984092236 -0.017260588705539703 0.003215142758563161 -0.004750179126858711 -0.005382250994443893 0.007932264357805252 -0.0016683718422427773 -0.007725415751338005 0.003987773321568966 0.016930658370256424 0.013686013408005238 -0.014086296781897545 0.008205076679587364 -0.012047228403389454 0.011374897323548794 -0.006897399201989174 -0.014434280805289745 0.006743631791323423 0.007161419838666916 0.012000157497823238 -0.0034549168776720762 0.01656363531947136 0.015139688737690449 0.003231581998988986 0.012342838570475578
video -0.015951720997691154 0.004188807215541601 0.004067743197083473 0.015023081563413143 4.2814871994778514E-4 0.003257084172219038 -0.012505454011261463 0.002507605357095599 0.004270249046385288 0.006149009335786104 0.01272128988057375 -0.003730521537363529 -0.0038316885475069284 0.010857266373932362 0.0024962935131043196 0.018314262852072716 0.011385761201381683 0.016838477924466133 0.0014217616990208626 0.003281457582488656 -0.0038770243991166353 0.011033478192985058 0.001766991917975247 -0.0078629394993186 -0.010789305903017521 0.012374043464660645 -0.005979767069220543 -0.001981356181204319 0.00530046783387661 0.00666186586022377
demo -0.0036766058765351772 -0.010349700227379799 0.0029143975116312504 -0.0014744997024536133 -0.0060699391178786755 -0.01667734794318676 -0.014066250994801521 -0.02429095283150673 -0.005205109715461731 -0.003152422606945038 -0.011968258768320084 -5.200946470722556E-4 0.0022081895731389523 -0.0011170489015057683 -3.5654683597385883E-4 0.012444792315363884 0.011370197869837284 0.00923154316842556 9.643692756071687E-4 0.007878179661929607 0.012042916379868984 -0.00112684047780931 0.014818165451288223 -0.013356288895010948 -0.004171009175479412 -0.005074138753116131 0.005605403799563646 0.008285870775580406 0.016225749626755714 0.0039438651874661446
exoskeletons -0.00443221814930439 0.013691474683582783 -0.006481855642050505 0.015305722132325172 -0.009482677094638348 -0.0104018934071064 -0.010663876309990883 -0.01231663953512907 0.009144585579633713 -0.00439406419172883 0.01278652623295784 -0.014591163024306297 -0.01328442245721817 -0.0030031423084437847 -0.001474912278354168 -0.004351576790213585 -0.01300341822206974 -0.005997093860059977 0.010095554403960705 -0.00203418149612844 -0.011247542686760426 5.343006341718137E-5 -0.004070015624165535 0.01618027128279209 -0.014282462187111378 0.0015513517428189516 -7.050635758787394E-4 -0.00423559220507741 0.01291809044778347 0.007869204506278038
can 0.006237445864826441 -0.003801527665928006 0.00367945758625865 0.013744446448981762 5.440432869363576E-5 -0.03752799704670906 -0.004999563097953796 -0.044430796056985855 0.0013280533021315932 0.026549985632300377 -0.007513172458857298 -0.003465878777205944 0.00864469911903143 -0.00576599407941103 0.01635698974132538 0.0077075171284377575 -0.0066823833622038364 0.030278222635388374 0.010803081095218658 0.014720364473760128 -7.761942688375711E-4 -0.02222093567252159 0.03864371404051781 -0.023666314780712128 -0.006121485959738493 -0.004712545778602362 0.008939581923186779 0.010299521498382092 0.02549242228269577 -0.00611924659460783
not 0.01282179169356823 0.0018738919170573354 -0.013225781731307507 0.004132966976612806 0.014303532429039478 -0.006934617646038532 0.01637607254087925 0.013340311124920845 0.014272262342274189 0.003095691092312336 0.008919703774154186 0.012243470177054405 -0.013545697554945946 0.003460088511928916 -0.012403295375406742 0.008999130688607693 0.0020204437896609306 0.014234880916774273 -0.008306091651320457 -0.0012421573046594858 -0.004088627174496651 0.0054435040801763535 0.0014692320255562663 -0.014091298915445805 -0.009986940771341324 -0.012102396227419376 0.0098083121702075 0.003078798297792673 -2.095709351124242E-4 -0.007460722234100103
and -0.008802663534879684 0.014964033849537373 -0.007681901101022959 -0.010722857899963856 -5.208797520026565E-4 0.014719469472765923 0.0150493448600173 0.01782398857176304 0.0013408840168267488 -0.01163970585912466 0.008938844315707684 -0.013648190535604954 -0.006148128304630518 0.0012445020256564021 -7.578991935588419E-4 -0.0010906360112130642 0.0019073310540989041 -5.126730538904667E-4 -0.00815803837031126 0.007258384954184294 0.014290348626673222 0.004577470012009144 -0.003962990827858448 -0.0020315442234277725 -0.0073939599096775055 0.016209349036216736 -0.017613757401704788 0.003964577801525593 0.005222258158028126 -0.0026536837685853243
of -0.015258586034178734 0.01946784183382988 0.0030662757344543934 -0.013450443744659424 0.017231006175279617 -0.028114095330238342 0.011023138649761677 -0.045050058513879776 -0.030699243769049644 -0.006964376196265221 0.013490339741110802 -0.003191980067640543 0.018829215317964554 -0.00420112581923604 0.024427279829978943 -0.003138688625767827 0.005900779273360968 0.0030455575324594975 0.02708781138062477 -0.0029833484441041946 0.01017678901553154 -0.019511330872774124 0.023051634430885315 -0.012355213053524494 -0.01872139610350132 0.011755021288990974 0.008326727896928787 0.011536060832440853 0.002744239056482911 -0.01386226899921894
muscle -3.670034056995064E-4 1.5882556908763945E-4 0.01623349077999592 0.016836123540997505 0.011990878731012344 -0.024311726912856102 0.013984567485749722 -0.0158842820674181 -0.03084571287035942 0.02090117707848549 -2.5679395184852183E-4 0.002383930142968893 0.0336918942630291 0.004776669666171074 0.02244190312922001 0.012763896025717258 -0.0052344114519655704 -0.004262759815901518 0.038176245987415314 -0.005655213259160519 0.0019077025353908539 -0.01769418828189373 0.015803050249814987 0.001542647834867239 0.009144631214439869 -0.005639499984681606 0.014917710795998573 0.035882364958524704 0.010256531648337841 -0.0018136828439310193
working -0.005954891908913851 -0.006706410553306341 -0.0060975453816354275 -0.010485786944627762 -0.00503923837095499 -0.013436983339488506 -0.014711580239236355 0.007781203370541334 0.0061151995323598385 0.004902595654129982 0.009323853068053722 -0.014620496891438961 0.015207445248961449 0.0011453625047579408 -0.008199174888432026 0.01591292768716812 -0.015430544503033161 -0.008197672665119171 -1.1406060366425663E-4 -0.015069573186337948 -0.0033775384072214365 -0.017050303518772125 0.006917896680533886 -0.003875242779031396 -0.003007033606991172 0.004680182319134474 -0.012495678849518299 0.0014115894446149468 -0.0059965611435472965 -0.004858434200286865
company -0.00972074642777443 -0.011477728374302387 -0.001759934239089489 0.01624683104455471 0.014640404842793941 -0.01594497635960579 -0.009379247203469276 -0.009546112269163132 -0.013344155624508858 -0.011153977364301682 0.005702366586774588 -0.01924559846520424 0.006918851286172867 0.012675343081355095 0.012219932861626148 0.0030473265796899796 -0.019291481003165245 -0.003453755285590887 0.006566243711858988 -0.015043709427118301 -0.004932697396725416 -0.0034153840970247984 0.013157130219042301 -0.018936678767204285 0.00782174151390791 -0.00281313294544816 0.002976935124024749 0.012611745856702328 0.01718764752149582 0.014892754144966602
end -2.595404803287238E-4 0.009379202499985695 -0.006064195651561022 -0.008316870778799057 0.016006773337721825 -0.005466337315738201 0.01415905449539423 0.008210020139813423 -0.009634637273848057 -0.016049964353442192 0.002927855821326375 0.002860812470316887 0.0056314668618142605 -0.005793863907456398 0.013265125453472137 -0.012883691117167473 -0.005158676765859127 0.0021265766117721796 0.0022528867702931166 -0.006984468549489975 -0.015291307121515274 0.0022947133984416723 -0.016055593267083168 -0.011477727442979813 0.012905898503959179 -0.008069041185081005 -0.0049815913662314415 -0.016167735680937767 -0.0015480777947232127 -0.007754548918455839
on -0.012888701632618904 -0.012936832383275032 0.013565466739237309 -0.014455522410571575 -0.01542977336794138 0.004761669784784317 0.015125645324587822 -0.014498518779873848 0.0012882435694336891 0.015088805928826332 0.01351494062691927 0.011302659288048744 0.00880943238735199 -0.015623553656041622 -0.006354771088808775 -0.01290101371705532 -0.009391522035002708 -0.0039156898856163025 -0.012205143459141254 0.006433399859815836 0.013921825215220451 -0.011271645314991474 0.002454820554703474 0.004832002799957991 0.0034860391169786453 0.003444747533649206 -0.015171879902482033 -0.008126470260322094 -0.006190642714500427 -0.013601410202682018
visuals 0.0034837527200579643 -0.010044360533356667 -0.014416221529245377 -0.00791196059435606 0.011319932527840137 -0.008127125911414623 -0.0059296563267707825 0.0028515695594251156 -0.01909537799656391 0.012741192243993282 -0.004784650634974241 -0.01806376501917839 -0.0058014485985040665 0.0032540990505367517 0.008245771750807762 0.013869332149624825 0.003461870364844799 0.015816261991858482 0.012480977922677994 -0.009862394072115421 0.007204951718449593 -0.012270518578588963 -0.007998859509825706 -0.01197567768394947 4.864706424996257E-4 -0.00260898657143116 0.009546303190290928 0.010173157788813114 -0.006578140426427126 -0.01516639906913042
purchase 0.006083449348807335 -0.01054945308715105 0.003183487569913268 -0.008540647104382515 -0.007649868261069059 0.013850020244717598 -6.03971304371953E-4 0.021537471562623978 0.014836018905043602 -0.031168686226010323 -0.020385997369885445 -5.4216288845054805E-5 -0.022329941391944885 0.00324805430136621 -0.03190550208091736 -0.02536701411008835 0.010262727737426758 -0.026428457349538803 -0.017363326624035835 0.011933501809835434 8.743652724660933E-4 0.01598399691283703 -0.011768694035708904 0.02691604383289814 0.018983224406838417 0.007064579986035824 -0.0023613260127604008 -0.006832119543105364 -0.019199611619114876 0.011667679063975811
any -0.00770164281129837 -0.004508947487920523 -2.296155143994838E-4 -0.010821926407516003 -0.011069586500525475 -0.0169666837900877 -7.345558842644095E-4 0.011981628835201263 -0.001974936109036207 -0.013181531801819801 -0.002849365584552288 0.0036222394555807114 -0.008663835935294628 -0.016341228038072586 0.012699038721621037 -0.013543760403990746 -0.016601283103227615 -0.0071132672019302845 -0.012478253804147243 0.011790814809501171 -0.014506562612950802 -0.004873830825090408 -0.011203856207430363 0.00311093358322978 9.757429943419993E-4 -0.00685921311378479 -0.009306209161877632 0.014446978457272053 0.007429004181176424 -0.0022724936716258526
bye 0.01038841251283884 0.015536083839833736 0.0013632994377985597 0.011508578434586525 -0.012396643869578838 -0.012446342036128044 -0.00952908769249916 -1.1063084821216762E-4 0.003628937527537346 0.015184162184596062 0.013506749644875526 -0.00924212858080864 -0.008992179296910763 0.011719060130417347 0.010725771076977253 -0.0010648590978235006 0.009573308750987053 -0.0158919095993042 0.0163122545927763 -0.005045024678111076 -0.01160477101802826 0.002626921283081174 0.015230883844196796 0.009945884346961975 -0.006969572510570288 0.013470885343849659 -0.011356955394148827 -0.009751749224960804 -0.008241097442805767 0.015338501892983913
what 6.734220660291612E-4 0.015432039275765419 -0.004716041032224894 0.02885676734149456 0.007998586632311344 -0.036146339029073715 0.0035496370401233435 -0.07004977762699127 -0.031234245747327805 0.05080324038863182 0.005283720325678587 0.002770423423498869 0.05268699675798416 -0.03595232963562012 0.04425342008471489 0.0020015535410493612 -0.007330543827265501 0.032387662678956985 0.037336401641368866 -0.010357760824263096 0.03752310946583748 -0.02188696712255478 0.052399687469005585 -0.04860599711537361 0.0011745123192667961 -0.0349862203001976 0.004296985454857349 0.02765224128961563 -0.010618473403155804 0.01622624509036541
mark 0.03414071351289749 -0.0033036968670785427 -0.02645416185259819 -0.021602481603622437 -0.022173527628183365 0.03584878519177437 0.012310942634940147 0.0582718625664711 0.03235454857349396 -0.021863581612706184 -0.024502843618392944 0.034654803574085236 -0.02862134575843811 0.0055639189667999744 -0.054525285959243774 -0.02449144423007965 0.02911841869354248 -0.008837036788463593 -0.040253132581710815 0.014569303952157497 0.0012017586268484592 0.020767398178577423 -0.04621560126543045 0.01910456083714962 0.022427117452025414 0.011911499314010143 -0.008924842812120914 -0.018181025981903076 -0.016133738681674004 0.01380640733987093
