51 30 457
buy -0.010697728954255581 -5.006131250411272E-4 0.004061306826770306 -0.00953982025384903 0.013504544273018837 0.002486773068085313 -0.009804691188037395 -0.01761513017117977 -0.01387534849345684 0.0036556588020175695 0.005117200314998627 0.0034743172582238913 8.764202357269824E-4 -0.010585173033177853 -1.37764829560183E-4 0.0031309607438743114 0.010230428539216518 -0.01622329093515873 -0.008125760592520237 0.015350627712905407 0.01229352131485939 0.01656297780573368 -0.012736016884446144 -0.005210650619119406 -0.012637519277632236 -0.0036054791416972876 0.003790960181504488 0.004996406380087137 -0.0047843544743955135 0.003988347481936216
tell -0.003850057488307357 0.012805656529963017 5.321096978150308E-4 0.0012539448216557503 -0.009268482215702534 -0.0019130063010379672 -0.009452092461287975 -0.007172020152211189 0.006985893938690424 3.45755775924772E-4 0.007690330035984516 0.008224274031817913 0.005304531194269657 -7.069896091707051E-4 -0.010379224084317684 -6.624194793403149E-4 -0.011431127786636353 0.011050070635974407 0.002362562343478203 0.011166833341121674 0.011329598724842072 0.007603329140692949 -0.009678855538368225 -0.0015863452572375536 -0.006048915442079306 -0.014522920362651348 -0.005946267396211624 0.01075057778507471 0.0062950486317276955 -0.013940919190645218
available -0.022723201662302017 0.016391148790717125 0.013295060954988003 -0.00627612741664052 -0.007988572120666504 -0.01893245056271553 -0.008856300264596939 0.007817715406417847 -0.014232163317501545 -0.016542714089155197 0.017621196806430817 -0.002553734928369522 -0.011756888590753078 0.007578013464808464 -0.011094222776591778 0.0068504698574543 0.008760112337768078 1.679577399045229E-4 0.00335432100109756 -0.01677427440881729 -0.01858239248394966 -0.00865106750279665 0.008463455364108086 -0.011869095265865326 0.0034802528098225594 -0.007812140509486198 -0.01569596491754055 -0.002330163959413767 -0.0022904120851308107 -0.008826431818306446
videos 5.015243077650666E-4 -0.006853416096419096 0.010814790613949299 -0.014864584431052208 -0.009177139960229397 -0.013940447010099888 0.0018385209841653705 -0.00802612118422985 -0.002641223603859544 0.011073806323111057 -0.006042219698429108 -0.010873549617826939 0.014175232499837875 -0.009346626698970795 -4.969958099536598E-4 -0.006177257746458054 0.01539607159793377 -0.0010372763499617577 -0.004016261547803879 0.002687758533284068 -0.010507186874747276 -0.004908278584480286 0.016878902912139893 -0.001619000337086618 0.007761442568153143 -0.0023820092901587486 -0.004917033948004246 -0.016139067709445953 0.009952254593372345 -0.008361226879060268
amputees -0.018716080114245415 0.011020206846296787 -0.009359315037727356 8.360956562682986E-4 0.004911663010716438 0.01099301315844059 0.002878396073356271 0.0023212903179228306 -0.01840716041624546 -0.01522738765925169 -0.0037044924683868885 0.012805208563804626 0.002862305846065283 0.014716535806655884 -0.006999932695180178 0.003923971205949783 -0.0037688002921640873 -0.004653424955904484 -0.007246607914566994 0.001724716741591692 0.007304457947611809 0.0011198240099474788 -0.00998662505298853 -0.008045581169426441 0.0207618847489357 -0.0053746020421385765 -0.01030254177749157 -0.007246718741953373 -0.007897836156189442 -0.018238916993141174
marki -0.012538589537143707 0.00709155946969986 0.013559166342020035 -0.01061234436929226 -0.011789996176958084 0.004585131071507931 0.005566375330090523 -0.006668132729828358 0.012081984430551529 -0.010289293713867664 0.009500095620751381 -0.006976707838475704 0.0070182932540774345 0.001978985732421279 -0.012763324193656445 5.369312129914761E-4 7.764130714349449E-4 0.005144749768078327 0.006892274599522352 -0.007332198787480593 -0.008072122931480408 0.014054984785616398 -0.013787680305540562 0.012442524544894695 0.016416650265455246 0.016357043758034706 0.003267772262915969 0.011311620473861694 -0.0029519260860979557 -0.0023176134563982487
rehabilitation 0.010698235593736172 -0.02080404758453369 -0.02146328054368496 0.01689630001783371 -0.0025279358960688114 -0.008737774565815926 -5.966204917058349E-4 0.004229237791150808 0.011439257301390171 -0.008027358911931515 0.009516187943518162 0.022819457575678825 0.021967416629195213 -0.012799780815839767 0.009312694892287254 -3.157525206916034E-4 0.008529189974069595 -0.007151939440518618 5.897489609196782E-4 -0.006621214095503092 0.01966148242354393 0.017275340855121613 -0.02041652426123619 -0.005787992384284735 -0.008228687569499016 -0.011332990601658821 0.007922195829451084 -0.014649897813796997 -0.0033943403977900743 -0.0012586609227582812
solution 0.01168580912053585 -0.009859276935458183 -0.00491566164419055 0.011443481780588627 -0.014786272309720516 -0.007551929913461208 -0.001332909450866282 -0.009235847741365433 0.0161860603839159 0.014486371539533138 -0.010685928165912628 0.0034595888573676348 -0.0033017739187926054 0.004279160872101784 -0.00847609806805849 -0.007199896965175867 -0.0035816803574562073 0.012810510583221912 0.005658075213432312 0.015740105882287025 0.0029816399328410625 -0.014490828849375248 0.011032048612833023 -0.012238516472280025 4.3266365537419915E-4 -0.005590455140918493 0.002810407429933548 -0.0015135988360270858 0.014019827358424664 -0.007453572936356068
handyman -0.016341831535100937 0.015081898309290409 -0.003115920815616846 0.0044502997770905495 -0.011912018992006779 -0.010228139348328114 0.002115673618391156 3.8869568379595876E-4 -0.009921607561409473 -0.001824451726861298 0.01105943601578474 -0.022573579102754593 0.0027872405480593443 0.01179418247193098 0.012626283802092075 -0.009843890555202961 -0.01987128145992756 0.00170355592854321 0.020889556035399437 0.006093055475503206 0.0068840826861560345 -0.007680980488657951 0.013028144836425781 -0.02143000438809395 0.012200570665299892 -0.00211535906419158 0.010077864862978458 0.009935327805578709 0.005293064285069704 -0.01457108836621046
details 0.004104329273104668 -7.280525169335306E-4 0.007718266919255257 -0.017851969227194786 -0.014812387526035309 0.007637425791472197 -0.007529780268669128 -0.010323318652808666 0.008161164820194244 0.003948700614273548 0.017605697736144066 -0.007286509498953819 0.0040032160468399525 -0.00827338732779026 0.008322113193571568 0.004358519800007343 -0.016435397788882256 0.008262326940894127 0.006382351275533438 0.009941457770764828 -0.009942194446921349 -0.0044754305854439735 -0.005386728327721357 -0.0037892963737249374 0.013725101947784424 0.01075731497257948 0.010962101630866528 -0.009208242408931255 -0.00400627451017499 -0.0010804272023960948
exo 0.009640343487262726 -0.005728847347199917 -0.014646058902144432 -0.0024103238247334957 -0.0016200251411646605 -0.011368978768587112 -0.016180096194148064 0.0037310561165213585 -0.00378457922488451 -0.00512096518650651 -0.0146097457036376 0.005018537864089012 -0.0029433469753712416 -0.011647234670817852 -0.012220930308103561 -0.0010103282984346151 -0.013294219970703125 -0.011063438840210438 -0.009217314422130585 -0.01242772489786148 0.007528587710112333 -0.012152515351772308 -0.008685064502060413 -0.0033999006263911724 0.010459072887897491 -0.01575477607548237 0.011242413893342018 6.173641886562109E-4 0.006455771625041962 0.0036202832125127316
info -0.0014940653927624226 0.0012939746957272291 0.011838231235742569 -0.003005002625286579 9.494150290265679E-4 -0.01609497144818306 0.009760954417288303 -0.020481502637267113 0.006182563025504351 -0.01468928437680006 -0.0037909741513431072 -0.013226788491010666 0.012484999373555183 0.008578920736908913 0.008167888037860394 0.010409723035991192 -0.010985879227519035 0.01279172021895647 -0.010611927136778831 -0.011743581853806973 6.74041744787246E-4 -0.0026690466329455376 -0.011064950376749039 0.012513416819274426 0.014099636115133762 0.01047902088612318 0.00347302109003067 -0.006233667489141226 0.012855793349444866 0.007752763107419014
ii -0.01629449985921383 0.010218137875199318 -0.0031313057988882065 -0.013473227620124817 -0.0042317332699894905 -0.008485005237162113 -0.01612870767712593 0.0015336659271270037 -0.009013466536998749 0.00747682387009263 0.004758225753903389 -0.004218359477818012 0.008554644882678986 -0.011474031023681164 -0.002813027473166585 -0.008958577178418636 -0.016134267672896385 -9.045347105711699E-4 0.012316711246967316 -1.5544159396085888E-4 0.006248997524380684 0.008510072715580463 0.002561388071626425 -8.962299907580018E-4 0.015164753422141075 0.006280613597482443 0.007769771385937929 -0.0014597132103517652 0.013421976938843727 -0.008369621820747852
markii -0.010934896767139435 0.00923690665513277 6.784711731597781E-4 0.005737641826272011 -0.0026756266597658396 0.011696839705109596 0.006513448432087898 -9.548553498461843E-5 -0.009157529100775719 0.014777668751776218 0.010599181056022644 0.010960361920297146 -0.0070033930242061615 0.0067152646370232105 0.0031845737248659134 0.010238696821033955 -0.010865213349461555 -0.007883822545409203 -0.015519993379712105 -0.00540947774425149 -0.010896340943872929 0.010472663678228855 -0.0029074533376842737 7.615970680490136E-4 0.0066732121631503105 0.0062970491126179695 0.003719019005075097 -0.00829668715596199 0.014320919290184975 -0.014287548139691353
give -0.005642659962177277 -0.010044962167739868 0.02303571067750454 0.001975882099941373 -0.02152387425303459 -0.0077965520322322845 0.004738921299576759 -0.017380084842443466 0.010409576818346977 0.013273177668452263 0.010378163307905197 -0.008971826173365116 9.82980360276997E-4 -0.007052232511341572 -0.007205445319414139 0.014104987494647503 -0.0016740995924919844 -0.0077226911671459675 -0.012983283959329128 -0.011924473568797112 0.008902388624846935 0.006586804054677486 -0.007022358477115631 0.004707310348749161 0.01584632694721222 -1.1403067037463188E-4 0.00570906326174736 0.003705895971506834 -0.003143759910017252 -0.005569150671362877
like 0.004043439868837595 0.006182429846376181 2.0460397354327142E-4 -0.005689896643161774 0.009932106360793114 0.00117018586024642 -0.013242572546005249 0.005915903020650148 0.008234024979174137 -0.01679859682917595 -0.0049400730058550835 -0.018511882051825523 -0.018118351697921753 -0.0022872567642480135 -0.012123794294893742 -0.002840006025508046 0.002726535312831402 0.005387895740568638 0.003988164477050304 -0.011356315575540066 0.0032519972883164883 0.007939535193145275 -0.003675746265798807 0.006370943505316973 -0.011166182346642017 -0.0039468975737690926 0.016252528876066208 -0.00443893950432539 0.009848497807979584 -0.008060183376073837
work -0.01186743751168251 -0.010796901769936085 -0.012354489415884018 0.013028684072196484 -0.012268571183085442 -0.011322577483952045 9.716028580442071E-4 -0.009685995988547802 -0.011844056658446789 0.008728912100195885 0.008042410016059875 0.010843256488442421 -0.003027048660442233 -8.379300124943256E-4 -0.009551855735480785 0.011610500514507294 -0.01666955091059208 -0.011874191462993622 0.01031825877726078 -0.009237534366548061 0.00483907014131546 0.006667460780590773 0.016111910343170166 0.01591077819466591 -0.011523197405040264 -0.008416986092925072 -0.0032885889522731304 0.00833962019532919 -0.007243277970701456 0.0017845076508820057
solutions 0.01633528806269169 -0.0018079665023833513 -0.02226170338690281 0.007815852761268616 0.03334574028849602 0.007123599294573069 0.01671423204243183 0.02595013938844204 -0.015088369138538837 0.0316791869699955 -0.04589448869228363 0.002839587163180113 0.014878702349960804 0.0033794830087572336 -6.46831642370671E-4 -0.003404043149203062 0.028726331889629364 0.014413129538297653 -7.836447912268341E-4 -0.004795827902853489 0.02331121824681759 -0.012974442914128304 0.006786100100725889 0.005756435450166464 -0.030116720125079155 0.0233030766248703 -0.0053285048343241215 0.03873936086893082 -0.007162568159401417 -0.01171939168125391
nothing -0.009969731792807579 0.00976664386689663 0.011427830904722214 0.011756601743400097 -0.015884656459093094 -4.042712098453194E-4 0.010729692876338959 0.015319865196943283 -0.01496270950883627 0.006401257123798132 0.012380707077682018 -0.007424352690577507 -0.01660645753145218 0.0013273052172735333 -0.01569039188325405 -0.0033253568690270185 -6.639427156187594E-4 0.0027949586510658264 -0.009049469605088234 0.0085486164316535 -0.010579082183539867 -0.014898640103638172 0.015009869821369648 0.007313176058232784 0.010213975794613361 -0.005551805719733238 -0.0023174427915364504 0.011579852551221848 -0.007174155209213495 0.011301642283797264
paralysis 0.010390447452664375 0.013515833765268326 0.007150913123041391 -0.012686613947153091 -0.005080333910882473 0.016071699559688568 -0.005997770000249147 2.3796677123755217E-4 -0.01191470492631197 0.0011721099726855755 0.013141471892595291 0.016910789534449577 -0.014902936294674873 0.0015738325892016292 -0.0027575267013162374 -0.006809702608734369 -0.01647275872528553 -0.003228261135518551 -0.015400557778775692 -0.0023923683911561966 -0.002940842416137457 0.00926987361162901 0.010279289446771145 0.010089732706546783 -0.00492016552016139 -0.014466042630374432 -0.001083538169041276 -0.012732925824820995 -8.301390334963799E-5 -0.007273195311427116
list -0.033079467713832855 -0.003571050241589546 0.020932059735059738 0.006482041906565428 -0.007049725390970707 -0.02214398793876171 0.013266644440591335 -0.025696877390146255 -0.016995158046483994 1.8418609397485852E-4 0.01255832239985466 -7.442105561494827E-4 0.009993184357881546 -0.00735281128436327 0.0109916552901268 -0.0015418239636346698 -0.02369786612689495 0.017133118584752083 0.0089549096301198 0.009647049941122532 -0.019057534635066986 -9.87728708423674E-4 0.01210504025220871 -0.005418355111032724 -0.0016778098652139306 -0.01716797612607479 0.0058747255243361 0.0030083172023296356 0.01903582736849785 -0.006785843521356583
catalogue 0.014344776049256325 0.007944870740175247 0.0047677066177129745 -0.009703432209789753 0.011391866020858288 -0.01311695110052824 -0.01082993857562542 0.011312336660921574 -0.0071000996977090836 0.014805891551077366 -0.0064066494815051556 0.02183888666331768 -0.009941332042217255 -0.014324094168841839 0.010754861868917942 -0.0163644440472126 0.007899158634245396 -0.004091446753591299 0.003198388032615185 0.012718655169010162 -0.0011424493277445436 -0.0036896346136927605 -0.01632104255259037 0.021181853488087654 -0.003077303059399128 0.004926906432956457 -0.009356553666293621 0.015616281889379025 0.007416434586048126 0.017604878172278404
prosthesis -0.0244547538459301 0.01546298898756504 -0.003404349787160754 -0.018626563251018524 -0.006001531146466732 -0.002863276517018676 0.014516759663820267 -0.02347579225897789 -0.017573067918419838 -0.01853964850306511 0.01859287917613983 0.002520152134820819 0.0015633059665560722 0.009068802930414677 0.0013682108838111162 -0.011988206766545773 0.008138444274663925 -0.007221829146146774 0.01718461886048317 0.004172631073743105 0.01219587679952383 -0.013866117224097252 0.008478285744786263 -0.007544968277215958 -0.0027535301633179188 0.00828851293772459 2.831032034009695E-4 -0.00878950022161007 -0.004540085326880217 -0.013348124921321869
demonstration 0.014603973366320133 0.015244865790009499 -0.0019629630260169506 -0.014219566248357296 0.004114430397748947 -0.015077962540090084 0.007692537270486355 3.430242068134248E-4 1.335973502136767E-4 0.0053784605115652084 -0.014943637885153294 0.014428401365876198 -0.0011524097062647343 -0.005698597989976406 -0.006623071152716875 -0.0036346158012747765 0.01189768873155117 0.013051881454885006 -0.00991193950176239 0.006444006226956844 -0.0023570528719574213 0.008469541557133198 0.003230048343539238 -0.005919258110225201 0.014483573846518993 0.004973375238478184 0.0062600672245025635 0.015926871448755264 -8.844849653542042E-4 0.006873226258903742
amputation -1.8511759117245674E-4 0.0074898861348629 -0.01151593029499054 0.011322003789246082 -0.023530926555395126 0.004198974929749966 0.004731736145913601 -0.022644300013780594 -0.006780167575925589 0.0029787495732307434 0.01384416501969099 0.009914839640259743 0.013206738978624344 -0.009245011955499649 0.00411882484331727 -0.005801670253276825 -0.006570580415427685 0.015729481354355812 0.00626280577853322 -0.001466043177060783 0.013256870210170746 -0.013827173970639706 0.010081931948661804 -0.01619667373597622 0.013187127187848091 -0.014432338066399097 -0.014206022955477238 -0.012471649795770645 -0.009830507449805737 0.010561048984527588
cut -0.015413573011755943 -3.1249027233570814E-4 0.011260373517870903 -0.006373222451657057 0.010794910602271557 0.015518629923462868 -0.0015612159622833133 -0.004508630372583866 -0.012409246526658535 0.014001648873090744 0.012840134091675282 -6.146344821900129E-4 -0.009963847696781158 0.011427359655499458 0.00862282793968916 -0.012358736246824265 0.006596101447939873 -0.013163279742002487 -0.008301250636577606 0.0018757301149889827 0.007259090431034565 -9.492927347309887E-4 -0.01272808201611042 0.01382424496114254 0.007031656801700592 -0.013013733550906181 0.01394023559987545 -0.01084346603602171 0.011322270147502422 0.011137014254927635
needed -0.0014922140398994088 -0.013457756489515305 -0.0011413312749937177 -0.002546684816479683 -0.01340604480355978 -0.004567852709442377 -0.012377925217151642 -0.007870735600590706 9.443138260394335E-4 -0.008621638640761375 -0.013750569894909859 0.0038872372824698687 -0.002206438919529319 0.0023961456026881933 -0.011558210477232933 0.005701020359992981 0.01362785417586565 0.002435426227748394 -0.00136121257673949 0.007663381285965443 0.013621445745229721 0.001399352913722396 0.0021486878395080566 -0.007763881701976061 -0.002229162957519293 -0.006579996086657047 0.0024183227214962244 0.0033742531668394804 0.011608405970036983 0.0036179048474878073
show -0.015210483223199844 0.014986297115683556 0.01680144853889942 -0.0040137325413525105 -0.00597331952303648 -0.016886305063962936 -0.012124159373342991 0.007478540763258934 -0.0047497497871518135 -0.012449231930077076 0.016260871663689613 0.011736327782273293 0.002062143525108695 0.004140088334679604 0.01692909561097622 0.017390713095664978 0.003756155027076602 -0.005992024205625057 0.016353027895092964 -0.018148325383663177 -0.019541094079613686 -0.004992225673049688 0.012365417554974556 0.009287438355386257 -0.004197889007627964 -0.01626378856599331 -0.0067705982364714146 0.010279931128025055 0.0028313565999269485 -0.011138160713016987
video -0.004709868226200342 -7.773024844937027E-4 0.01582205295562744 -0.004286384209990501 0.005754533689469099 -0.012632341124117374 -0.002846901537850499 -0.008121929131448269 -0.002416700590401888 -0.016160491853952408 -0.015638792887330055 -0.010112880729138851 -0.007553793024271727 -0.0027900121640414 -0.007193982135504484 -0.014844950288534164 0.0015325613785535097 -0.015035073272883892 -7.90897523984313E-4 0.007335345726460218 5.964820593362674E-5 0.009293630719184875 0.014299341477453709 0.013381349854171276 0.014865963719785213 0.0022061073686927557 0.005486478563398123 0.011626975610852242 -0.011643584817647934 0.007927906699478626
demo -0.004339931067079306 0.0052382247522473335 0.01191062293946743 -0.0037462853360921144 -0.0146710816770792 0.015327970497310162 -0.00641254149377346 0.004009604454040527 0.013559996150434017 0.007702150382101536 0.012097637169063091 -0.0038019579369574785 0.003286047838628292 0.007150130812078714 0.008195831440389156 0.005052239168435335 0.00956975482404232 0.0053841532208025455 0.012516912072896957 -0.013191242702305317 9.605877567082644E-4 0.00893921498209238 0.008025187067687511 0.008582225069403648 0.010977070778608322 8.228609221987426E-4 4.1602703277021646E-4 0.004710146691650152 -0.0030503449961543083 0.004771198146045208
products 0.030928680673241615 -0.003156110877171159 0.00819050520658493 0.00414971774443984 0.030933165922760963 0.016185779124498367 0.0073333196341991425 0.0025466028600931168 0.005679542198777199 0.027929633855819702 -0.023401707410812378 -0.015272066928446293 0.017022643238306046 -0.004841594956815243 0.0035611819475889206 -0.008049644529819489 -0.005391559563577175 -0.016432715579867363 0.011367930099368095 -0.00116952252574265 0.008729003369808197 0.016161682084202766 0.003491438692435622 -0.01815199665725231 0.0029304688796401024 0.008294004946947098 0.014324062503874302 0.017350852489471436 -0.020124705508351326 0.005357812624424696
can 9.197615436278284E-4 -0.008330442942678928 0.01974203623831272 -0.010515152476727962 -0.010018912144005299 0.010057850740849972 0.008297326974570751 -0.013655147515237331 -0.007909140549600124 0.002117709256708622 0.01299347635358572 0.0015155390137806535 -0.017043601721525192 0.015997081995010376 -0.006296681240200996 -0.0028712661005556583 0.0027095533441752195 -0.0010697862599045038 0.010280484333634377 0.019470296800136566 -0.010108677670359612 0.01075773499906063 -0.002698528114706278 5.128398770466447E-4 0.016433794051408768 -0.016557447612285614 -0.010725781321525574 9.207043913193047E-4 0.01598677597939968 -0.0031585434917360544
see 0.015274176374077797 -0.0036938635166734457 0.014914735220372677 -0.0030037492979317904 -0.0037367185577750206 -0.010642420500516891 -0.005435026716440916 0.008187639527022839 -0.0013104071840643883 -0.01482735201716423 -0.012908846139907837 0.011974204331636429 0.0011699320748448372 -0.016293112188577652 0.01554635725915432 0.01599336974322796 -0.013000907376408577 0.007340130861848593 0.011510531418025494 -0.013026787899434566 0.003992457874119282 0.012011172249913216 0.005213144235312939 0.007869599387049675 0.013957287184894085 -0.006154409144073725 0.012521382421255112 0.004454967565834522 0.0039153750985860825 0.010671031661331654
prosthetics 0.003102625021710992 0.0069130524061620235 -0.004651758354157209 0.006177891977131367 -0.003933767322450876 -0.0016465415246784687 -0.013713301159441471 -0.022765403613448143 0.004802317824214697 -0.008219203911721706 0.024224676191806793 -0.0034363805316388607 -0.011417710222303867 -0.00908326730132103 0.0196961909532547 0.014513709582388401 -0.003399405162781477 -0.0074590458534657955 8.86905356310308E-4 0.00910547748208046 -0.01744988188147545 0.003246856387704611 0.004837573505938053 -0.010583657771348953 -0.0032339144963771105 0.010250886902213097 -0.004657176323235035 -0.009762777015566826 0.008096578530967236 -0.019565599039196968
get 0.010363164357841015 0.011304935440421104 0.006183617748320103 -0.013778521679341793 -0.01636703871190548 0.004285396076738834 -0.014315349981188774 -0.011315399780869484 -0.007535397540777922 0.005728438962250948 -3.926571662304923E-5 -0.01088357251137495 -0.012595327571034431 0.01490694284439087 -0.0029963080305606127 -0.012732223607599735 -0.007460464257746935 -0.013624097220599651 -0.01606931909918785 0.005861430894583464 6.311045726761222E-4 0.007101390976458788 -0.013771305792033672 -0.0029581657145172358 0.015041439794003963 0.001376480795443058 -0.011231940239667892 -0.013948708772659302 0.0076639167964458466 -0.014088313095271587
muscle 0.008516110479831696 0.012103387154638767 0.014151262119412422 -0.008249198086559772 -0.0058135464787483215 -0.017453202977776527 0.0023211503867059946 -0.013439128175377846 0.006364744622260332 -0.011774104088544846 -0.015222620218992233 0.008496087975800037 0.012403552420437336 0.004227912053465843 0.012295998632907867 -0.017243685200810432 0.017764057964086533 -0.009720880538225174 0.00939470436424017 -0.008040090091526508 -0.011336755938827991 0.01730594038963318 0.00281727802939713 0.014541573822498322 0.012209787033498287 -0.002879415638744831 -0.009327564388513565 -0.006520559545606375 -9.428223711438477E-4 0.004720714408904314
working 0.013580426573753357 -0.008920072577893734 -0.0012057616841048002 0.0039426651783287525 0.0036463269498199224 -0.013098904862999916 -0.006573850754648447 -0.011511008255183697 0.006362373009324074 0.006404513027518988 0.001385082257911563 -0.015629056841135025 0.012149950489401817 -0.01512786466628313 4.601723048835993E-4 -0.012096269056200981 -0.0019021248444914818 0.012348812073469162 -0.003983081318438053 -0.013040028512477875 0.00610351050272584 -0.006403407547622919 -1.4360397472046316E-4 -0.01523502916097641 0.01566288247704506 -0.012702264823019505 0.012539535760879517 -0.01668490469455719 0.005196566693484783 0.0050587523728609085
exoskeleton -0.02033311314880848 -0.00852262880653143 -0.008826467208564281 -0.006023247726261616 2.3507385049015284E-4 -0.013261266052722931 0.01653400994837284 0.010230651125311852 0.009652644395828247 0.013439806178212166 0.0013963093515485525 -0.01185944676399231 -0.0010183225385844707 -0.0069163478910923 -0.010074824094772339 0.0021766365971416235 -0.013425914570689201 0.008034665137529373 0.013436890207231045 -0.012073302641510963 -0.006886556278914213 -0.009919174015522003 -0.007318900898098946 0.00890428014099598 -0.006554220337420702 -0.017876233905553818 0.009289005771279335 -0.006295396015048027 0.0025458999443799257 -0.012850207276642323
company -0.006210693623870611 -0.013743494637310505 0.001670071273110807 0.008335978724062443 -0.014077086001634598 0.005120479967445135 -0.008441939949989319 0.004929424729198217 -0.008572261780500412 0.00943823717534542 0.005050044972449541 -0.009128125384449959 0.00553481187671423 0.00792994536459446 0.0030845371074974537 -0.01093577966094017 0.004931611940264702 -0.009312735870480537 0.004344813525676727 -0.014783873222768307 0.01356654241681099 0.0030798662919551134 0.005900504533201456 0.0012529435334727168 0.014534058049321175 0.013066422194242477 -0.007013410329818726 -0.01658622920513153 -0.011657191440463066 -3.206494147889316E-5
hand -0.3274705111980438 0.1405436396598816 0.19228357076644897 -0.14127592742443085 -0.17041395604610443 -0.10235126316547394 -0.057937249541282654 -0.21216630935668945 -0.0021999741438776255 -0.051585908979177475 0.2436165064573288 -0.2036060392856598 -0.16448691487312317 0.17594073712825775 0.08505246043205261 0.058308664709329605 -0.1497012972831726 0.017007192596793175 0.0841665267944336 0.1030062735080719 -0.12416355311870575 -0.0017210824880748987 0.22496256232261658 -0.11945012956857681 0.24642586708068848 -0.009673540480434895 0.05746596306562424 -0.1264006346464157 0.088929183781147 0.001320344745181501
product -0.014591329731047153 -0.004274627659469843 0.009429221972823143 0.003125014714896679 0.0029803256038576365 -0.008690890856087208 0.015511635690927505 -0.004816332366317511 0.010471099987626076 0.008310171775519848 0.012531415559351444 -0.008852898143231869 -0.01973775215446949 0.016997482627630234 -0.0066724359057843685 -0.001499698730185628 0.006697748322039843 -0.01567642018198967 0.014418037608265877 0.01869761012494564 0.004383651074022055 0.0031825080513954163 0.01837540604174137 -0.008403944782912731 0.005084009375423193 -0.009891316294670105 0.004759591538459063 0.01519070751965046 -0.0020468777511268854 -0.008979967795312405
visuals -0.012500341050326824 0.008898502215743065 -0.00888038333505392 -0.011122644878923893 -0.009314369410276413 0.009229287505149841 -6.039275322109461E-4 -0.008056697435677052 0.0150809520855546 -0.009412872605025768 -0.009870180860161781 0.0022434466518461704 -0.015386562794446945 -0.006965606007725 0.015295596793293953 -0.0011236161226406693 0.009022438898682594 0.013472827151417732 0.016627904027700424 0.0041941008530557156 -0.012842594645917416 -0.004603583365678787 0.010232887230813503 0.0032616115640848875 7.355909328907728E-4 5.128508782945573E-4 -0.009742439724504948 -0.013813318684697151 -0.008281284011900425 -0.014509649947285652
sell 0.005874020513147116 -7.752084638923407E-4 0.0011316972086206079 -0.010085053741931915 -0.014883036725223064 -0.001730102114379406 0.012037122622132301 0.011414037086069584 -0.005633927416056395 -0.0016059711342677474 -0.018182573840022087 0.015246769413352013 0.006608125288039446 -0.004748552571982145 0.01585456356406212 0.003993871621787548 -0.0074808187782764435 0.016807468608021736 0.011923280544579029 -0.0018143082270398736 0.00519494479522109 -0.004872610792517662 0.008885125629603863 -0.014133699238300323 0.010874551720917225 0.0035575611982494593 -0.011111896485090256 0.017448242753744125 0.012867520563304424 -0.007444308139383793
purchase -0.006841386202722788 0.009782795794308186 0.0013958216877654195 -0.011776874773204327 0.007279267534613609 -0.01310841366648674 0.004264465533196926 -0.011561645194888115 0.009532211348414421 -0.008839369751513004 0.0066961869597435 0.0021559044253081083 0.006607872899621725 -0.010322785936295986 -0.011629191227257252 0.0076652709394693375 0.01484708208590746 0.009089330211281776 -0.005740296561270952 -0.011757447384297848 -0.012970744632184505 -0.005176290404051542 -0.01154881902039051 -0.003916167188435793 -0.006608819123357534 -5.324524245224893E-4 0.004825302865356207 -0.009253788739442825 -0.007051757071167231 -0.011037331074476242
menu -0.019040202721953392 0.00937575288116932 1.540639204904437E-4 -0.013976317830383778 -0.017124833539128304 -0.013122068718075752 0.011314412578940392 -0.01349608600139618 -0.0025557256303727627 -0.004257858265191317 -0.0016906880773603916 -0.007104199845343828 -0.008010792545974255 0.0018742315005511045 0.00801683496683836 -0.011480261571705341 0.007035734597593546 0.015294044278562069 0.008846576325595379 -0.008085444569587708 8.430824382230639E-4 -0.0019281961722299457 -0.011848896741867065 0.009070112369954586 0.019181465730071068 -0.014432418160140514 -0.005726998671889305 -0.010562848299741745 -0.0016064116498455405 0.0023965754080563784
people -0.01152309775352478 0.01618911512196064 -0.005998425185680389 -0.008850947953760624 0.001888043014332652 0.008693259209394455 0.015220592729747295 0.010696803219616413 -0.0019342746818438172 -0.008177218027412891 0.009462174959480762 -0.015415034256875515 -0.0027164185885339975 8.795142639428377E-5 0.0032739173620939255 3.6715439637191594E-4 5.762239452451468E-4 0.0024552964605391026 -0.005179847124963999 0.005750702228397131 0.013878995552659035 0.0028213681653141975 7.941031362861395E-4 -0.0044365148060023785 -0.00933765061199665 0.014686287380754948 -0.01656307838857174 0.00709898304194212 0.007275443058460951 -0.0044524879194796085
bye -0.003313144203275442 -0.011045446619391441 0.015575890429317951 0.004481651820242405 -0.004877028986811638 0.012861335650086403 -0.010257706046104431 0.008109037764370441 0.013416813686490059 0.009943807497620583 -0.015098382718861103 0.003683611052110791 -0.014048437587916851 -0.008511288091540337 -0.011043346486985683 -0.008870566263794899 -0.013431007973849773 -0.016401639208197594 0.008646747097373009 0.004345498513430357 0.012389005161821842 -0.01361891534179449 0.016593053936958313 -0.0025130202993750572 -0.012504305690526962 3.8758915616199374E-4 -0.0029284399934113026 0.010046707466244698 0.0037452857941389084 0.0022417129948735237
removed -0.010192224755883217 -0.013388954102993011 -0.008901706896722317 0.015977459028363228 0.0069999974220991135 -0.007442630361765623 -0.007701409049332142 0.0045606158673763275 -0.0099909333512187 -0.012661498971283436 0.0036356193013489246 -0.01083975750952959 0.0035074492916464806 0.013657755218446255 0.0022136184852570295 -0.00268628285266459 -0.012781831435859203 -0.007467919960618019 0.004688461311161518 -0.01494002714753151 -1.159406965598464E-4 -0.0033412158954888582 0.005489850416779518 -0.015732992440462112 0.0067564575001597404 -0.007625598926097155 -0.0017959877150133252 0.008546807803213596 0.011772890575230122 0.013559850864112377
thank 0.011635244823992252 0.0019944212399423122 0.012567556463181973 -0.015649229288101196 0.010388768278062344 0.00442940229550004 -0.015627514570951462 0.0126446932554245 0.0010914286831393838 -0.009125690907239914 0.006036873906850815 0.0010749420616775751 -0.011784248054027557 0.0070646945387125015 0.007270241156220436 0.008969955146312714 -0.011745902709662914 0.004184885881841183 -0.016243403777480125 0.01162557303905487 -0.006092844530940056 -0.012461910955607891 -0.002493092557415366 0.011370758526027203 0.012913438491523266 -0.0027062813751399517 0.01402160245925188 0.009031147696077824 6.02724205236882E-4 0.011581909842789173
information -0.006168717984110117 0.010377384722232819 0.017130907624959946 -0.00512433797121048 -0.015611878596246243 -0.0020878957584500313 -0.005062581039965153 -0.015687210485339165 0.011387312784790993 0.0010399199090898037 0.0013716911198571324 -0.004452278837561607 0.014439987018704414 0.008006755262613297 -0.003203359432518482 -0.01248680055141449 -0.008156436495482922 -8.131847716867924E-4 0.012945408932864666 -0.01176819484680891 4.570967867039144E-4 -0.011560257524251938 -0.012460948899388313 0.0011081702541559935 2.0988244796171784E-4 -0.015478366985917091 -0.011944190599024296 -0.00792491715401411 -0.0028569521382451057 0.012515852227807045
mark 0.0019745896570384502 -0.00624494906514883 0.005152220372110605 0.009790542535483837 0.0012666939292103052 -0.0034290554467588663 0.01167308259755373 -0.00881089735776186 -0.01443745568394661 0.012578277848660946 0.0037453207187354565 0.004797004628926516 0.012340536341071129 0.009523814544081688 0.0078018661588430405 0.010556938126683235 0.0023630785290151834 -0.012188608758151531 0.01872147247195244 0.007300565484911203 0.005832036025822163 -0.008800757117569447 0.009712422266602516 -1.6669513570377603E-5 0.020757557824254036 0.0031323216389864683 0.012238971889019012 0.011352239176630974 0.00477130152285099 0.0052380673587322235
