48 30 457
buy 0.00857754610478878 -0.008628221228718758 0.0012206166284158826 0.01231559831649065 0.004652046132832766 -0.0019423672929406166 0.012688817456364632 -0.004315267316997051 -0.01435107458382845 0.01321274321526289 -0.0013291274663060904 0.009047373197972775 0.015839865431189537 0.006210670806467533 0.006552419159561396 0.009255778975784779 0.005671787541359663 -0.012215906754136086 0.01700698211789131 0.0048135933466255665 0.00813930481672287 -0.008960437029600143 0.005210632923990488 0.002828938653692603 0.01604403927922249 0.0037333692889660597 0.010793834924697876 0.013600500300526619 0.0031168702989816666 0.005826360546052456
tell -0.0033626961521804333 -0.015639666467905045 -1.942820381373167E-5 0.009851731359958649 -0.011746527627110481 0.005606037564575672 -0.007609595078974962 0.007091570179909468 -0.008477609604597092 0.010424650274217129 0.0022439691238105297 -0.007676947396248579 0.00618461100384593 0.006689457222819328 0.0019015842117369175 -0.011482331901788712 0.006503563839942217 -0.009165001101791859 0.0032588925678282976 -0.014777288772165775 0.01471416000276804 0.0026184741873294115 0.003750307485461235 0.0030871995259076357 0.011284571141004562 0.013471100479364395 -0.007154637016355991 -0.014382995665073395 -0.011553455144166946 -2.543128211982548E-4
available -0.009850400499999523 0.01167939230799675 0.018847385421395302 -0.006258613895624876 -0.01879418082535267 -0.004076031036674976 -0.0063906204886734486 -0.018384821712970734 0.011564027518033981 -0.0020017463248223066 0.005725169088691473 -0.004837426356971264 0.012286142446100712 0.009132666513323784 -0.0019657330121845007 -0.011835857294499874 -0.009481181390583515 -0.0012001049472019076 0.013840651139616966 -0.010759820230305195 -0.002529078396037221 -0.011738461442291737 -0.010495232418179512 0.0010422130580991507 0.002366580767557025 -0.016440363600850105 -0.011448354460299015 -0.010893902741372585 -8.658255683258176E-4 0.01211062353104353
marki 1.3503694208338857E-4 -0.006464174948632717 0.01107222493737936 -0.015176801010966301 -0.009550658985972404 -0.014093693345785141 0.0016215492505580187 -0.008298230357468128 -0.0026251792442053556 0.010728860273957253 -0.005581106524914503 -0.010965071618556976 0.013951960951089859 -0.00914914533495903 -2.851214958354831E-4 -0.006036692764610052 0.015318877063691616 -0.0011036749929189682 -0.003889417741447687 0.002653626725077629 -0.010905943810939789 -0.004895036108791828 0.01727408915758133 -0.0016928367549553514 0.008227971382439137 -0.002361633349210024 -0.004959878511726856 -0.01651134341955185 0.01001130510121584 -0.0082719586789608
rehabilitation -0.02277945913374424 0.0178168173879385 -0.002157567534595728 -0.023028511554002762 -0.006188622210174799 -0.0045962040312588215 0.012913387268781662 -0.023390278220176697 -0.015056455507874489 -0.022168472409248352 0.02070038393139839 0.0025901058688759804 -0.0013378674630075693 0.009927980601787567 0.00297552696429193 -0.011900833807885647 0.010402515530586243 -0.00986991636455059 0.018946727737784386 0.0035253330133855343 0.007689745165407658 -0.01427539624273777 0.010439136996865273 -0.004316630307585001 -9.433315135538578E-4 0.011948265135288239 0.0015100209275260568 -0.012447822839021683 -0.0034954058937728405 -0.011209938675165176
solution 0.023503724485635757 -0.00777073111385107 -0.027136793360114098 0.01304024737328291 0.036898743361234665 0.011693296954035759 0.01805233582854271 0.03015035204589367 -0.015134808607399464 0.03531504049897194 -0.050435349345207214 0.0036331675946712494 0.021500326693058014 -0.0027930785436183214 -0.004562240093946457 -0.004679940640926361 0.02585698664188385 0.01501069962978363 -0.0029072239995002747 -0.008826876059174538 0.028898069635033607 -0.011657694354653358 -0.002269629156216979 0.003902043215930462 -0.035745393484830856 0.019287560135126114 -0.004972835537046194 0.04014979675412178 -0.011546176858246326 -0.01356799528002739
handyman -1.7600815044716E-4 0.016611959785223007 0.019256580621004105 -0.012761457823216915 -0.008506795391440392 -0.019467873498797417 2.75458674877882E-4 -0.017140895128250122 0.0058946991339325905 -0.01245990488678217 -0.008778110146522522 0.0025954272132366896 0.006145666353404522 0.009763129986822605 0.014700116589665413 -0.014458457008004189 0.014754360541701317 -0.009405621327459812 0.011547339148819447 -0.004823077004402876 -0.01559087447822094 0.016286252066493034 0.01056851539760828 0.011961957439780235 0.018144333735108376 -0.0014724874636158347 -0.007331596687436104 -0.008321627043187618 0.0015680276555940509 0.005212652496993542
visual 0.015198341570794582 -0.00367132481187582 0.014823858626186848 -0.00292784976772964 -0.0036451530177146196 -0.010645854286849499 -0.005237882491201162 0.008174656890332699 -0.0014679681044071913 -0.014744718559086323 -0.013035552576184273 0.011942476034164429 0.0012996287550777197 -0.016207372769713402 0.015555835328996181 0.015881866216659546 -0.01294687669724226 0.007413273211568594 0.011603320017457008 -0.013022500090301037 0.004137922078371048 0.011984651908278465 0.00531846284866333 0.0077338977716863155 0.013945415616035461 -0.006148960907012224 0.01248548086732626 0.004570940975099802 0.003862424986436963 0.010570801794528961
exo 0.009074132889509201 -0.002570425160229206 0.0050260270945727825 -0.016424166038632393 -0.01169467344880104 0.009163495153188705 -0.007033976260572672 -0.006656703073531389 0.008771213702857494 0.0049217999912798405 0.013695521280169487 -0.004944101441651583 0.0053939493373036385 -0.009992209263145924 0.007010198663920164 0.0038127105217427015 -0.01361486129462719 0.007685582619160414 0.004967656452208757 0.008885875344276428 -0.008280389942228794 -0.004341731313616037 -0.007652960252016783 -0.001975752180442214 0.010892197489738464 0.011709540151059628 0.0105603551492095 -0.007513965014368296 -0.00498183025047183 -5.881379474885762E-4
info 0.0034787491895258427 -0.0020660357549786568 0.008702230639755726 -2.9694565455429256E-4 0.004179502837359905 -0.014742212370038033 0.010803497396409512 -0.017077242955565453 0.006206028629094362 -0.013534396886825562 -0.007462858222424984 -0.011096488684415817 0.013484987430274487 0.005964347161352634 0.006652589421719313 0.009276480413973331 -0.009242579340934753 0.012339104898273945 -0.012174329720437527 -0.011190534569323063 0.0022594095207750797 -0.002696971409022808 -0.014244167134165764 0.014469361864030361 0.009291903115808964 0.01108468510210514 0.004024396184831858 -0.0035218698903918266 0.01292629074305296 0.007050810847431421
ii -0.01026858575642109 0.00905885174870491 2.590003714431077E-4 0.005963845178484917 -0.0023500919342041016 0.011833813041448593 0.006606657523661852 3.718748048413545E-4 -0.009175262413918972 0.014799504540860653 0.010113488882780075 0.011411013081669807 -0.006697996519505978 0.0064291683956980705 0.003073659725487232 0.010109043680131435 -0.010502324439585209 -0.007913826033473015 -0.015658337622880936 -0.005672370083630085 -0.01070821937173605 0.0104214483872056 -0.0032989345490932465 0.0010469153057783842 0.006254163570702076 0.0063953823409974575 0.003541842568665743 -0.008110416121780872 0.014154120348393917 -0.014244936406612396
markii -0.010977118276059628 -0.01107821799814701 -0.012789929285645485 0.013289273716509342 -0.011751323938369751 -0.011016140691936016 0.0010936592007055879 -0.009101088158786297 -0.01177507545799017 0.008940537460148335 0.007378316950052977 0.01124545931816101 -0.00270652212202549 -0.0011684721102938056 -0.009733629412949085 0.01148838922381401 -0.016228098422288895 -0.01198360975831747 0.01016055978834629 -0.009458146058022976 0.005109962075948715 0.006698614452034235 0.015705939382314682 0.016181448474526405 -0.012056534178555012 -0.008265255019068718 -0.0033857738599181175 0.008702335879206657 -0.007503419648855925 0.0018388365861028433
give -0.008654061704874039 0.011195885948836803 0.0025107457768172026 -0.012873462401330471 0.005703277885913849 -0.013914673589169979 0.0034250630997121334 -0.012634175829589367 0.00974967796355486 -0.010133558884263039 0.008854360319674015 0.002030211966484785 0.005561096593737602 -0.009539589285850525 -0.010754699818789959 0.008290397934615612 0.014482474885880947 0.008921289816498756 -0.005221136845648289 -0.011742273345589638 -0.014645135961472988 -0.005115363281220198 -0.010079389438033104 -0.00409333873540163 -0.004674097988754511 -8.598235435783863E-4 0.0046142940409481525 -0.010790894739329815 -0.006724036298692226 -0.010703861713409424
need -0.012400122359395027 0.007092523388564587 0.013496682047843933 -0.010593346320092678 -0.011746003292500973 0.004603061359375715 0.005577160511165857 -0.006610750686377287 0.01210730243474245 -0.010294243693351746 0.00941427517682314 -0.006897417362779379 0.007109221536666155 0.0019196018110960722 -0.012752540409564972 5.211681127548218E-4 8.373592863790691E-4 0.0051350160501897335 0.006875924300402403 -0.0074200378730893135 -0.008056252263486385 0.014056229963898659 -0.013853569515049458 0.012482555583119392 0.016398906707763672 0.01639353483915329 0.0032297747675329447 0.011302093975245953 -0.003009202890098095 -0.002279700245708227
like -0.021049531176686287 0.017524955794215202 0.013977319933474064 -0.008614052087068558 -0.007022210396826267 -0.017914121970534325 -0.010281549766659737 0.00870264507830143 -0.012352564372122288 -0.016304025426506996 0.01824798248708248 -0.004269483499228954 -0.015257904306054115 0.009005734696984291 -0.011078620329499245 0.007581623736768961 0.010313495993614197 -0.002289372496306896 0.0037126559764146805 -0.015266383066773415 -0.020258963108062744 -0.007972953841090202 0.011271352879703045 -0.01206949818879366 0.0049100881442427635 -0.004871455021202564 -0.014288030564785004 -0.0027258943300694227 -0.0027299767825752497 -0.0075343092903494835
work 0.014112060889601707 -0.009147001430392265 -0.0016734246164560318 0.004255541600286961 0.003995712846517563 -0.012990623712539673 -0.0063903420232236385 -0.011065054684877396 0.00625626789405942 0.006451006047427654 8.565992466174066E-4 -0.015186186879873276 0.01249794289469719 -0.01540407259017229 3.0346744460985065E-4 -0.012288499623537064 -0.001533219707198441 0.012397144921123981 -0.004167902283370495 -0.013244816102087498 0.006386502180248499 -0.00644712382927537 -5.53004676476121E-4 -0.014967938885092735 0.01517195999622345 -0.012671740725636482 0.012371597811579704 -0.016436267644166946 0.0050600385293364525 0.005071708001196384
nothing -0.01216685026884079 0.008788770996034145 -0.009172861464321613 -0.010908476077020168 -0.009125201031565666 0.009312503039836884 -4.6535447472706437E-4 -0.0077911908738315105 0.014987153001129627 -0.009386377409100533 -0.010204264894127846 0.0025118263438344 -0.015082131139934063 -0.0071554179303348064 0.015223798342049122 -0.0012631143908947706 0.009232543408870697 0.013502527959644794 0.016589688137173653 0.004001682624220848 -0.01267149392515421 -0.004615729209035635 0.010032453574240208 0.0033448387403041124 4.513337044045329E-4 4.914507735520601E-4 -0.00986254122108221 -0.013654760085046291 -0.008424011990427971 -0.01456237118691206
paralysis 0.01502744946628809 0.01077535655349493 0.0048391129821538925 -0.010812844149768353 -0.002489605452865362 0.01665232516825199 -0.005175923928618431 0.0034803375601768494 -0.010309196077287197 0.0027500877622514963 0.009668450802564621 0.01929851621389389 -0.013640173710882664 -9.398097754456103E-4 -0.00423656078055501 -0.007088900543749332 -0.014682483859360218 -0.0032893663737922907 -0.016360154375433922 -0.0033780038356781006 -0.0022503843065351248 0.009048549458384514 0.006773747969418764 0.01281637605279684 -0.008757609874010086 -0.014730112627148628 -0.0013445713557302952 -0.010804370976984501 -3.909688093699515E-4 -0.007638753391802311
list -0.011864524334669113 -0.014576598070561886 0.010586818680167198 0.013871272094547749 0.007705310825258493 -0.015861744061112404 0.01642768085002899 -0.010031153447926044 -0.013267195783555508 0.007823856547474861 -0.0046687377616763115 0.0063974251970648766 0.013486048206686974 -0.014484903775155544 0.004359877202659845 -0.004759585484862328 -0.013040616177022457 0.014323229901492596 0.003262838814407587 0.00917030405253172 -0.011971469968557358 -1.62333672051318E-4 7.723403978161514E-4 0.003417778993025422 -0.018085461109876633 -0.012482639402151108 0.006858524400740862 0.014328590594232082 0.01600426249206066 -0.00559525890275836
catalogue -0.005464382003992796 -0.003716432023793459 0.0015284763649106026 -0.007211699616163969 0.017536111176013947 0.004197520203888416 -0.008170231245458126 -0.013786311261355877 -0.014194818213582039 0.005725223105400801 -5.558382254093885E-4 0.0051171304658055305 0.003984557464718819 -0.012981998734176159 -0.0018556389259174466 0.0018137299921363592 0.012032086960971355 -0.015723396092653275 -0.010185884311795235 0.01429196260869503 0.016028329730033875 0.016879290342330933 -0.017063109204173088 -0.0035709666553884745 -0.01729430817067623 -0.002944755367934704 0.003698107087984681 0.008936785161495209 -0.005882312543690205 0.004957781173288822
prosthesis -0.016211774200201035 -0.009588941931724548 -0.011335253715515137 -0.004173796158283949 0.0027539776638150215 -0.012687979266047478 0.01720421016216278 0.012907233089208603 0.011068145744502544 0.015050660818815231 -0.0015001482097432017 -0.00985468178987503 -1.4224817277863622E-4 -0.008402937091886997 -0.010534149594604969 0.002034334698691964 -0.011511294171214104 0.007706005591899157 0.013656919822096825 -0.012810076586902142 -0.006924217101186514 -0.010524865239858627 -0.00876341201364994 0.010602321475744247 -0.008936525322496891 -0.01756082847714424 0.008796187117695808 -0.004698226694017649 0.0018427064642310143 -0.014093410223722458
demonstration -0.010394974611699581 -0.01343249436467886 -0.007889573462307453 0.015030917711555958 0.007518752943724394 -0.007429725490510464 -0.008110289461910725 0.004801780451089144 -0.009041231125593185 -0.01142458152025938 0.0035674641840159893 -0.012950494885444641 0.001741290558129549 0.014723499305546284 0.002375188749283552 -0.002388120861724019 -0.012981369160115719 -0.007860861718654633 0.004924151115119457 -0.013515718281269073 -6.140859914012253E-4 -0.0028720716945827007 0.0070874677039682865 -0.01616302691400051 0.007507806643843651 -0.006396003533154726 -4.055438912473619E-4 0.00916192214936018 0.01223822869360447 0.014293341897428036
detail -8.16811400000006E-4 0.003556335810571909 0.009667793288826942 -0.00177174957934767 -0.013002720661461353 0.016255395486950874 -0.005684811621904373 0.006594002712517977 0.013741893693804741 0.008179265074431896 0.009555211290717125 -8.960264385677874E-4 0.005436870735138655 0.0049110050313174725 0.007338169030845165 0.004575852770358324 0.011437702924013138 0.0053025176748633385 0.011879543773829937 -0.014739603735506535 0.0020844233222305775 0.008983713574707508 0.005375484004616737 0.010186547413468361 0.007981696166098118 1.9124383106827736E-4 -4.5265996595844626E-4 0.006248929537832737 -0.004047350957989693 0.0042352876625955105
amputation 0.015889137983322144 0.001770880538970232 -0.012114674784243107 0.010680794715881348 0.004198004491627216 6.337708909995854E-4 -0.011314500123262405 -0.01309681124985218 0.0074583059176802635 -0.004655512049794197 0.013728704303503036 0.003469283226877451 -0.0075081465765833855 -0.014515543356537819 0.016726339235901833 0.01331854984164238 0.0030468213371932507 -0.007888332940638065 -0.0010896744206547737 0.005882802419364452 -0.015028092078864574 0.0020682194735854864 -0.002698028925806284 -0.003916895017027855 -0.013051604852080345 0.011404591612517834 -0.006015405524522066 -0.0040694293566048145 0.006206780206412077 -0.020630767568945885
cut -6.44332729279995E-4 -0.014018028974533081 -0.0018763088155537844 -0.0018901415169239044 -0.012933975085616112 -0.004424764309078455 -0.012043413706123829 -0.007202701177448034 9.148848475888371E-4 -0.008525033481419086 -0.014461229555308819 0.004723238293081522 -0.0016366919735446572 0.0017931031761690974 -0.011946463026106358 0.005460192449390888 0.01409931294620037 0.0025086873210966587 -0.0015912172384560108 0.007325383834540844 0.014055822044610977 0.0012283099349588156 0.00118699437007308 -0.007198488339781761 -0.0032575931400060654 -0.0068624429404735565 0.00212389649823308 0.00384365557692945 0.011450516059994698 0.003311244770884514
show -0.0280833151191473 0.023021968081593513 0.023716242983937263 -0.01034009549766779 -0.013080359436571598 -0.021976320073008537 -0.014309116639196873 1.9926180539187044E-4 -0.0033175426069647074 -0.014354262501001358 0.02450917474925518 0.007310783956199884 -0.0046499380841851234 0.009607277810573578 0.021515700966119766 0.019056687131524086 5.428988952189684E-4 -0.006146627943962812 0.021584318950772285 -0.01486371923238039 -0.02729303576052189 -0.0064040678553283215 0.022719884291291237 0.006916480604559183 0.004479358438402414 -0.015866130590438843 -0.0055619473569095135 0.005516593344509602 0.006209501065313816 -0.011914771050214767
video 0.009689133614301682 -0.0056314850226044655 -0.014650837518274784 -0.0025079483166337013 -0.0017748539103195071 -0.011493075639009476 -0.016349872574210167 0.0037571541033685207 -0.003774292068555951 -0.005479406099766493 -0.014523276127874851 0.005173576530069113 -0.002956684213131666 -0.011663329787552357 -0.012098434381186962 -9.969916427507997E-4 -0.013242078945040703 -0.01105060987174511 -0.009379404596984386 -0.01250747125595808 0.007398614659905434 -0.012153713963925838 -0.008768326602876186 -0.003202921012416482 0.010584961622953415 -0.015656694769859314 0.011142956092953682 3.954744024667889E-4 0.0065589784644544125 0.003893811721354723
demo 0.008922480046749115 -0.01623121090233326 0.014534521847963333 0.007808301132172346 -0.013134253211319447 -0.0035817627795040607 0.007252499461174011 -0.007322025019675493 0.01089378073811531 0.015898453071713448 -0.0013156165368855 -7.258564583025873E-4 0.007757943123579025 -0.013877051882445812 -0.010857107117772102 0.0114335548132658 0.005484439432621002 -0.008303808979690075 -0.016777750104665756 -0.016014687716960907 0.014588882215321064 0.006675133015960455 -0.01657513715326786 0.010282984003424644 0.0049917688593268394 0.0012178394244983792 0.0034951758570969105 0.00978544820100069 -0.006709634326398373 -0.004881067201495171
can 0.0016936653992161155 0.0014434335753321648 0.0037584376987069845 -0.012923646718263626 -0.016129137948155403 -0.0022896025329828262 0.011125004850327969 0.009492370299994946 -0.005103518255054951 -0.0013017564779147506 -0.015458634123206139 0.011025804094970226 0.0032379948534071445 -0.0012219384079799056 0.016863826662302017 0.005368389654904604 -0.009217655286192894 0.01639537699520588 0.013045186176896095 4.917756450595334E-5 0.004119031596928835 -0.004788210615515709 0.013039524666965008 -0.016356930136680603 0.014885405078530312 0.004790862090885639 -0.009436048567295074 0.016388703137636185 0.01349582802504301 -0.006734967231750488
see -0.0159317534416914 0.010154031217098236 -0.0033495163079351187 -0.013367514126002789 -0.004028294235467911 -0.008356312289834023 -0.01608826033771038 0.0018080834997817874 -0.009055373258888721 0.007519152946770191 0.004474597051739693 -0.003948091994971037 0.008758336305618286 -0.011642287485301495 -0.00286605441942811 -0.009010213427245617 -0.01592668890953064 -9.166052332147956E-4 0.012205361388623714 -3.147136012557894E-4 0.006394669879227877 0.008485782891511917 0.0023368909023702145 -7.705250754952431E-4 0.014938781037926674 0.006345648784190416 0.007634312380105257 -0.0013119530631229281 0.013269769959151745 -0.00830473005771637
get -0.01719745062291622 0.009680303744971752 -1.344388583675027E-4 -0.015012994408607483 -0.016252806410193443 -0.011957123875617981 0.010729625821113586 -0.012362019158899784 -0.001469150884076953 -0.0037512651178985834 -0.0019910731352865696 -0.007268477696925402 -0.009626602753996849 0.0020560864359140396 0.007837256416678429 -0.010975969024002552 0.008188166655600071 0.013978940434753895 0.008764520287513733 -0.007497108541429043 2.6260537561029196E-4 -0.001578637631610036 -0.01108547579497099 0.009328320622444153 0.019481977447867393 -0.013010747730731964 -0.005209749098867178 -0.010406376793980598 -0.0021892283111810684 0.002909438917413354
muscle 0.006398119498044252 -0.0200366023927927 -0.01890372857451439 0.015816103667020798 -0.002673633862286806 -0.008878991939127445 1.9748782506212592E-5 0.0021354551427066326 0.011171857826411724 -0.005406304262578487 0.011199085041880608 0.018182646483182907 0.019087838008999825 -0.00958375446498394 0.009363132528960705 5.356924375519156E-4 0.005801385268568993 -0.006491594482213259 0.0017345796804875135 -0.003540913574397564 0.019796913489699364 0.01677468605339527 -0.016938762739300728 -0.008696532808244228 -0.005946303717792034 -0.010875866748392582 0.009605485945940018 -0.0132696982473135 -0.0023662596940994263 -0.002143152290955186
working 0.01456725038588047 0.015263793990015984 -0.0020422949455678463 -0.014145384542644024 0.004059203434735537 -0.015131996013224125 0.007811513263732195 2.6516232173889875E-4 3.3563890156074194E-6 0.00523556862026453 -0.014947189018130302 0.014625347219407558 -9.545356733724475E-4 -0.005747986026108265 -0.006580051966011524 -0.0036620188038796186 0.011982250958681107 0.01310607697814703 -0.009897858835756779 0.006302558816969395 -0.0023572291247546673 0.008450689725577831 0.0032060318626463413 -0.0059157502837479115 0.01446997094899416 0.00489141745492816 0.00612209178507328 0.015866272151470184 -9.214250603690743E-4 0.00679826969280839
exoskeleton -0.007228967268019915 -0.007048625964671373 0.003958719316869974 0.007122257258743048 0.003299074014648795 -0.0072513786144554615 0.015022887848317623 -0.0013075084425508976 0.010919976979494095 0.005106627941131592 0.009788531810045242 -0.0011765836970880628 -0.014079008251428604 0.009750102646648884 -0.008277427405118942 -0.002480614697560668 0.008127099834382534 -0.015479094348847866 0.011263590306043625 0.013449719175696373 0.005243971943855286 0.00281368475407362 0.00979541428387165 -0.004436405375599861 -7.023672515060753E-5 -0.012139545753598213 0.002090365858748555 0.01335676945745945 -0.0039489660412073135 -0.008781659416854382
company 0.008494378998875618 -0.010321262292563915 0.014760973863303661 -0.00726133631542325 -0.008126777596771717 0.010888639837503433 0.00823128316551447 -0.008720457553863525 -0.007882963865995407 5.595975380856544E-5 0.008938951417803764 0.008621614426374435 -0.012141444720327854 0.010604253038764 -0.006878652144223452 -0.004099774640053511 0.005974699277430773 -0.0013046497479081154 0.008542371913790703 0.01485761534422636 -0.009299895726144314 0.010110296308994293 -0.008757621981203556 0.0047348178923130035 0.011235606856644154 -0.017189275473356247 -0.01315291691571474 0.0012531898682937026 0.014410560950636864 -0.002963498467579484
amputee -0.006409891881048679 0.005547480192035437 -0.01550074853003025 0.004867082927376032 0.011828944087028503 0.012719214893877506 0.0036404377315193415 0.011433476582169533 -0.014222202822566032 -0.012018190696835518 -0.011847203597426414 0.018483437597751617 0.004791032988578081 0.009343980811536312 -0.009386292658746243 0.0032316541764885187 0.0014600525610148907 -0.006382400635629892 -0.008800557814538479 -2.0713754929602146E-4 0.007973434403538704 0.001057929010130465 -0.016607925295829773 -0.0017922522965818644 0.011938119307160378 -0.004413118585944176 -0.01026398316025734 -0.0028437841683626175 -0.008975477889180183 -0.019139254465699196
hand -0.19551487267017365 0.11878916621208191 0.13681285083293915 -0.11665785312652588 -0.12946932017803192 -0.0698816105723381 -0.06857073307037354 -0.14031676948070526 0.005809301044791937 -0.0815250352025032 0.17853277921676636 -0.10925863683223724 -0.11239289492368698 0.11008285731077194 0.07842239737510681 0.04841811954975128 -0.08255509287118912 -0.00752794835716486 0.04781400039792061 0.04744688794016838 -0.11886504292488098 0.007858611643314362 0.15787477791309357 -0.05779820680618286 0.18893271684646606 0.010993573814630508 0.027355320751667023 -0.11973332613706589 0.05810236930847168 0.0341617576777935
product 0.03658727556467056 -0.004726699087768793 0.004415506962686777 0.0066626123152673244 0.03373624384403229 0.01970929093658924 0.008254180662333965 0.006015605293214321 0.005938264075666666 0.031303729861974716 -0.0269180741161108 -0.014221924357116222 0.023491447791457176 -0.008705485612154007 0.0023991053458303213 -0.008827916346490383 -0.0048704445362091064 -0.01685384474694729 0.011146049946546555 -0.007956817746162415 0.013420996256172657 0.017894988879561424 -0.0020865260157734156 -0.0201739352196455 -1.3296569522935897E-4 0.006594447884708643 0.013239266350865364 0.017880160361528397 -0.02680574357509613 0.004338336177170277
prosthetic 0.012622490525245667 0.002051558345556259 -0.017093976959586143 0.014564765617251396 -0.015961062163114548 0.006241939961910248 0.00576965045183897 -0.013960936106741428 -0.002606141148135066 0.006912370678037405 0.004437629599124193 0.013636072166264057 0.015404924750328064 -0.014073855243623257 0.002123332116752863 -0.006893248297274113 -0.0010898241307586432 0.0144503777846694 0.004416094161570072 -0.0028094369918107986 0.014934045262634754 -0.013330933637917042 0.004391084425151348 -0.010769874788820744 0.0051323166117072105 -0.01123100332915783 -0.013061941601336002 -0.0074203950352966785 -0.011014214716851711 0.011477637104690075
sell 0.01061204168945551 0.002695722971111536 -0.003962335642427206 -0.0018796100048348308 0.01431336347013712 0.0026283860206604004 -0.01067814789712429 0.009979077614843845 0.007238126825541258 -0.015147792175412178 -0.011094219982624054 -0.01424394641071558 -0.013186790980398655 -0.006102004554122686 -0.01400078646838665 -0.005260008852928877 0.005620813928544521 0.00591928418725729 0.0025465297512710094 -0.013650830835103989 0.006988107226788998 0.0074310461059212685 -0.009250640869140625 0.008949099108576775 -0.01752392202615738 -0.003999672364443541 0.01495941448956728 -8.279993198812008E-4 0.00821495708078146 -0.008497125469148159
purchase 0.00921793282032013 0.01247751247137785 0.006805798504501581 -0.01458696834743023 -0.01719699613749981 0.003862097393721342 -0.014472642913460732 -0.012217304669320583 -0.007757790386676788 0.005148464348167181 0.00107937166467309 -0.01132911816239357 -0.013083766214549541 0.015771105885505676 -0.002389097586274147 -0.012554710730910301 -0.007682163268327713 -0.01369957160204649 -0.015395000576972961 0.005896295886486769 -3.187405673088506E-5 0.0068488214164972305 -0.01253273244947195 -0.0034537282772362232 0.016399286687374115 0.0015691074077039957 -0.011416902765631676 -0.014684424735605717 0.007774151396006346 -0.01413691695779562
menu 0.0012441776925697923 0.012448797933757305 0.010118103586137295 -0.012530457228422165 0.003264312632381916 -0.016758598387241364 -0.01198103278875351 0.0018512042006477714 -0.0089036226272583 0.01160342711955309 0.004059388767927885 0.01616700552403927 -0.01361983921378851 -0.009708150289952755 0.013789414428174496 -0.014894213527441025 0.0011009634472429752 -0.0029274506960064173 0.006833692081272602 0.015748653560876846 -0.005095415748655796 -0.003996148705482483 -0.008717541582882404 0.015117817558348179 0.00513877859339118 0.0021822352427989244 -0.007924062199890614 0.009629269130527973 0.01026204414665699 0.014769399538636208
people 0.01244162954390049 0.0013775507686659694 0.011709664016962051 -0.014841102063655853 0.010882198810577393 0.0045328643172979355 -0.015161609277129173 0.0132138691842556 0.0010016611777245998 -0.00899156741797924 0.005366337485611439 0.0019855282735079527 -0.01116886455565691 0.0063948845490813255 0.006881108507514 0.008754868991672993 -0.011400215327739716 0.004334561992436647 -0.01639539934694767 0.011341401375830173 -0.005668312776833773 -0.012751732021570206 -0.0035072972532361746 0.011867059394717216 0.011760609224438667 -0.003081092843785882 0.013702919706702232 0.009521882981061935 5.437203217297792E-4 0.01100871805101633
bye -0.009851307608187199 0.009718205779790878 0.01135673001408577 0.011807299219071865 -0.015819527208805084 -3.770063631236553E-4 0.010749336332082748 0.015405969694256783 -0.014961606822907925 0.006417922675609589 0.012286588549613953 -0.007350349798798561 -0.01654484122991562 0.0012672683224081993 -0.01571553759276867 -0.003351302118971944 -6.07868074439466E-4 0.0027951044030487537 -0.00907847099006176 0.008508899249136448 -0.010534691624343395 -0.014900569804012775 0.014925901778042316 0.00736354012042284 0.010123096406459808 -0.005546905100345612 -0.0023405065294355154 0.011628532782196999 -0.007201323285698891 0.011307277716696262
removed 0.013290412724018097 -0.010751769877970219 -0.006293669808655977 0.01260991021990776 -0.013833780772984028 -0.007370776031166315 -6.912609678693116E-4 -0.00815165787935257 0.016035575419664383 0.01465190201997757 -0.012033972889184952 0.004966879263520241 -0.002131467452272773 0.0031922943890094757 -0.008915254846215248 -0.007584077306091785 -0.0028715040534734726 0.012974326498806477 0.005323394201695919 0.01509325671941042 0.0037026763893663883 -0.014873982407152653 0.009423158131539822 -0.011354484595358372 -0.0013263323344290257 -0.0058660549111664295 0.0022691022604703903 -7.310578366741538E-4 0.01379981730133295 -0.007991885766386986
thank -0.0044812997803092 -8.891304605640471E-4 0.015590302646160126 -0.0041193715296685696 0.005954665131866932 -0.012553785927593708 -0.002693778369575739 -0.007939611561596394 -0.0025064738001674414 -0.016079632565379143 -0.015926800668239594 -0.009966500103473663 -0.007340175099670887 -0.0028977454639971256 -0.007267728913575411 -0.014945647679269314 0.0016811410896480083 -0.014994634315371513 -8.387238485738635E-4 0.007237655110657215 2.4804275017231703E-4 0.009268703870475292 0.014153006486594677 0.013424196280539036 0.014627077616751194 0.0022362214513123035 0.005432365462183952 0.011790269985795021 -0.011745070107281208 0.007881786674261093
information -0.0025507118552923203 0.007815277203917503 -0.009683568961918354 0.010029089637100697 -0.005815261509269476 -0.007119460497051477 0.003442315384745598 0.008191061206161976 -0.008772864006459713 -0.0016973926685750484 0.0017678546719253063 -0.013106953352689743 0.009245100431144238 0.003560558659955859 0.008981115184724331 -0.011456869542598724 -0.014477821066975594 0.0010325370822101831 0.015358892269432545 0.0017182306619361043 0.010971768759191036 -0.007379075977951288 6.997131858952343E-4 -0.013855470344424248 0.0013549941359087825 -0.0020364641677588224 0.00754766957834363 0.01387504767626524 0.003522424027323723 -0.013167530298233032
mark -8.595068356953561E-4 0.012693433091044426 -6.95655180606991E-4 0.0012819115072488785 -0.007313580717891455 -6.883859168738127E-4 -0.009230914525687695 -0.005191357806324959 0.007568642031401396 0.0013682099524885416 0.00577599136158824 0.008880495093762875 0.005210412200540304 -9.363458375446498E-4 -0.01077333651483059 -6.696580094285309E-4 -0.009502869099378586 0.010210882872343063 0.0022795074619352818 0.011081317439675331 0.011689011007547379 0.007752705831080675 -0.009404807351529598 -0.0011104496661573648 -0.006886669900268316 -0.013050448149442673 -0.005966402590274811 0.0120749082416296 0.005352315027266741 -0.01368997897952795
